//Numpy array shape [84]
//Min -0.086781241000
//Max 0.187437042594
//Number of zeros 0

#ifndef B11_H_
#define B11_H_

#ifndef __SYNTHESIS__
model_default_t b11[84];
#else
model_default_t b11[84] = {0.0202596448, 0.0676795915, -0.0012896651, 0.0579999723, 0.0350162499, 0.0956072882, 0.0416562669, 0.0372761488, -0.0469950885, -0.0272497311, -0.0063231140, -0.0264514256, 0.1207557991, -0.0089839101, -0.0235973988, 0.0598192923, 0.0960912108, 0.0268758368, -0.0014658312, 0.0400880910, 0.0010774113, 0.0104964105, 0.0180777777, 0.0006573605, 0.0125775207, -0.0342502967, -0.0147717455, 0.0603885204, -0.0103557231, 0.0186380222, 0.0435910895, 0.0130895320, -0.0065055997, -0.0135409050, 0.0786396787, 0.0395175368, 0.0028834147, -0.0155308386, 0.0221036635, 0.0145773804, 0.0014112837, -0.0304342452, 0.0664025247, 0.0123983677, 0.0206366424, 0.1058543473, -0.0709854886, 0.1029972434, 0.0780250728, 0.0598702170, -0.0393454023, 0.1231593788, -0.0437936410, -0.0486293547, 0.0218741409, -0.0659686700, -0.0045169205, 0.1139303520, 0.0746766180, 0.1215818599, 0.0648899227, 0.1874370426, -0.0393682905, -0.0061094631, -0.0418270230, 0.1092077792, -0.0127948029, -0.0175819825, -0.0490236208, 0.0854203403, 0.0496229529, 0.0148194898, -0.0290284771, 0.0613231510, 0.0865881220, -0.0730829090, 0.0128012197, 0.0146403350, -0.0228282437, 0.1379979253, 0.0201367885, -0.0867812410, -0.0461695679, -0.0514486842};

#endif

#endif
