//Numpy array shape [120]
//Min -0.076384603977
//Max 0.111514344811
//Number of zeros 0

#ifndef B9_H_
#define B9_H_

#ifndef __SYNTHESIS__
model_default_t b9[120];
#else
model_default_t b9[120] = {0.0697482973, 0.0196742658, -0.0210631080, 0.0194356441, -0.0111188702, 0.0465022698, 0.0444436371, -0.0649909377, -0.0443479121, -0.0111383675, 0.0556434914, -0.0572426282, -0.0123124970, 0.0813872814, -0.0389227867, 0.0916104019, 0.0176631007, -0.0105294865, 0.0383618437, 0.0545530170, 0.0262230765, 0.0368220657, 0.0125751719, 0.0880768448, 0.0184534639, -0.0013146180, -0.0090586049, 0.0405963734, -0.0162650831, -0.0178910922, 0.0602704324, -0.0558556318, -0.0173335318, 0.0649901703, -0.0250781067, -0.0151396953, 0.0219326988, 0.0099205263, -0.0763846040, 0.1086547747, -0.0078621758, 0.0646688789, 0.0089131482, -0.0431000404, -0.0331943966, 0.0465167239, -0.0351470709, 0.0827878565, 0.0623378903, -0.0739066228, 0.0094389571, 0.0328286700, -0.0137103545, 0.0192124471, -0.0144184940, 0.0457629263, 0.0417576656, -0.0205630548, 0.0592160933, 0.0508847274, -0.0121984659, -0.0351677500, -0.0275121555, -0.0039293151, -0.0159745328, -0.0134394336, 0.0217409097, 0.0088914474, 0.0030548510, -0.0200345106, -0.0150911296, -0.0314771868, -0.0153592322, -0.0313853286, 0.0884070545, -0.0098942816, 0.1115143448, 0.0158032998, -0.0256216526, 0.0892385095, 0.0329052731, 0.0257571712, -0.0330181010, 0.0080281813, 0.0354547203, 0.0340620615, -0.0395191088, -0.0162929501, -0.0077452785, 0.0123206144, 0.0571606979, -0.0539925545, -0.0217710566, -0.0462786369, -0.0504839122, 0.0176220480, -0.0438753031, 0.0473618209, -0.0562030524, -0.0112546645, 0.0221963320, -0.0157378335, 0.0282888375, 0.0224859193, 0.0000656852, 0.0226752162, -0.0151988072, 0.1014193296, 0.0297550708, 0.1086811721, 0.0426259413, 0.0233826898, -0.0382087678, 0.0322964266, -0.0488627553, 0.0803150386, -0.0049044029, 0.0443280861, 0.0202420112, 0.0629664734};

#endif

#endif
