//Numpy array shape [5, 5, 1, 6]
//Min -0.511072099209
//Max 0.373111486435
//Number of zeros 0

#ifndef W2_H_
#define W2_H_

#ifndef __SYNTHESIS__
model_default_t w2[150];
#else
model_default_t w2[150] = {-0.2751947939, -0.0815936923, 0.1112912446, 0.2562018037, 0.2307813615, -0.1426903307, -0.1332771331, -0.0215366893, 0.0139922285, 0.0840264410, 0.2506348789, -0.2128190100, -0.0764509812, 0.1624062210, 0.3731114864, 0.3047634363, 0.1452771872, 0.0487629697, 0.1511479467, -0.1079263315, 0.3595357835, 0.0788533911, 0.2563435733, 0.2041309923, 0.0289271623, 0.1278559268, 0.3223197460, -0.0620045252, 0.2032838166, 0.2289807349, -0.3668520153, 0.1541202366, -0.0398560017, 0.2859665751, 0.1426258683, -0.1934594363, -0.2383514792, 0.2227874398, -0.3553345799, 0.2540516853, 0.0876978785, -0.3103515804, 0.1976371557, 0.0611947849, -0.3674677312, 0.2623808980, 0.3607418537, -0.1081608385, 0.0430579707, -0.0139567424, -0.3286069632, 0.2974495590, 0.1006699204, 0.0171714779, 0.2729507089, -0.1962893456, -0.2756158113, 0.0494492948, 0.2461913526, 0.3144693971, -0.3900958300, 0.3135201037, -0.0218391027, 0.0173487477, -0.1735284179, -0.2184704393, 0.0991092920, 0.2793696821, -0.3759956062, 0.0336087905, -0.1252830625, -0.2878772616, 0.0547059402, 0.1452665329, -0.5110720992, 0.2103873193, -0.1020132080, 0.1807401776, 0.2019599676, 0.1393028200, -0.2489649802, 0.2022050172, -0.0149892773, 0.3458719850, 0.0205254611, 0.0097448938, -0.1615071297, 0.1727736294, 0.2368318886, 0.3466891348, 0.0365130417, 0.1441050619, 0.0291266963, -0.2412520796, -0.2707124949, -0.1292176098, 0.1709447801, 0.3017086685, 0.1673759073, -0.2217044979, -0.4233162701, -0.2021903247, 0.2270737886, 0.2161207646, 0.0749106482, -0.1779969782, -0.3581995368, 0.1096059978, 0.2464877665, -0.1453358382, 0.0393673964, -0.0343517549, -0.2754563689, 0.1184735745, 0.1952558607, -0.3121694922, 0.0733852983, 0.1404535323, -0.2139311135, 0.0591377281, -0.1614677608, 0.1030760631, 0.3438681960, -0.3330547810, -0.1282755286, -0.1219254732, -0.0243163686, -0.0735064372, 0.3681024909, -0.4116073847, 0.0342558287, -0.0794936493, -0.0024103213, -0.1345752627, 0.1724001020, -0.2945362926, -0.1853743494, 0.0677058697, -0.1007716432, -0.1033914536, 0.2309085131, -0.1779036671, -0.1275158226, 0.1505376101, -0.0087434314, 0.0276039951, 0.0331719220, -0.0821149647, 0.0415628254, 0.1047877520};

#endif

#endif
