//Numpy array shape [400, 120]
//Min -0.555934667587
//Max 0.462658464909
//Number of zeros 0

#ifndef W9_H_
#define W9_H_

#ifndef __SYNTHESIS__
model_default_t w9[48000];
#else
model_default_t w9[48000] = {-0.1256765425, 0.1379942000, -0.1719813645, 0.3364331722, 0.0491392612, -0.0206633285, -0.2254497707, -0.1678434610, 0.1523387879, 0.0453942791, 0.1144251600, 0.0379971117, 0.1607722938, -0.0697444305, -0.1272404641, -0.0654757842, -0.1506036967, -0.0241424013, -0.2601344287, -0.0722221881, 0.1579755396, -0.0895053893, 0.1439862847, -0.1869006157, 0.0395492800, 0.0404967740, 0.0897163153, 0.1962525547, -0.1327078491, 0.0082501927, -0.1726531386, 0.2160774767, 0.0235634707, -0.3576186299, 0.0116362171, -0.0604087673, 0.1119921580, -0.1369592100, 0.0337986350, -0.1274792850, -0.0604727827, 0.0308771953, -0.2241457850, -0.0244736616, -0.0803510100, -0.0658673272, -0.0623748377, 0.0469752476, -0.0313974582, 0.0641752928, 0.0577216148, -0.0117596183, -0.0899021178, 0.0550339371, -0.1075484455, -0.0064136782, -0.1341468990, -0.0641115531, 0.1367674619, 0.0098820962, -0.0642837808, 0.0665438995, 0.0149065517, -0.0833504647, -0.1377129257, 0.0595267378, 0.0971201882, 0.2465261221, -0.2166575342, 0.0507074110, 0.1453034133, -0.0134424204, 0.1532164067, -0.1008317024, -0.0050992798, -0.0996583626, -0.1288096607, 0.1072635949, -0.1427034885, 0.0695803687, -0.0264654197, 0.0006973523, -0.1048375070, 0.0588664226, 0.0096420152, -0.3173658550, -0.0772055984, 0.0887366459, 0.0582951941, -0.1478127092, 0.1808824241, 0.1123411506, 0.0248746760, 0.0046039284, 0.0078382185, -0.1521662474, 0.1062249318, 0.0741724893, -0.0472959988, 0.0546093434, 0.0553568862, -0.0213915892, 0.0312921591, -0.1118661314, 0.0847173184, 0.1388007402, 0.0214253310, -0.1457021832, -0.2911469936, -0.0623576343, 0.2069668472, -0.1733703911, -0.0262328964, -0.0117977522, -0.0524447076, 0.1051213518, 0.1328704655, 0.0003869060, -0.0091789225, -0.0635565892, 0.0959207118, -0.0908946842, 0.0042654849, -0.0255626980, -0.0535715632, -0.1674863398, -0.0196846351, 0.0719147101, 0.0558740273, -0.0231928658, 0.1205002591, -0.0190113746, 0.0082493462, -0.0083231013, 0.0701838136, -0.0038973016, 0.1181544214, 0.0368391536, 0.1596794128, -0.0579676889, 0.0894780755, 0.0205589402, 0.0122118741, -0.0649433210, -0.0249367356, -0.0787992030, -0.0865781531, -0.0124536641, 0.0509624071, -0.0673683956, -0.0114555098, 0.0613917112, 0.0441366509, 0.1138075292, -0.0391330197, 0.0350088812, -0.0090464382, -0.0033422990, 0.0384842604, 0.0968005806, 0.0190208349, -0.1224974468, 0.1051933169, -0.1039318144, -0.1303995550, 0.1209192649, -0.0101293335, 0.0245275814, -0.1449806541, 0.0915954337, 0.1400490552, -0.1437351406, -0.0114922309, 0.0903357565, -0.0486337505, -0.0985554233, -0.1379289627, -0.0264603160, 0.0702452138, 0.0643419400, -0.1304068118, 0.1111023277, -0.0462045185, 0.0262116231, -0.2202706188, -0.1065563783, 0.0219801124, 0.0813199431, -0.2626657188, 0.0057843528, -0.0685279891, 0.0848057717, -0.1250682324, -0.0245537348, -0.0828609169, -0.0335434601, 0.0290578362, -0.0286748391, -0.0663016513, -0.0573899075, 0.0059405542, 0.0442789495, -0.0660994351, -0.0213334281, 0.0204808377, -0.0569895394, -0.1301288456, -0.0464976914, -0.1032660306, -0.2242946178, -0.2331634015, 0.0375404023, -0.0822311044, -0.0202612840, -0.1519675255, 0.0683234334, 0.0320428200, 0.0518550500, -0.1075433344, 0.0807934403, 0.0269778464, 0.0431486033, 0.0326647609, 0.1090196297, -0.1040039584, 0.1196160614, 0.0018838606, -0.0543544777, 0.1102607474, -0.0985451266, 0.0167791899, -0.0581145324, -0.1890583485, 0.0570993386, -0.0660685748, 0.1595420092, -0.0336959362, -0.1809188426, 0.1116747186, -0.0080382777, 0.1002936438, -0.0889696032, 0.1726435572, 0.0161138009, -0.0355803743, -0.0951402932, -0.1011938602, -0.0727232620, 0.1238848642, 0.0459045582, 0.2892907560, -0.0552206747, -0.0437272564, -0.2082522660, 0.0216617379, -0.0169511419, 0.0595941879, -0.0321361870, 0.2215778381, -0.0633549318, -0.0209387820, 0.2871161997, -0.2143911421, 0.0841821730, 0.2319162637, -0.0332130715, -0.2076923400, 0.0123887518, -0.1156335324, 0.0283194687, 0.1007798016, 0.0436923765, 0.0906103402, 0.1677317619, -0.0386961028, 0.0054168254, -0.1224546209, -0.0791333318, -0.0118833203, -0.0315396301, 0.0573189966, -0.1530783474, 0.0617938340, 0.0113572478, -0.0237681102, 0.1062850878, 0.0111197662, 0.0834276900, -0.0956910402, 0.0260625798, 0.1564586312, -0.0054174741, -0.1203566194, 0.2946895063, 0.0547934659, 0.0585334413, -0.0335803740, -0.0653713048, -0.0930022299, -0.1775276065, 0.0794520825, -0.1019967720, -0.1168611348, 0.0829053968, -0.0408440046, -0.2185976058, 0.0085268412, -0.0071904762, -0.1765407771, 0.0231262557, -0.1072494909, 0.0590625219, -0.0346789658, -0.1174765676, 0.0617972650, 0.0438523665, -0.0125740469, -0.1600627750, -0.1759841442, -0.1428918242, 0.0600958280, 0.0076530995, 0.0876878798, -0.2561491430, 0.1626270860, -0.0756118521, -0.1098726317, -0.0505100228, 0.1644126922, -0.1932936013, -0.2815276384, -0.0222624782, 0.0650880560, -0.0483692922, 0.0176726133, 0.1468668729, -0.1672043502, 0.1421119273, -0.0071116900, -0.1049209237, 0.0517547205, 0.0369403027, 0.0066078142, 0.1878463328, -0.3750278354, 0.1946039051, 0.2199653685, -0.0801748708, 0.1421854496, -0.0505783185, -0.0890070572, 0.1753598303, -0.1229889765, 0.1090590283, -0.1834570915, 0.0225128755, -0.0564166792, 0.0404865667, -0.1088123173, -0.0495451465, -0.0775250047, -0.0957379490, 0.0198034085, 0.0444491096, -0.0727323964, 0.1420824677, 0.0038547332, -0.0943950564, 0.0184284020, 0.0680320412, 0.0904811472, 0.0180384610, -0.0513383001, 0.0706194341, 0.0854280964, -0.0497459099, 0.0936771333, 0.0059795287, -0.0364996307, -0.0141863227, 0.0825325623, 0.1431047767, -0.0319274403, 0.0316040404, 0.1378867328, -0.0438040905, 0.0223645233, 0.0327089913, -0.0496615246, 0.0698461384, 0.0232852045, 0.0002053518, -0.0680147558, 0.0682637393, -0.0076581631, -0.0096784765, -0.0369909517, -0.0132547263, -0.0832562745, 0.0366510227, -0.0440046787, -0.0674339384, 0.0589051358, -0.0034048548, -0.0165028926, 0.0705099702, 0.0139976805, 0.1238739640, 0.0271723252, 0.1272894889, -0.0380670913, 0.0035967052, 0.0117620844, 0.0620708205, -0.1341262311, -0.1040405035, 0.0474766716, 0.0801926181, -0.0354780890, 0.0587385856, -0.1491546035, -0.1240980849, -0.1645777076, 0.0671679527, -0.2556369305, 0.0310399812, -0.0217855014, -0.0117827775, -0.1044468656, 0.1011480168, -0.0720430315, -0.0716841444, 0.1108258292, -0.0255235806, -0.0474906527, -0.0480663814, -0.1556225270, -0.1308541000, -0.0770561472, -0.1093712524, 0.1039751247, 0.0945898294, -0.0079404339, -0.1021911576, 0.0511773713, 0.0225829091, -0.0424035601, 0.0561507083, 0.0247230567, -0.0180935711, 0.1153741851, -0.0387434736, -0.0997054279, -0.1185265407, 0.0494772270, 0.0308535844, -0.0130600529, 0.1285562515, -0.2632473409, -0.0110483412, 0.1497143656, 0.0694771782, 0.0003330033, -0.0746190175, 0.0247038715, 0.2631821036, 0.0754055455, 0.1489257663, -0.0596771985, -0.0225426219, 0.0207290314, -0.0933553576, -0.0916697830, -0.0160047524, 0.0577710271, 0.2682454884, -0.1117274687, -0.0275509674, -0.0792377368, 0.0313048102, 0.0471401960, 0.0370260142, -0.0098523833, -0.0502927825, -0.0291412082, -0.0471374579, -0.0596806519, 0.0343385153, 0.1188906878, 0.0662922859, 0.0004847206, 0.0718256608, 0.0997303799, -0.0088720806, -0.0268008988, 0.0437375121, -0.0607973523, -0.0881498381, -0.0158401504, -0.0684098750, -0.0086188391, 0.0524067543, -0.0587012097, -0.0419430807, -0.0181717928, 0.0493331328, 0.1244098023, -0.0764144585, -0.0191136468, -0.0143123697, 0.1570802033, 0.0111334836, 0.0511580631, 0.0841545686, -0.1293871105, -0.0258145854, 0.0006739379, 0.0178412460, -0.0837324262, 0.2352604568, 0.0136634037, 0.0274933577, -0.0083724866, -0.0929043069, 0.0474916585, -0.0740081221, 0.0113211190, -0.0482761227, -0.1041144729, 0.0347924680, 0.0217143558, -0.1061798111, 0.0594663844, -0.1408834159, 0.0979197100, -0.0466219671, -0.0236407761, -0.0745656565, 0.1286531389, 0.0672776848, 0.0674539506, -0.0588883869, -0.0198036786, 0.0798354819, 0.0019008889, 0.0838469639, 0.2058076560, -0.0716415942, -0.0226591974, -0.0037671444, -0.1289569885, 0.0490106046, -0.0871854350, -0.0193184949, 0.0860802829, 0.0785666779, 0.1590648592, 0.0809833482, -0.1375467926, -0.0184778962, 0.0571887717, 0.1199364066, -0.0092597855, -0.0189921688, -0.0332499072, 0.0593934990, 0.0043344791, 0.0694049746, -0.0294255838, -0.0734959468, -0.0501601957, -0.0866736770, -0.1162928492, -0.1293051690, 0.0738108307, -0.0132908998, 0.1899532676, -0.0975438058, -0.1985465437, 0.0376384445, -0.1007100418, -0.0659270510, -0.0703580230, -0.0979823396, -0.0087036835, 0.0857158080, -0.1150189340, 0.0266936533, -0.0481438227, 0.1255631894, 0.1292596310, 0.1020591930, 0.0726140589, -0.0244689044, -0.1030130014, -0.0153193856, 0.0111448755, -0.0238183327, -0.0505979694, 0.0178394504, -0.0775292441, -0.2037350237, 0.1257138848, -0.0728774369, -0.1185717061, -0.1294513196, 0.0522642806, 0.0775823891, -0.0406260043, -0.0806035027, -0.0350400656, -0.0362028964, 0.0241510030, 0.0663758293, 0.0515175425, 0.0482339747, -0.0099470038, -0.0151429810, 0.0851972103, 0.0254909676, -0.1601245701, 0.0066887303, -0.2021553814, 0.0324465707, 0.0470297858, 0.0005289264, -0.0940297619, 0.0633893833, -0.0121877845, -0.0088445172, 0.0238812398, -0.0847304687, -0.1131455228, 0.0484027565, 0.0449943021, -0.1057671458, -0.1312700212, 0.0638290122, -0.0921456739, 0.1107038632, -0.1163665280, -0.0165308136, 0.0289569199, -0.1463765651, -0.0592034161, -0.1177439317, 0.0164934602, 0.0079234978, -0.1862812638, 0.0345872492, 0.0512302406, -0.0310907736, -0.0176761020, -0.1566166580, 0.0450508110, -0.0199259035, 0.0486752875, -0.0426042937, -0.0113633322, 0.1506264657, 0.0610809661, -0.0441616625, 0.0789230764, -0.0422347486, -0.3152485788, -0.1236142516, 0.0126595162, -0.1184245348, -0.0243233517, 0.0083606178, -0.0984578207, 0.0523670837, -0.1113091856, -0.1647996455, 0.0959085450, -0.0487006307, 0.0150429280, 0.1384109557, -0.0560097769, -0.1505190432, -0.1648080498, -0.0559400730, -0.0877360702, 0.0381521657, 0.0668706819, 0.0317320935, -0.0083722118, -0.0437977463, -0.0903198943, -0.0388089791, -0.0971922725, -0.2262191474, -0.0786990523, -0.0678500682, 0.0053768693, -0.0436328016, -0.1252808422, -0.0503595099, -0.0293081589, 0.0660379380, -0.0573206283, 0.0523545556, 0.0615286604, -0.0732484087, -0.0738947019, -0.0633720383, -0.0680258125, -0.0115827462, -0.0266381484, 0.0747651979, 0.0687153414, -0.1572412997, -0.0822068676, 0.0319160707, 0.0484856442, 0.0619869530, -0.0459671766, -0.2102548629, -0.0128221055, 0.1585924774, -0.0286214259, -0.1462464631, 0.0569759309, -0.0685387328, 0.0378585495, -0.0618538819, -0.0516772047, -0.0310949702, 0.0130170668, 0.0451630838, -0.0309272576, -0.0515538119, 0.0317645967, 0.0899514630, 0.0272793267, -0.0461859442, -0.0783251077, -0.1016868651, -0.1184162274, 0.0454938225, 0.0798470303, 0.1104865372, -0.0748291612, -0.0344843566, 0.0219323877, 0.0377863869, 0.0699354634, -0.0432241000, 0.0007659767, 0.0826565325, 0.1179587543, -0.1272722185, -0.1030836031, -0.0513160229, -0.0523825996, 0.0360029228, -0.0415934362, 0.1146100089, -0.0549078546, 0.1060532406, 0.0487954691, -0.0707270876, 0.0910919458, -0.0771568939, 0.0399078801, -0.0502150059, -0.0528186299, 0.1902294457, -0.0935177878, -0.0428616665, -0.0887105316, -0.1949864477, -0.0115464972, 0.0706378892, 0.0974787623, 0.0282052588, -0.0212650783, 0.0012096335, 0.0303532295, 0.1685082018, -0.0597548373, -0.0925410390, 0.0746610239, -0.0152837224, -0.3390417695, 0.0731068999, -0.0693152696, 0.0573537499, -0.0882842839, 0.0507548861, 0.0283867866, -0.0043128692, -0.0612702481, 0.0427502319, 0.1049568057, -0.0436172560, 0.1084623188, -0.0458919704, -0.0694028884, -0.0356794968, -0.0360637531, -0.0392269455, -0.0730628446, -0.0283861831, -0.0869919211, -0.0833426341, 0.0342980027, 0.0598318391, -0.1001534536, -0.1520410925, -0.0752121881, -0.1435667127, 0.0599033870, -0.0504424982, -0.0803128928, 0.0809253678, -0.0840214938, -0.1556103528, -0.1109426245, -0.0534852333, 0.0408809744, -0.0143781584, 0.0185288899, -0.0529087521, -0.0238329340, 0.1264366955, -0.1560994983, 0.1057122126, -0.0548343062, -0.0030070117, 0.1499787122, 0.0689316839, -0.0144329770, -0.0122185908, 0.0867019817, 0.0253929179, 0.0664160103, -0.0124369012, 0.0113703087, 0.1521352530, -0.0134430313, -0.1750900596, 0.0798400268, -0.0967341438, -0.0893852785, -0.1367311180, -0.0601585321, 0.0296210553, 0.1479248405, 0.1484629810, -0.1037709340, 0.0850661248, 0.1125246808, -0.0264114588, -0.0012298656, 0.0691934675, -0.0875172988, 0.0627278984, 0.0814650953, 0.0753658712, -0.0316271223, 0.0111045679, 0.0206878465, 0.0045948005, 0.1817202568, -0.0712128803, -0.0097478852, 0.0280032456, 0.0939237475, -0.0179555789, 0.1172083914, -0.0296575744, 0.0943484455, 0.1085788086, 0.0254519563, -0.0994907022, 0.0920893550, 0.0147652226, 0.1317032874, 0.1023692638, -0.0084917909, -0.0963626578, 0.0636278540, -0.0969178006, -0.1338819563, 0.0042584073, 0.0131777441, 0.1080337241, -0.0254902244, -0.0254916511, 0.0816115364, -0.0782160833, -0.1088099182, -0.0062664868, 0.1063022912, 0.0357179455, 0.0480172299, -0.0010062193, 0.1390425265, 0.0132318679, -0.0477247946, -0.0489657968, 0.0813065320, -0.0681641176, -0.3222766519, 0.0412323251, 0.0211867113, 0.0315640792, -0.1656220853, -0.1023155749, -0.1750994921, -0.0712231100, -0.1983197629, 0.0002492644, 0.0021665026, 0.0508459397, 0.0631894991, 0.0896068886, 0.0433786921, -0.1181350499, -0.0508595109, -0.0168604404, -0.0841096863, -0.0371235684, 0.1144631505, 0.1177961826, -0.0066121295, -0.1190463454, -0.0378648750, -0.1392250359, 0.0248760004, 0.0194095150, -0.0244658273, -0.1205265000, 0.0027879085, -0.0856984556, -0.0475344621, -0.0188885015, -0.1284057349, 0.0924572498, -0.0945749506, -0.0397742614, 0.0907462835, 0.0112325344, -0.1068246365, 0.1264911294, 0.0750632808, 0.0266307835, -0.1073731408, -0.0859667584, 0.2044178993, -0.1060812846, -0.0456129946, -0.0717755929, 0.0276166275, 0.0848874599, -0.0994002819, -0.0714447200, 0.0650381222, 0.1316868961, -0.1102040783, -0.0856496543, 0.1510784179, 0.0936612561, -0.0372947492, -0.0662247688, 0.0811646804, 0.0305014905, -0.0172350463, 0.1017223671, -0.0109771518, 0.0754320547, 0.1084457487, -0.0935764238, -0.0700606033, 0.0490001664, 0.0373701937, -0.0496042445, -0.0085192220, 0.0303984601, 0.1240475476, 0.1426004618, -0.0301661938, 0.0701915175, 0.1456909180, 0.1087962613, 0.0118140168, 0.2193118930, -0.0682589337, 0.0207748599, -0.0345087834, 0.0535595343, -0.0616836436, -0.0082170889, -0.0640270188, 0.0782387629, -0.0281455200, 0.0029825619, 0.1158415079, -0.0545558631, 0.0397337116, -0.0072462377, -0.1047332436, -0.0004309909, -0.0051578935, -0.0944955498, -0.0562008135, -0.0877324194, -0.1724012345, 0.0929700509, 0.0343209915, -0.0180538837, -0.0833069831, 0.0614143535, -0.1055210605, -0.1574595124, 0.0800966695, -0.0699783787, 0.1380493790, 0.1338313073, 0.1038977504, 0.0996298417, 0.0156504866, 0.0086812414, -0.1717417985, 0.1007680073, 0.0489325933, -0.0086509082, -0.2117986828, -0.0197359174, -0.1066713408, -0.2451406717, 0.0382025130, -0.1169773862, 0.0488328114, -0.0900682583, -0.0087355990, 0.1064592823, -0.0255658366, 0.0803615525, 0.0592293702, 0.0174737405, -0.0448899977, 0.1118529215, 0.0845700130, -0.0233789533, 0.0435304865, 0.0334610492, 0.0266470574, -0.1890935451, -0.0886535570, -0.1545037478, -0.1013624668, 0.0541169196, -0.1449513733, -0.0042724507, -0.0321270265, -0.0386549011, 0.0179719403, -0.0127254901, -0.0251430962, -0.0823328346, -0.1313277334, -0.0018860063, -0.1339298040, 0.0911180601, 0.1047854424, -0.1536349654, -0.1158079877, -0.1441016495, 0.0658084899, 0.0167604480, -0.1100805998, 0.0242296737, -0.1191483065, -0.0778396130, 0.0467122532, -0.1783655882, 0.0703970492, 0.0460778102, 0.0274265278, 0.0299526919, -0.0009331817, 0.0652243271, -0.0884335637, -0.1095827371, -0.2311961949, -0.0492133237, 0.2341356426, -0.0250641741, 0.0807397962, -0.0835652947, 0.0910652280, -0.1045079008, -0.1388639510, 0.0194771662, 0.0920673311, -0.0391222574, -0.0003669088, -0.0692571253, 0.1930844933, -0.0773406774, 0.1478005201, 0.0428051800, 0.1087607145, -0.1296718866, -0.1584380269, 0.0091253668, -0.0136017837, 0.0063204416, -0.1734629422, -0.0623551421, -0.0779125318, -0.2181331515, 0.0754728168, 0.0210991018, 0.2789162695, -0.1287704110, 0.1804440320, 0.0744607747, -0.0785153881, -0.0910043791, 0.0566488728, 0.0638488755, -0.0024228527, 0.1475365311, 0.0430832319, -0.0483321473, 0.0816956386, 0.0196300838, 0.1840033829, -0.0571871288, 0.0215252806, 0.1883846223, 0.0430159792, -0.1462223232, -0.0653669685, -0.0211206041, -0.0999810696, -0.0249379836, -0.2116809338, -0.0776076242, -0.0816658214, 0.0202291105, 0.0841129720, 0.0562545359, 0.1140125766, 0.0192349404, 0.0033938210, -0.0483290143, 0.0464241132, 0.0252580680, 0.1155530289, -0.0708776712, -0.0951482728, 0.0343549065, 0.0537088774, -0.0475666970, 0.1206537709, -0.1023245156, 0.0557275638, 0.1617519408, 0.0298053492, 0.0420746729, 0.0689510703, -0.1301558763, -0.0291516054, 0.0314481407, -0.0188228041, -0.0526353158, -0.0918916762, 0.0965333432, -0.0154761663, 0.0029988408, 0.0134115089, -0.0536261573, 0.0466491356, 0.1332268715, 0.1836665422, 0.0459090918, 0.1465756744, 0.1469476372, -0.0467090160, -0.1342470795, 0.0991270617, 0.1195709407, -0.0242923237, 0.0057440959, -0.0869637206, -0.1204520389, -0.0332943425, -0.0658927634, -0.0344871916, -0.1070084944, -0.0108804600, 0.1435459852, 0.2990445495, 0.0947771668, 0.2033271790, -0.0725211799, 0.0855598822, -0.0901370943, -0.1089368314, 0.1672562510, -0.0287241600, -0.0583644919, 0.0312920734, -0.1365505159, -0.1879757196, 0.0621667057, -0.0670349598, 0.0186567623, 0.1848951280, 0.0720865726, 0.0633785427, -0.0200920943, -0.0283882897, -0.0084873755, -0.0512803122, -0.0811823905, 0.0317957364, 0.1006675288, -0.1991764903, 0.0159381349, 0.0988625884, -0.1700873077, 0.0711613670, 0.0507632792, -0.0629547462, -0.1355186850, 0.1491024047, 0.0398789197, -0.1159509644, -0.0222416166, -0.0843765959, -0.0434674323, 0.1618987769, -0.0548608080, -0.0490020700, -0.1406347454, 0.0623054989, 0.0925827622, -0.0698794499, -0.0608996339, 0.0388981998, -0.1032135338, -0.0860737339, 0.0966574922, -0.2524383962, 0.0146387266, 0.0384185240, -0.0736394078, 0.0646381751, 0.0700306818, 0.0151687767, -0.0880318061, -0.0449170880, -0.0571840107, 0.1670101434, 0.0127000157, 0.0780672580, 0.0044876230, 0.1133804023, -0.1080066487, 0.0404943191, 0.0419724286, 0.0022826740, -0.0280398931, -0.1121038496, 0.0247548986, -0.0786689445, -0.1666473895, 0.0661039725, -0.1362560838, -0.0605443195, -0.0632281452, 0.1333333552, 0.0375709943, 0.0099126380, 0.0904908925, 0.0018889772, 0.0056382460, 0.0415227301, 0.0258788150, 0.1483906955, -0.1823665649, -0.0370948352, 0.0813450217, -0.0684475228, -0.0477679484, 0.0279094707, -0.0806120634, 0.0487706363, -0.0852998048, 0.0450200588, -0.1013701856, -0.0188099090, -0.0576003604, 0.1520720720, -0.0473623760, -0.0955812782, -0.0694734082, 0.1107951999, -0.1098164171, -0.0921383500, 0.0184461828, -0.0400896482, -0.0095171789, 0.0362700522, -0.1774241924, 0.0542783514, -0.1790771186, -0.1181615219, 0.1944593936, -0.1447596401, 0.1594869792, 0.1305310726, 0.0097011654, 0.2238060385, 0.1088745147, 0.0493432432, 0.0097543048, 0.0754760131, -0.0614751093, -0.0781048164, 0.0645030066, -0.1021172032, -0.0280703958, 0.1531818211, 0.0054349257, 0.0989244357, 0.0441564843, 0.0607363209, -0.0923624933, -0.0506438352, 0.0623595528, -0.0511995591, 0.0883714408, 0.0274755117, -0.0710068494, 0.1968502402, 0.0199621841, -0.0920555890, -0.1930226535, 0.1993241459, -0.0067100883, -0.1398115009, -0.0529950336, -0.0260754451, -0.0418076254, -0.0639007017, -0.0366731435, 0.0839278325, 0.0409253947, -0.0073776818, -0.1051595807, -0.0058928793, -0.1023219675, 0.0706079677, -0.0127962064, 0.0060618767, -0.1126360670, -0.0441200994, -0.0499089994, 0.0360934213, 0.0357548818, -0.0310963392, 0.1484422237, -0.0756343305, 0.1208721846, -0.0090469774, -0.0556241050, -0.0796680525, 0.0578798316, -0.0938325897, -0.0365571193, -0.1549540311, 0.0349763520, 0.0477089249, 0.0765066370, -0.1996875405, -0.1058374494, -0.1135746688, 0.0665663928, 0.1122030765, 0.0304811597, 0.1604802608, -0.0636076108, -0.1406070292, -0.0249897521, 0.1200957000, -0.0652612522, 0.1412387341, -0.1387106329, 0.1211813763, 0.0626434609, 0.0802353024, -0.2093121111, -0.0404410064, 0.0070934449, 0.0453191660, 0.0321672745, -0.0550625958, 0.0697321147, 0.0305613130, -0.1283254325, 0.0635683164, 0.0693433136, -0.0359755903, -0.0854276270, -0.0917385146, -0.0174549855, -0.0213801991, 0.0163293760, 0.0201041196, 0.0429148078, 0.1157667190, 0.0114899818, 0.0234376434, 0.0785117820, -0.0200827196, -0.0864964426, 0.0845726132, 0.0533924587, 0.1257160753, -0.0177712720, -0.0564311333, -0.0823703930, -0.1756747961, -0.0175158959, -0.0998584107, -0.0735610351, 0.0675165132, -0.0180531889, -0.1087827012, -0.0292519797, 0.0736862794, -0.0562071875, 0.1088586450, -0.0056310468, 0.3321138918, -0.0233903546, -0.1800202131, -0.0445603281, -0.0391690210, 0.1260565370, -0.0058845952, -0.2330281287, -0.0249722507, -0.0662161708, 0.1989369243, -0.0815381482, 0.1136213019, 0.1854926944, 0.0501102395, 0.2251630574, -0.2114940882, -0.0632066205, 0.0316281952, -0.0924189910, 0.1427689642, -0.1468558013, -0.1613257974, 0.0532393456, -0.1571684331, -0.0725088641, -0.0504364558, -0.1671452969, -0.1476161927, -0.1115297452, 0.1228784919, -0.1498922706, 0.0445565581, -0.0962062478, -0.1426350176, -0.1092169583, -0.0325984620, 0.2991169095, -0.0986453593, 0.3228147924, -0.0995938405, 0.3216924667, 0.0082204184, -0.1036847457, 0.0893023834, 0.3543721735, -0.2712890804, -0.0727388337, 0.0710589886, -0.2011628002, -0.1810094714, -0.3841083050, -0.0331644900, -0.0586306006, 0.1134085208, 0.0263136402, -0.2193304747, 0.0484474637, 0.1794982553, 0.1191743389, -0.0422441550, -0.1211019531, -0.1252198517, -0.2413218617, -0.0519987419, -0.0031805362, 0.2038619518, -0.0771755204, -0.0111066969, -0.2264676839, 0.2095066160, 0.0553615801, 0.0452832021, 0.0076809777, -0.0883400515, -0.0030236279, 0.0847893432, 0.0469138324, -0.0930716097, 0.2231276780, 0.3089485765, -0.2033586800, -0.0469799750, -0.2573297620, -0.2685894668, -0.1019748822, 0.0050240695, 0.0143617680, 0.0586278625, -0.0668270811, -0.0109583260, -0.1252410114, 0.0738235638, -0.0102002975, -0.0669418275, 0.1130627245, 0.0974901170, 0.0194408204, 0.1320629120, 0.1297951937, 0.0089548388, 0.0241744816, 0.1007713228, -0.0778957456, -0.2236196548, -0.1386009455, -0.2941525578, 0.0588339418, -0.1214712411, 0.4096194208, -0.0638162419, 0.0501196235, 0.0051268586, 0.0722886026, -0.0806271806, -0.0393459313, -0.0175981410, -0.0179336164, 0.1424319595, -0.0044219377, 0.0753210261, -0.0376023613, 0.0298711155, 0.0999677628, -0.0574496500, 0.0384643786, 0.0009076258, 0.0250117723, 0.1063361689, -0.0399562046, 0.0064558960, 0.0294167176, 0.0026685314, -0.1084771380, -0.0030006610, 0.1496040970, 0.0597951636, 0.0411489680, 0.0635513812, -0.2106866539, 0.1896517426, -0.0449405052, -0.0299518369, -0.0813632756, 0.1114690080, -0.0580092706, -0.0557243302, 0.0046492810, -0.0149531048, -0.0705967546, 0.0652909055, 0.0531412177, 0.0475362949, 0.0136778001, -0.0409954600, 0.1045531258, -0.0194111634, -0.0631208867, 0.0124743348, -0.1104915217, -0.0238165781, 0.0072697322, 0.0311214775, -0.0203014538, -0.0974385738, 0.0591947995, -0.0630933568, 0.0262047593, 0.0071808482, 0.1587572545, 0.0147388717, -0.0979152322, 0.0420385227, 0.0332766213, -0.0865111724, -0.0603697486, -0.0895364806, -0.0809713900, 0.1420194507, -0.0526686721, -0.1802672744, -0.0759002194, 0.0149033470, 0.0649554878, -0.0043468145, 0.0690634549, 0.0743770972, -0.0602046698, -0.2006625980, -0.0594758838, 0.0737349689, -0.0703051537, 0.0749040470, -0.0679058880, 0.0278092455, 0.0062492127, 0.0158424824, -0.0974188223, -0.0066979257, -0.0392755345, 0.1252907962, -0.0536171310, -0.0108315647, -0.0261590406, 0.1212346032, -0.1222536117, 0.1120386347, 0.0413734913, 0.0551684052, -0.0398975499, -0.1425267160, 0.1479913145, -0.0720374137, 0.0567516312, 0.0538319126, 0.1038560867, 0.0281292498, 0.0399669372, 0.0954283699, 0.1020311639, -0.0792283043, 0.0080136415, -0.0662710071, 0.1000297740, -0.0831773654, 0.1473445445, 0.1166056618, 0.1353249252, -0.1000195220, -0.0308853276, -0.0273734070, -0.1511078179, 0.0257435888, -0.0277295783, -0.1010015160, 0.1580316126, 0.1035270765, -0.0300787874, -0.0424049646, 0.1011341363, -0.0960012898, -0.0492406823, -0.0633018017, 0.1568515003, -0.0955853984, 0.0876061395, -0.1264018267, -0.0621072911, 0.0801593438, 0.0829405859, -0.0152805606, 0.0529537760, 0.1006028578, 0.2024052739, 0.0457236916, 0.1291663349, -0.1320280582, 0.0298782904, -0.2092419565, 0.1047397628, 0.2286549807, -0.0550353862, -0.0273184963, -0.1186461598, -0.0091209086, -0.0501180775, 0.0596151464, 0.1753852963, -0.0158965364, -0.0833076388, -0.0178447179, 0.0185944829, 0.0188205373, -0.2160384804, 0.0711343735, -0.0498762764, 0.0093020732, 0.1401987970, -0.1755384803, -0.0098965708, -0.0383617543, 0.0075757429, -0.1294865310, 0.0954054892, 0.0776134357, -0.0636567026, -0.1964549422, -0.1672955155, -0.1600271761, 0.0691103637, -0.0429011993, -0.1708265096, -0.0963658541, -0.0553379022, -0.0107929865, 0.0300208125, -0.2033341080, -0.0494525060, 0.0678820834, -0.0299370065, 0.0868561789, -0.0500308014, -0.0006887314, -0.2235690504, -0.1374509633, 0.0503670909, 0.1525724083, 0.1693922728, -0.1423417032, -0.0240652934, 0.0996860713, -0.0951336697, 0.2083382607, 0.1009258330, 0.0512696952, -0.1130640060, 0.0255896673, 0.1500817388, -0.2626470327, 0.2543558478, 0.1422111839, 0.0105904043, 0.0700758025, 0.1468829662, -0.1439748108, -0.1852197796, 0.0993020982, 0.0801823139, -0.0612890348, -0.0256831255, 0.2739559114, -0.0365936868, 0.0762199536, -0.0025626661, -0.0361977965, -0.2031763196, 0.1959859878, -0.0531888008, -0.2398231924, 0.1941521615, 0.1120060831, -0.0250846148, 0.1380600482, -0.2887586951, -0.0107067386, -0.1122672334, -0.0643827096, 0.0672301278, -0.2242270261, 0.0230843890, 0.1594445109, -0.2271940857, 0.0542142689, 0.0291499719, -0.0253881961, -0.0546762981, -0.0808347240, 0.0188938137, -0.0009916404, -0.0661426187, -0.0701544061, 0.0045880293, 0.0827010050, 0.0906634927, -0.0619425736, -0.1051208675, -0.1021414250, -0.0187568907, -0.0808743611, 0.0562294312, -0.0087402212, 0.0851112455, -0.0413384512, 0.0006246179, -0.0844403878, 0.0470255353, -0.1049890146, 0.0839463249, -0.1254497021, 0.1023070365, 0.0000948490, 0.0095206387, 0.0445138328, 0.0637832955, 0.0166187678, 0.0701752603, 0.0670232177, 0.1746800989, -0.0420662649, 0.0098448982, -0.1503804624, 0.2026056498, 0.0455516763, -0.2223557234, -0.0176315773, -0.0204708315, -0.0225277599, -0.1480327994, 0.0040174546, -0.0681471452, -0.1000247896, -0.0725198686, -0.0149455816, -0.1430592388, -0.0125465225, -0.0706580803, -0.0103098853, -0.0983906239, -0.2044553161, 0.0085399561, 0.0952422693, 0.0452058129, -0.0549020581, 0.0355739146, -0.1632556617, 0.0243834928, 0.0431611501, -0.1092375293, 0.1910800189, 0.0146589326, 0.1509923637, 0.0894179940, 0.0152725363, 0.0034650792, -0.0903440118, 0.0694077238, 0.0406340770, 0.1698883623, -0.2879656255, 0.1617814302, 0.0088951280, -0.2014026344, 0.1498578191, -0.1375538707, -0.1321907938, 0.0096053900, -0.0252002422, 0.0601205118, -0.0326979421, -0.0647051930, -0.0109173004, 0.0526170395, 0.0365841649, 0.0294919070, 0.1735156924, -0.2447907627, 0.1077600643, -0.0747580752, 0.1714061201, -0.1971494257, 0.1014280692, 0.0544961691, 0.0639017820, 0.1052782014, 0.0052072615, -0.1465897411, 0.0158221237, -0.1163990572, 0.0249616113, 0.0220664795, -0.0442198664, 0.0038610422, 0.1000604481, -0.1114862487, -0.0968219042, 0.0848540515, 0.1518508345, -0.1656834930, -0.1930048615, -0.0468191616, 0.0192682706, -0.1258459091, -0.0219483897, 0.0462328754, -0.1571101397, 0.0954884440, 0.1205105931, -0.0614131279, 0.0528579652, -0.1066950187, -0.1613651663, 0.0634076223, 0.0511497520, -0.1533486694, 0.0574448109, 0.1983713955, -0.0869054347, -0.0316626392, 0.1424770206, 0.1517735273, 0.0051130191, -0.0186661445, 0.1017910540, -0.1168974563, 0.0608507581, -0.1239223853, -0.1323830336, -0.0398492590, -0.1302971840, 0.0797285810, 0.0891411006, 0.0983918905, 0.0571645387, -0.0932393670, 0.1600578874, -0.0077381865, 0.0887118131, 0.1178511828, -0.0442301594, -0.0983758047, 0.0346621983, 0.1648917049, 0.0451316945, -0.1906749904, -0.0927959606, -0.0480076671, 0.0236866567, 0.0428671427, 0.0130791441, 0.0278338809, 0.0592892133, -0.0744726434, -0.0719934776, 0.0173939858, -0.0021820774, -0.0266190898, 0.1459281147, 0.0975695178, -0.1443590671, 0.0520332530, -0.0326648280, -0.1547829807, 0.0074031102, 0.0438998118, 0.0857431069, 0.0023630438, -0.1594983041, -0.0150366724, -0.0054533384, -0.0032681304, -0.0838512480, -0.0913138241, 0.0800351202, 0.0738524422, -0.1702928543, -0.1094053090, 0.1388167739, 0.1663663089, -0.1628494114, 0.0874107704, 0.0867265239, -0.2305848747, 0.1327701956, 0.0597881973, -0.0858522132, -0.1216181517, -0.0647908226, -0.0528695621, -0.1549352258, -0.0183740910, -0.0820953026, -0.0876587555, -0.0810143203, -0.0783827007, -0.0594957173, -0.1212037653, 0.0635627210, -0.1027277485, -0.1851713210, -0.0927321538, -0.0096194223, 0.1608896106, 0.0303757153, -0.0313846618, -0.1441953033, 0.0539015792, 0.1282619983, -0.0356502980, -0.0547140352, 0.0587987974, -0.0210986827, -0.0516074225, 0.1360229105, -0.0004571887, 0.1239663884, -0.1096804813, -0.0449239165, -0.1259578615, -0.3318800926, 0.1275356114, -0.0189317148, -0.2092004567, -0.0691889152, 0.1070202664, -0.0783245340, 0.0417622924, 0.0627178624, -0.0252548419, 0.0442536213, 0.0531083830, -0.0110136913, -0.0390758403, -0.0089654448, 0.1744524986, 0.0263390038, -0.0074557848, 0.0750024989, 0.0735486746, -0.0251373146, -0.0036535969, -0.0102624577, -0.0317310318, 0.0605326407, 0.0372874960, -0.0619493611, 0.0553283766, 0.1284818649, -0.0767316520, -0.0750532523, -0.1288883090, -0.1689292938, -0.0637294427, -0.0946223959, 0.0000721193, 0.0063984226, -0.0705133528, 0.0353848152, -0.0985344946, -0.1031684428, -0.0082983319, 0.0271570068, -0.0082200952, 0.0376745909, 0.0998473540, -0.0486041680, -0.0730510205, -0.0912720636, 0.0150978640, 0.0320049971, -0.0522216856, -0.0400431417, -0.0386042520, -0.0922836959, -0.1367319524, 0.0681995451, 0.0619784258, 0.0266303439, -0.0167858414, -0.0869185328, -0.0038646131, 0.1100264564, 0.0866749212, -0.1163336411, -0.1218095794, 0.0310565121, 0.1255590320, 0.1216434389, -0.0308294967, 0.0733468384, -0.0425610654, -0.1134882048, 0.1093227863, 0.1093484983, 0.0694754496, -0.3095856309, 0.0118754953, -0.0516510159, 0.0029618836, 0.0379457697, -0.0150013566, -0.1093628630, -0.0873308852, -0.0071412618, 0.0718617216, -0.0074428087, -0.0843435973, -0.0009715211, 0.0895191655, 0.0734423622, -0.1846272498, -0.0714917257, 0.0530423447, -0.0532429293, 0.1173972860, -0.0771483183, -0.0449823290, 0.0693200603, 0.0776264071, -0.3141288161, -0.0139200781, 0.0357681625, -0.0770083293, -0.1276677251, 0.0201460607, 0.0084305760, -0.1162294894, -0.0435222238, 0.0689556599, -0.3678407669, -0.0929529369, -0.0331794508, 0.0497638769, 0.0341917165, 0.0690816715, -0.1245446950, -0.0497373529, -0.0036044898, 0.0038033680, -0.0436993651, -0.1172936708, -0.0333040878, -0.0076061026, -0.1492930502, -0.0253171641, 0.0044609131, 0.2069809139, -0.1931382418, -0.1277353019, -0.0504814461, -0.1028664559, -0.0934620500, -0.1099512652, 0.2666888833, 0.2029152960, -0.0876080245, 0.1053227261, -0.0739703253, -0.0408866741, 0.1244452745, 0.0527709126, 0.1577634215, 0.0036760669, -0.1354448795, -0.1852131784, 0.0361985080, -0.2066529691, 0.0750712007, -0.0262923408, 0.0980471745, -0.1101415381, 0.0960035324, 0.0274582636, 0.2045942098, 0.0198657382, 0.1794266850, 0.0451148078, -0.0547683164, 0.0098789977, 0.0542028286, 0.0455187224, -0.0600121729, -0.0727753863, 0.0684856474, 0.1097443104, 0.0213122517, -0.0462301113, 0.0674209446, -0.2390641868, 0.2419195622, -0.2247989774, 0.0415285528, -0.1676275730, 0.0574421659, -0.0036789528, 0.0727446899, -0.0443217233, 0.0614881702, 0.1057007760, -0.1392756402, 0.2934025824, 0.1741439402, -0.0605747923, -0.0670998618, 0.1723198295, 0.0736205354, 0.0395839214, -0.1538327336, -0.0404538438, -0.0104039060, -0.0396523960, -0.3059168160, -0.0345667079, -0.1209680215, 0.0434439406, -0.3866071403, -0.0526992716, -0.1939620972, 0.1709457040, -0.0170532838, 0.0901050568, 0.0709292889, -0.0818636119, 0.0116036050, -0.0680746734, -0.0616715774, -0.0930994898, -0.3085575402, -0.0824482888, 0.1092609093, -0.2913476527, -0.1824240685, 0.0154073499, 0.0266539156, 0.0324905775, 0.1475491077, 0.0285630506, 0.0196939707, -0.0368841961, -0.0808191225, 0.0279625673, -0.0553249866, 0.0571570955, -0.0662022978, -0.1212192997, -0.1028033048, 0.0348004401, -0.1577885449, 0.1933179945, -0.3461695910, 0.0811692029, -0.1552128792, 0.1660575569, 0.1946691424, 0.2127877474, 0.0042432081, 0.2920798957, 0.1750396639, -0.0503797047, 0.1771426797, -0.1585900784, -0.0578076430, 0.0509130135, -0.1511597782, -0.1598824710, 0.0644779354, 0.2796270251, -0.0642052740, -0.0348980241, -0.0880537480, -0.1085326895, -0.2350637317, -0.0385905430, 0.1205777973, 0.1556968093, 0.0516695343, 0.0490985848, -0.0197630543, -0.1152004078, -0.0719320178, -0.0607245639, 0.1277263016, -0.0448223613, 0.0912248492, 0.0623830929, -0.0588912629, -0.1656327844, 0.1481404006, -0.0801685750, 0.0200136136, -0.0617226399, -0.0076334737, 0.0805412903, 0.1568528116, 0.1558001339, 0.1383496225, 0.1223127022, -0.0762987137, -0.1137408093, -0.0532212891, 0.0075675305, -0.1957363933, 0.1070763245, 0.0086970124, -0.0727904066, 0.1254889071, -0.0889553055, -0.1920642108, -0.1922254860, 0.0473942570, -0.0440728404, 0.0659825206, -0.1462875605, 0.0808650851, -0.0108120712, 0.0135273272, -0.0059606219, 0.1021489128, -0.0330987759, -0.1006937996, 0.0077567482, -0.0574164353, -0.0283702128, -0.0634757653, 0.0610491969, -0.1144843772, 0.1247386187, -0.0868509561, -0.1122910306, 0.0170043670, -0.0201261230, -0.0722377971, 0.0193809327, 0.0206026621, 0.0388357751, 0.0479115583, 0.1848303974, 0.1076851934, 0.1514216810, -0.0111454595, -0.0225920714, 0.1078637764, -0.1133742109, 0.0392127410, 0.1131583527, 0.0047211507, -0.0342935063, -0.1102965996, -0.0081774462, 0.0299363621, 0.0123501411, -0.0188731942, -0.1307257712, -0.0120179029, 0.0243056454, -0.1707246304, 0.0189568568, -0.0881488845, 0.0366516858, 0.0016889479, 0.0025135651, 0.1015913486, 0.0444658734, -0.0616178550, -0.0462375246, -0.0758371353, -0.0209698565, -0.1003908738, 0.1579700261, -0.2320785224, 0.1188719422, 0.1638678163, 0.0378648080, -0.0585880168, 0.0940552279, 0.1299995631, 0.1294692010, 0.0700198933, 0.0332563780, 0.0817639828, -0.1128959954, 0.0224653464, 0.1559714377, -0.0389897935, -0.1633848399, -0.0323648490, 0.1202898324, -0.1315089464, 0.2334582061, -0.2778994441, -0.0915057734, 0.1600266695, 0.0073826811, 0.1451841593, 0.1952571422, -0.0157861561, -0.1023638770, -0.0396927111, -0.0313373096, 0.1579852700, 0.1053676531, 0.2181099951, -0.0337467045, -0.1155525297, -0.0984491780, -0.0798063427, -0.0258574709, 0.0677883625, -0.0013645702, 0.2682093382, -0.0274459738, 0.0172870141, 0.2194941044, -0.1120806560, 0.0392033197, 0.1072333679, -0.1128765121, -0.1954058856, -0.0772827044, -0.0750132874, 0.0366319902, 0.0773782879, -0.0122633986, 0.0077575375, 0.1970120817, -0.0124267954, -0.0863193497, 0.0655558705, -0.1124486476, 0.0165583063, 0.1779019535, -0.0983212292, -0.0873644799, 0.1351721138, -0.1218352988, 0.0385625251, 0.1239114180, -0.0618826598, -0.0039881920, -0.0643759891, -0.0241546910, -0.0557230897, 0.0308840722, 0.0355793573, 0.0042450204, -0.0812813118, -0.0545341522, -0.1255444288, -0.0697734207, -0.0176963415, -0.0892718583, -0.1556139588, -0.0936403200, -0.1602007449, 0.0413029902, -0.0890297666, -0.1999742985, 0.0973084643, -0.1954384893, 0.0811022073, -0.1335778683, -0.1045506299, 0.0589200072, -0.0602540709, -0.0514002033, 0.0081317937, -0.0563255772, 0.0623387024, -0.0566511191, -0.0903505310, -0.0649717152, 0.0755846575, 0.0077163125, 0.0079179518, -0.0186102372, 0.0491482951, 0.1828990877, 0.0470597893, -0.0000727066, 0.0207154192, -0.0437719040, -0.1503814608, 0.0672514588, 0.0040726154, -0.1709254533, 0.0253342744, 0.0268250611, -0.1531215608, 0.0112044318, -0.1060032025, -0.0290839262, 0.0208437257, 0.1423058212, 0.1041543335, 0.1039352342, -0.2155362219, 0.3148621619, -0.0833784044, 0.1914499998, 0.0246495623, -0.0894021541, -0.2160824835, 0.0960146934, -0.0568687506, 0.0583487637, 0.0784637779, 0.0761087313, -0.0720813125, 0.0092706671, 0.0950620994, -0.1615307033, 0.2128001004, -0.0051254528, 0.1242487952, -0.0919236988, 0.0832980573, 0.0005215434, 0.1110163480, 0.1191145182, -0.0220783465, -0.0018933893, -0.1146842837, 0.0109528350, -0.0392154269, 0.0781164691, 0.0394642279, -0.0725259259, -0.0473563187, -0.0298105050, -0.0628470704, 0.0364225022, -0.0178904403, -0.0495960489, -0.1282552034, -0.0034215755, -0.1059968472, 0.1409322619, -0.1478845626, -0.0248122755, 0.0479201116, -0.0293703489, 0.1666843444, -0.1745639592, 0.0105848862, 0.2243375927, 0.0789632574, 0.0374968499, 0.0565668419, 0.1826732159, -0.1075719669, 0.1952641457, -0.1163535118, -0.0031236373, 0.1389124393, 0.0355102345, -0.0286203809, 0.0795246735, 0.0483385921, -0.0609496422, 0.0694596395, -0.2088960260, -0.1380534172, 0.0371235833, -0.0815669969, -0.0629080832, 0.0438931584, 0.0898884386, 0.1324861050, 0.0941909403, -0.0761480406, -0.0872651488, -0.0340605266, -0.0713552460, 0.0165115464, -0.0433845371, 0.0270347446, -0.1830205470, 0.2358876318, -0.1561353952, -0.0653220266, -0.2345647961, -0.0355893746, -0.0359274633, -0.1084644720, 0.0834082961, 0.1791502088, -0.1125816181, 0.1484116614, 0.0674913973, -0.0118684135, 0.0025308614, -0.1492223591, 0.1368548423, -0.1263390183, 0.0723014995, 0.0659367591, 0.0924047157, -0.0347372852, 0.0987251997, -0.1066439599, 0.0718438476, 0.0738312602, -0.0755395070, 0.0323743895, -0.0508489981, 0.0152848009, 0.0324255489, 0.1260665208, 0.0378203467, -0.1585359722, 0.0320479944, -0.1897499561, 0.1131160259, 0.0109425578, 0.1352576166, -0.1019023657, 0.0703820884, -0.1468037814, 0.1170094684, 0.0459678322, 0.0790329874, -0.0281587262, -0.0468939580, 0.0763235837, 0.0128176296, 0.0504168458, 0.0212878734, -0.2166395187, -0.0983987823, 0.0647234991, 0.0319597609, 0.0203941185, 0.0040557850, 0.0530288219, -0.1061671749, -0.0441087671, -0.0877552927, 0.1670797020, -0.0601347424, -0.0985560492, 0.0705474541, 0.0261212830, -0.1431928128, -0.2550323009, -0.0097890878, -0.0502798855, 0.0837901831, 0.0949674770, -0.0954555273, 0.1098043248, 0.0008742326, -0.0799057335, -0.0965687335, 0.0025940447, 0.1300954074, -0.0246822890, 0.2149271220, -0.0281105880, -0.1198171526, -0.0832737535, 0.0302456170, 0.0127883386, -0.1373451054, -0.0867746323, -0.0254839864, -0.0192057919, 0.0664453208, 0.0082262903, 0.0688555986, 0.0160314012, -0.0266709607, 0.0828246549, 0.0427831188, 0.1063358262, 0.0114168767, -0.0058799777, -0.0214070603, 0.0015107490, -0.1059526652, 0.1045939177, -0.0740837157, 0.0309008360, 0.0410245210, -0.0966502801, -0.0767726228, 0.0716244951, 0.1277075559, 0.0066866498, -0.0564402118, 0.0554657876, -0.0422511660, -0.0212193932, -0.0566290207, -0.0473737493, 0.0692230985, 0.0517583042, -0.0619660579, 0.0803107992, -0.0789784417, 0.0363355465, 0.0140830334, -0.1942818016, -0.0671745464, -0.1928216666, 0.1473952681, 0.1157362014, -0.0739594474, 0.0263235532, 0.0496590175, -0.0551732965, -0.0450079069, -0.0321795940, 0.1050790623, -0.0874669626, -0.0050666844, 0.0456667431, 0.0189901758, -0.0291818865, -0.0418971106, 0.0768731534, -0.0366875790, 0.0707403943, 0.0730125234, -0.1129092649, 0.0675850436, -0.0633918643, 0.0378620401, 0.0110780699, -0.0292724855, -0.1480226070, 0.0113231093, -0.1293538511, 0.0170137938, 0.0036542451, 0.1517087668, -0.0330924056, -0.0169060975, 0.0108739510, -0.0020568015, 0.1445847750, -0.0409425832, 0.0678280741, 0.1053294912, -0.0393617898, -0.0053345165, 0.0732258111, 0.0195422843, -0.0127957994, 0.0462807901, -0.0353527926, -0.0210285503, 0.1131164208, 0.0519191734, -0.0037572118, 0.1100115180, -0.1310954094, 0.0018484783, 0.0894721448, 0.0301385187, -0.0562569611, -0.0308710244, -0.0428476036, -0.0055769058, -0.0269500110, -0.0105456552, -0.0136842104, 0.1025944427, -0.0868961662, 0.0463581122, 0.0339562446, -0.1073204428, -0.0873137712, 0.0118084904, -0.0257556383, 0.1423296928, 0.0408719666, 0.1517202556, -0.0574208945, 0.0080301603, -0.0171453469, 0.0482975505, -0.0862803832, -0.1172177568, 0.0099893054, 0.0456094146, -0.0686392188, -0.1129232645, -0.0623832457, -0.0623971745, 0.1818094105, 0.1348265857, -0.0111401770, -0.0529717170, 0.1405115277, 0.0199041329, -0.0037007523, -0.0752263069, 0.1625568271, -0.0250397865, 0.0710188001, -0.0691212416, -0.0591525920, 0.0763172805, -0.0283825062, -0.2093852460, -0.0595969893, 0.0291091036, 0.1131828502, 0.0292258207, 0.1431212276, -0.0803281665, -0.0212947447, 0.0156038580, 0.0365503952, -0.0923716426, -0.0463524424, 0.0771325901, -0.0896766707, -0.0234366339, 0.0728497058, -0.0844961852, -0.1427855343, -0.0923741758, -0.1721181870, 0.0938676968, 0.1060231328, -0.0043466063, -0.0919840261, -0.0121834017, 0.1665664613, -0.0801804960, 0.0480389223, -0.0734015331, -0.0829438120, 0.0725565031, 0.1190355271, 0.0639461577, -0.0826565027, -0.0927462131, 0.0163431931, 0.0480653830, -0.0407238752, -0.1312712282, 0.0670093596, 0.0440160297, 0.0137977563, -0.0648936257, -0.1094479933, -0.0611156076, -0.1201491281, -0.0559545979, 0.0356003828, 0.1288552582, 0.0259302873, 0.0810848624, -0.0417857505, 0.0983182490, 0.0270563699, -0.0179744735, 0.1116793305, -0.0767799392, 0.0708680749, 0.1346135736, -0.0056304457, -0.0883524865, 0.0101333205, 0.1126621366, 0.0167442597, -0.0730403513, -0.0265464075, -0.0146873761, 0.0021392943, -0.0774797350, 0.0874266326, -0.0221225359, 0.0166319013, 0.0036223312, 0.0486797206, 0.0995775983, 0.1195943207, 0.1667871028, -0.1621834338, -0.0691109002, 0.0236481819, 0.0401122384, 0.0194904935, -0.1092222929, -0.0118058920, -0.0177049562, -0.0827779695, 0.0836757645, -0.0658781603, 0.0503616594, -0.0227960944, -0.1551629007, -0.0066467165, 0.1227076203, -0.0554685928, 0.0758623034, -0.0370997824, -0.0346711725, -0.0445063151, 0.0785731003, 0.0111832637, -0.0177348945, -0.0395606831, -0.0266218930, 0.0235476401, -0.0802651271, -0.0712428540, -0.0420367010, -0.1254264116, 0.0721395314, 0.0198946893, -0.1247911155, -0.1244206280, -0.0841442645, 0.1314238906, -0.0181329548, 0.0320899300, 0.1384750605, 0.1077384949, -0.0331609584, -0.0345879160, -0.0870586857, 0.0718751103, -0.0001854586, 0.1152571738, 0.0688723549, 0.0692490935, 0.0704775825, -0.0859109536, -0.0316051953, -0.0124772545, 0.0997841433, -0.0755273551, -0.0534342602, -0.0775344819, -0.0407036580, -0.2316421121, -0.0144470967, -0.1404569298, -0.2139967680, -0.0384254009, -0.1153048873, 0.0701897517, 0.0784694403, 0.0275199171, 0.0701755211, -0.1384376287, 0.0395738035, -0.0206197649, 0.0746046528, -0.0465637073, 0.1166786775, -0.0052099284, 0.1302772760, -0.0283530504, 0.0889163464, 0.0105083296, -0.1016530246, -0.0534115471, -0.0234484244, -0.1271647513, -0.0976403281, 0.0709463358, -0.0204705428, 0.1106775329, -0.0649254546, -0.1476965100, 0.1159571558, -0.0453407504, -0.0571818054, -0.0187040977, 0.0511021987, 0.0034132611, -0.0450530313, -0.0249907225, 0.0061134179, -0.0381748676, -0.0081046969, 0.1563477814, 0.0396612473, -0.0700843334, -0.0370748602, 0.0316605307, -0.0691900775, -0.0171745569, -0.1162917688, -0.0124009866, 0.1204578951, -0.0906048641, 0.0131531106, -0.0713874996, 0.0483436808, 0.0387933068, 0.2908312380, -0.1097844839, -0.0126687177, 0.0776343793, 0.0503764115, -0.0493674874, 0.0010688095, 0.2183564901, -0.0753463656, 0.0809000731, 0.0049801138, -0.2933553457, 0.0404371545, -0.1292111874, 0.0324860625, 0.2867814004, 0.0493529700, 0.0471237935, -0.0915855169, 0.2012744397, 0.1309217960, 0.0988251492, -0.1615805775, 0.0243496634, -0.1257925630, -0.1615382433, 0.0203352291, -0.0573036894, -0.1295329034, -0.1799007356, 0.0006310994, -0.0216296669, 0.0995723605, 0.2693494260, -0.0131422328, -0.0699775517, -0.0537861399, -0.0474584587, -0.0885171816, 0.0126742208, -0.0220276900, 0.0359764285, 0.0556131527, 0.0886025280, -0.0080702044, 0.0187872238, -0.1523430943, -0.0867470205, 0.0152886566, 0.1519306004, -0.0683195442, 0.0026915453, 0.0929719210, 0.0399891175, 0.0935963467, -0.1624268889, -0.0977984369, 0.0599945001, 0.1383877397, -0.0570634156, 0.0989234298, 0.1146354526, 0.1441856474, -0.1571715772, 0.1542694569, 0.3695580959, 0.0177208148, 0.1670003682, 0.0463374704, -0.1125344932, -0.0908378959, -0.0719171241, -0.0297553819, -0.1956088841, 0.0034033535, 0.0798227489, 0.0053124321, 0.0949959978, 0.0853563771, -0.1383051425, -0.1627901345, -0.1625893861, 0.0057044155, -0.1024864167, 0.0553127006, -0.0144060310, 0.0573514178, -0.1028357595, 0.1052075550, -0.0162201189, -0.2164160311, 0.1335692257, 0.0196928047, 0.0249124337, 0.1871997565, -0.1901980191, 0.1024137884, 0.0434991717, 0.0452559032, 0.1146308035, 0.0091534695, 0.0405134223, 0.0049043894, -0.1804445088, -0.0242448226, 0.1080886722, 0.0594520159, 0.0587205775, -0.0127577838, -0.1384017318, 0.0276429616, -0.0818227381, 0.0035061408, 0.0899677351, -0.0069348137, -0.0432749130, -0.0627255514, -0.0803868845, -0.1144632474, 0.0527624004, 0.0146207027, -0.0360994451, 0.0133932317, -0.0952542648, -0.0409227833, 0.0284923408, -0.0269997343, -0.0113678724, 0.0379358977, -0.0632262826, -0.0813611001, -0.0258114543, 0.0149393426, -0.1058430746, 0.0233292356, 0.0801796243, 0.1213001162, -0.0233486779, 0.0321346521, -0.0259218626, -0.0557315350, 0.1001328975, 0.2464289367, -0.0204788055, -0.1705438048, 0.0624011829, -0.0209609624, 0.0802673101, 0.0818568319, 0.0587744489, -0.0486181378, -0.0226786565, -0.1197860464, -0.0546743982, -0.0650271103, 0.0511529408, -0.0536335744, 0.0331199691, -0.0854993537, -0.0033093235, -0.0896807238, -0.0248337556, 0.0347314999, -0.2342505902, 0.0755997300, 0.0027231928, -0.1515782326, 0.0597808547, 0.0966779515, 0.1042745039, 0.0574570447, -0.0275042970, -0.1073715240, 0.0301823206, 0.0050249225, 0.0709394664, -0.0107320985, 0.1361793131, -0.0715416521, -0.1178349108, -0.0320481211, 0.1273349375, 0.0467356667, -0.0403441302, -0.0060992320, -0.0455307662, -0.2250631154, 0.1162718385, -0.1599440724, 0.0128817018, 0.0493871644, 0.0875117332, -0.0291062556, 0.0859238133, 0.0676796660, 0.0129710976, 0.0862147436, -0.1134422198, 0.0048020124, 0.0464380533, -0.0928888917, 0.0206778757, 0.0115098236, 0.0810966268, -0.0523960628, 0.0298940428, 0.0115065966, 0.0189844053, -0.1131363288, -0.1530424505, 0.0801899731, -0.0851847306, 0.0533307493, -0.1269334108, -0.0518475473, -0.0806573480, -0.1833882779, 0.0902008563, -0.0047139996, 0.0458858088, -0.0802066699, -0.0427506082, 0.0499671660, -0.1495189816, 0.0388615243, 0.1627664268, -0.0985854045, -0.0884392560, 0.0650383979, -0.1149782017, 0.1285584718, -0.0040034973, -0.1011017933, 0.1019132063, 0.1522760838, 0.0584975332, 0.0037608307, 0.0686017945, -0.0464763083, -0.1066235378, 0.0960355699, 0.0392564833, -0.0429425500, 0.1491397470, -0.0091929808, 0.2196199149, -0.0196249913, 0.1693897545, -0.0451911092, -0.0569861606, 0.0551258139, -0.1869825274, 0.0224769618, 0.0562689155, -0.0076741125, 0.1899024993, -0.0444455855, 0.0619978458, 0.0068234117, 0.1228241771, 0.0002322758, 0.0801348686, 0.0864878148, -0.0500691198, -0.0227158833, -0.0251627769, -0.0856369883, 0.0669586062, -0.0953556001, 0.0144517515, -0.0194690004, 0.0806098282, 0.1375424564, 0.0475002900, -0.0742958114, 0.0767869651, -0.0959660411, -0.0213689301, -0.1059206873, -0.0709482357, -0.0178329013, 0.1285278052, 0.0325633027, -0.0076790079, -0.0871525928, 0.0835093856, -0.2255645096, 0.0108938096, 0.0255284403, -0.0088313734, 0.0557216927, -0.0417755768, 0.0258057080, 0.1798044443, 0.0195190813, -0.0834749565, 0.0142625496, -0.1274454296, -0.1074269041, -0.0807835981, -0.1057217792, 0.1157956496, -0.0026907758, -0.0984315649, -0.0013456608, 0.0256079976, 0.0050277333, 0.1969374269, 0.0074242642, 0.0184474904, -0.0398871601, 0.0402652174, 0.0258987173, -0.0721983835, 0.0283136107, 0.1058584675, -0.1496655643, -0.0877184495, -0.0885140598, 0.0662317127, -0.0284146313, -0.0219192617, 0.0911109820, -0.0665974766, -0.0554931499, -0.0892388001, -0.0307799727, -0.0449120142, 0.0235166028, -0.1355720609, -0.0342744179, 0.0216770787, 0.0067068501, -0.3204382062, 0.0047148466, -0.0712656602, 0.0488268919, 0.0650859699, 0.1282010078, 0.0384582430, 0.0881108940, -0.0249564033, -0.0993332565, -0.1307774335, -0.0296892803, 0.0505180098, 0.0334901027, 0.0591726527, 0.0364958532, -0.0777728111, 0.0747578368, 0.0826747939, -0.0401699431, -0.0832879692, -0.0404910184, 0.2636066973, -0.0922858641, 0.0199344121, -0.2290904969, 0.0171285942, 0.2409301549, 0.0691206232, -0.0424593277, -0.1687598675, -0.0883762911, 0.2897827923, 0.0792175606, -0.0105741909, 0.2192465663, -0.0061622174, 0.1391194612, -0.0479203649, -0.0228641238, -0.1025107503, 0.0382618159, 0.0299023557, -0.0501070432, -0.1396802217, 0.0257638376, -0.1226460114, -0.0890671685, -0.0062376023, -0.1379301846, -0.0838554278, -0.0865345150, 0.0677161813, -0.2253766358, -0.0396045931, 0.0803363472, -0.0444547310, 0.0339202881, -0.1581403762, 0.2859714329, -0.4618401527, 0.1991163790, -0.0458356664, 0.0867558643, 0.1167429388, -0.1061147973, -0.1038051993, 0.2100798637, -0.1838769466, 0.2573039830, -0.0036439595, 0.0096200146, -0.2140830904, -0.1142214090, 0.0093163941, -0.1214235723, 0.2414999157, 0.0037486926, 0.0541552082, -0.0566454083, 0.0551606528, 0.1385740340, -0.0712266117, -0.1300077438, -0.1493897140, 0.0072638886, -0.3106756210, -0.0427877083, 0.0723750666, -0.2103294581, 0.2024969608, -0.2690012455, -0.0657376125, 0.0344509110, -0.0157616865, -0.0707778111, 0.0635819212, -0.0830416381, 0.3092773259, -0.0753105357, -0.1616158187, -0.0613012090, 0.1718048304, -0.1831782758, -0.0807207674, -0.2535644472, -0.1506163925, -0.0506688617, 0.0967085958, -0.0105074812, -0.0990621895, -0.2140697241, -0.1389428824, -0.0501585416, -0.0816733241, -0.0793863237, -0.0501207635, 0.1673479229, 0.1825684607, -0.0515054800, 0.0230109710, -0.0660590976, 0.0504803881, -0.0342410691, 0.1315837353, -0.0118709644, -0.1394724250, -0.2251144797, -0.1925313771, 0.1386245042, -0.1236006394, 0.3070445657, -0.0505455509, -0.0783912763, 0.0286556743, 0.0802462548, -0.0670578256, 0.1288783550, -0.0850402415, -0.2493677884, 0.0395226143, 0.2383062840, -0.1695559025, 0.1040295139, -0.0017850985, 0.0987521708, -0.0386440009, 0.0530437641, -0.0442400984, 0.0551388152, 0.1848350465, 0.0930403098, 0.0204877481, 0.0666118711, 0.1895262450, 0.0080827558, -0.0884403065, -0.0221940242, -0.0221943632, 0.0351000763, 0.0237388369, -0.0112786330, -0.0029178946, 0.0405610017, 0.0650762767, 0.0752254575, 0.0889834017, 0.0831919312, 0.1009496897, 0.0190503895, 0.0533092283, -0.0609146319, 0.0205770303, 0.0397899859, 0.0277995057, -0.0659136400, -0.1017292961, -0.0239722915, 0.1282878667, -0.0401811115, 0.0510208607, -0.0448921546, -0.0769891292, -0.0805046931, 0.1419606805, -0.0671578795, -0.0953722149, -0.0832850263, 0.0837635472, 0.0459543355, -0.0608839691, 0.1638152152, 0.0299711823, -0.2124181688, -0.0901276469, -0.0513043441, 0.0961494595, -0.0576217622, -0.0509251319, -0.0698251054, -0.0406370275, 0.1299947947, -0.1424176395, 0.0219675619, 0.0462177359, -0.0182660818, -0.2268526703, -0.0721470416, 0.1708279848, -0.0173782725, -0.0608706400, 0.0508341528, 0.0807637274, 0.0501411334, 0.1110747606, 0.0379700065, -0.0730030090, 0.0088753970, -0.1287526488, -0.0531442948, -0.0288273003, -0.0193268918, 0.1476163715, 0.0543401279, 0.0122193210, -0.0929570645, -0.0282367673, -0.0273937173, -0.1098722741, 0.0879057869, 0.0666749179, -0.1049396470, -0.0113796629, 0.1399122924, -0.0102241766, -0.0092180409, -0.0686626732, -0.0420808718, 0.0040726746, 0.1521794796, -0.1904776841, 0.0443953462, -0.1038577855, -0.0657507330, -0.0680376291, 0.0316338539, 0.0642588660, 0.0937767848, -0.0902992263, -0.0265992917, -0.1239305362, -0.0043623471, 0.0499500595, -0.0133946659, 0.0271018818, 0.0918025076, -0.0916901678, 0.0800734311, -0.0345686749, -0.0434990041, -0.0695359483, 0.0372307077, -0.0484346561, -0.0218653828, 0.0122050140, -0.1767289340, -0.0158322658, -0.0266731195, -0.0969552994, 0.0485565253, -0.0146589605, -0.0096511608, 0.0510342084, 0.0758928955, -0.0285049081, -0.0206920542, -0.0322738327, -0.0866720006, -0.0591529422, -0.0714545995, -0.0740261599, 0.0388123654, -0.0213825013, 0.0898726732, -0.0002948120, 0.1158118099, 0.1382456720, -0.0109492857, 0.1302914321, 0.1070298776, 0.0633694530, -0.0455417857, 0.0302963145, -0.0777455568, 0.0997257903, -0.0607169569, -0.0932210162, 0.0805708244, 0.0177438054, 0.1640593559, -0.1276569813, 0.0857870206, -0.0033817065, -0.0418188050, -0.0904981345, -0.0636162609, -0.1295501292, 0.0303673539, 0.0563245639, -0.1108996049, -0.0790233538, -0.0724203512, 0.0528314412, 0.0755630583, -0.0570338480, 0.0342103057, 0.0859420523, 0.0638078302, 0.0044369255, -0.0936791971, -0.1499657035, -0.0337425284, -0.0364662334, 0.0756887123, -0.1099207774, -0.0164672565, -0.1094421744, -0.1171227768, 0.1398136765, 0.0006095473, -0.0452706292, -0.0279930141, -0.0500510149, 0.0284285694, 0.0037054308, -0.0436015390, -0.0054314705, -0.0592480935, 0.1230907813, -0.1287546158, -0.2241890132, -0.0753234401, -0.0043364661, -0.0584462732, 0.0141942771, -0.0609945208, -0.1307965666, -0.0118698394, 0.0323221348, -0.0078324107, 0.0113173407, -0.1670764238, 0.0266868398, 0.0629053861, -0.0275633913, 0.0064089415, 0.0082078828, -0.0872503445, 0.1000265554, -0.1073747501, 0.0234511811, 0.1738735437, -0.0675287545, 0.0596332997, -0.0591334961, 0.0162725914, -0.0655434504, -0.1023843586, -0.1338062882, 0.0053049438, -0.0878873467, 0.0928491428, 0.1074907631, 0.0652223378, 0.0455587059, -0.0182726271, -0.0803398639, 0.0863672718, 0.0300721768, -0.0451796949, 0.0766419396, 0.0738754794, -0.1537528634, -0.0980217755, -0.0162884817, -0.2364759296, -0.1345921904, 0.0566461757, 0.0493857116, 0.1009184942, 0.0295403376, 0.1414183527, -0.0027702535, 0.0920139477, 0.0212580971, 0.1253230125, -0.0668685809, -0.0183244608, -0.0850338861, -0.0497295894, -0.0257666353, 0.1230961755, 0.1303122491, 0.0733272955, 0.0246112663, -0.0351714008, -0.0511780120, 0.1374056339, -0.0006084453, 0.1075329408, 0.0099985907, -0.0572442524, -0.0917547643, 0.0045422758, 0.0889213607, 0.0266408119, -0.0983798653, 0.0870291516, 0.0481645353, 0.1114032939, -0.1159369200, -0.0231987480, 0.0487004295, -0.0259022862, -0.0451028831, -0.0415656082, 0.0301697478, -0.1454314888, 0.1046116576, 0.1484743655, -0.2440231740, 0.0754617304, -0.0765801445, 0.0636495203, -0.1138565913, 0.1617873311, 0.0452521034, -0.0234711636, 0.0910223499, 0.0268432312, -0.0071516400, 0.1100505367, 0.1547059864, -0.0773386583, 0.1025882885, -0.0301667117, -0.0851305202, -0.0144326985, 0.0011033880, 0.1040702537, -0.1368566155, 0.0059920689, -0.0723824352, -0.0182772763, 0.1140568182, -0.0363287069, -0.0247825738, -0.0895771012, -0.0536820479, 0.1080328226, -0.0248235874, 0.0208009705, -0.1391128749, 0.0423970595, -0.0140707288, -0.1010080054, -0.0734818727, 0.0495129898, -0.1153451875, -0.0645851567, -0.1125511378, -0.0480829962, 0.0363475569, -0.0062037916, -0.0276685450, -0.0316327624, -0.0145430965, -0.1414170563, 0.0384419002, -0.2457490265, -0.2141875327, 0.1934179813, -0.2000519633, 0.0038355696, -0.1163958833, 0.0583621450, 0.1170276925, -0.0826238394, 0.0385121405, -0.1139185503, -0.2913091183, -0.0379424244, 0.1885322928, -0.1693097502, -0.0043475218, 0.0080133667, -0.0457927063, 0.0232708417, 0.0590060279, -0.1673778594, -0.0973789543, 0.0722665191, -0.1879897416, -0.0962684751, 0.0915576369, -0.3642258644, -0.1040351018, 0.1352805346, -0.0013645629, 0.0343857743, 0.2701753676, 0.0675584525, -0.0991877317, 0.0040568686, -0.1335604042, 0.0678871349, 0.0538928211, -0.1403978020, -0.2881292701, -0.0515195653, -0.0990385637, -0.0167549439, 0.2117926776, 0.1217960864, 0.0632951707, -0.0972598344, 0.1104464978, 0.1600430161, 0.1124788076, 0.0470356643, 0.0124138976, -0.0671802983, 0.0836499855, 0.0099688899, -0.1138974428, -0.0712614805, -0.1418424100, 0.0371943973, -0.0308525376, 0.0147424433, 0.0223522577, -0.0438638330, -0.0636446252, -0.2478248328, -0.0210275501, -0.0982012600, -0.0597177409, -0.1171507165, 0.2724786103, 0.1158208027, -0.1349314898, 0.0101157119, 0.0836426765, -0.0127891973, 0.0309165958, 0.0261861328, 0.0456389114, -0.0558972992, -0.0423916243, -0.0263080988, -0.0214019623, 0.1671529263, 0.0791999549, -0.1989734322, 0.0800175145, 0.2007128745, -0.0315343030, 0.0544807948, 0.0838762671, 0.1679462492, -0.0840726495, 0.1081276163, 0.0878366306, 0.0029587077, 0.0020864801, 0.0123895369, 0.0740091577, 0.0350772217, -0.1195121631, -0.0426469743, -0.1213024259, -0.0593194999, -0.0735804960, -0.1230761260, -0.1270564497, -0.0234552119, -0.1342025846, 0.0061246143, -0.0101827690, -0.0829852894, -0.1905860007, -0.0466545001, -0.0683151037, 0.1985679865, -0.0084248129, 0.1799064875, -0.1649295986, 0.0259313062, 0.0627886578, -0.2894417942, -0.2105917633, 0.1279935837, -0.3255152404, -0.0161540322, 0.0796419829, 0.0033362785, 0.1732013375, -0.1386460066, 0.0266430993, -0.0583930351, -0.2068940997, 0.0754483417, 0.0989188850, -0.0346034653, 0.0350350291, -0.0207083691, 0.0489498526, 0.0099683870, 0.1024423912, -0.1054335535, -0.0763084441, 0.0927242711, -0.0683586150, 0.1353269219, -0.1114661694, 0.1372029334, -0.0075739739, 0.0502950437, -0.0157609284, 0.0713332668, -0.0773542300, 0.0398999415, -0.1725970209, -0.0678391978, -0.0362197198, 0.0202313066, -0.1616007537, -0.0051434017, 0.0206941161, 0.0606098957, -0.2098087817, 0.0048483619, -0.1484080106, -0.0389690287, -0.0405202173, 0.1325503588, 0.0213127863, -0.0803826377, 0.0193048846, 0.0587036684, -0.0313913487, -0.0347446166, -0.1505073756, 0.1124111935, -0.0897601247, 0.0200756211, -0.0594440959, -0.1086488590, 0.0482336730, -0.0575306565, -0.0131055685, 0.0739300400, -0.0458839945, 0.0547826886, -0.0763498023, -0.1229512095, -0.0760605782, -0.0490823016, 0.0142492475, -0.0506880768, 0.0618128143, -0.0537409857, -0.1145109832, 0.0864840150, -0.0786768496, -0.1502841860, -0.1168629900, 0.0432689488, 0.1495813280, 0.0019695407, -0.0538529791, -0.2260482609, -0.1432427764, 0.0173684172, 0.0899850503, -0.0908170044, 0.0645187348, 0.1722764671, 0.0388417058, 0.0580442138, -0.0672526732, 0.0163288582, -0.0197172109, 0.0031805222, -0.0661258623, 0.0425972007, -0.0559508875, 0.0651563779, -0.1026913822, 0.1654343307, 0.0847726837, -0.1238391027, -0.0356818177, 0.1764301360, -0.0118774762, 0.0109823849, 0.0507112965, -0.0661012307, -0.0228694826, 0.0602589399, -0.2050980479, 0.0726649538, 0.0366974622, -0.0634712353, -0.1210966483, 0.1214595661, -0.0685103536, -0.0969551206, -0.1083327159, -0.0193047561, 0.0801173970, -0.0255325325, 0.0485107973, -0.0916719288, 0.0091472697, -0.0224245116, -0.0013688139, -0.0588449538, 0.0626533702, 0.0642230809, -0.0338403620, -0.1091198623, 0.0859804228, 0.1018291861, -0.0293953568, 0.0018294948, -0.1112800986, -0.0586010516, 0.0272697825, 0.0848030001, 0.0085396543, 0.0586181320, -0.1790577173, 0.1157555804, 0.0202986505, 0.0559080318, -0.0685281083, 0.0477849133, 0.0338065624, 0.0737919882, 0.1600684077, -0.0069348756, 0.1387271732, -0.0140733486, 0.2534157336, -0.0418671854, -0.1377527565, 0.0698672682, 0.1557107121, -0.1221397743, -0.1298868358, 0.0243232735, -0.1555231214, -0.1506972760, 0.0828520879, 0.1591772586, -0.0225273538, -0.0551530644, 0.0363027900, -0.0993215889, -0.1039945632, -0.0702971593, 0.0248880982, -0.0515522100, -0.0598665327, -0.1216544807, 0.0376603268, 0.0159405973, -0.2136317492, -0.0017585292, 0.0984398276, -0.1365794539, -0.0826965719, 0.0281079281, 0.1637900025, -0.0823479071, -0.0254057534, -0.0755409822, 0.0477217138, -0.0988862887, 0.0672465265, -0.1939724684, 0.0025614661, -0.0062318668, -0.0554954968, 0.0679343268, 0.0541770160, 0.0103158625, -0.0453508161, -0.1292146146, -0.1637929082, -0.2219029069, -0.4268986583, 0.0512794554, -0.0847509727, 0.0364235528, 0.0160879679, 0.0687550306, 0.0609375313, -0.0159797538, 0.0559744202, 0.0883705392, 0.0745142549, -0.1209089458, -0.1300920397, -0.0346746892, -0.1148226559, 0.0661700070, -0.0267269053, -0.0608181655, 0.0590210408, 0.0517552681, 0.1151296049, 0.0156016089, -0.0904291198, 0.0966453329, -0.0791359693, -0.0136230504, -0.0445012897, -0.0851417184, -0.3142827749, 0.1512357742, -0.1438104361, 0.1382550299, 0.0925911665, 0.0822750255, -0.0599621907, 0.1099949628, 0.0187607799, 0.0976362824, -0.1857603639, 0.0246216245, 0.0359973200, 0.1598716080, -0.0679517612, 0.1932876557, 0.0000135907, -0.0164735820, 0.0585862733, -0.0580913164, 0.0675402805, -0.0457721129, -0.0568861030, 0.1398188323, -0.0762197673, -0.1126185432, 0.0481591076, 0.0574071743, -0.0441675559, 0.1583850831, -0.1435989290, -0.0466442257, -0.3477138877, 0.0598822907, 0.1334266812, -0.1166825816, -0.0998780578, 0.0384289511, -0.0386359356, 0.2000212073, 0.2432232797, 0.2792677283, -0.0811093897, 0.0198134631, 0.1104805544, -0.0816958770, -0.0943094641, 0.1059882492, -0.1954499483, 0.0574857518, -0.1446080208, 0.1364634782, 0.1683168560, 0.0666607171, 0.2237484157, -0.1194425747, 0.1706702411, -0.0327244923, -0.0060844887, 0.1404111236, -0.0614324473, -0.0762899294, -0.1165950969, 0.1140638888, -0.0684301853, -0.1524766833, -0.2516192198, -0.0950407758, -0.0659629554, -0.0237286650, 0.0280724876, -0.0404468141, -0.0162392538, -0.1627213061, 0.0887519196, -0.0719509721, -0.0863281786, -0.1274148375, 0.1327675581, 0.0532640815, -0.1288664192, 0.0286665019, 0.1163279787, 0.0071427827, 0.0241396818, 0.0057318215, -0.1181107461, -0.2137708217, -0.0525660217, -0.0871908441, 0.0209594350, 0.1417248398, 0.1559180617, -0.0701750368, -0.1243891641, -0.0327801481, -0.0597096831, 0.0804511309, 0.1080614403, 0.1389188021, -0.2095094025, 0.0519886129, 0.1747658551, -0.1037781760, -0.1143170223, 0.0807717964, -0.1255272627, -0.1069874540, -0.0305984821, 0.0134566771, -0.0755359456, 0.0388720818, -0.0420364663, -0.0130051067, 0.1314871758, -0.0994171575, 0.0366388708, -0.1392418593, 0.0140473684, 0.0646717176, -0.0735142902, 0.0311710071, 0.0555902161, 0.2081573755, -0.0763777792, 0.0124190850, -0.1789764464, -0.1342241168, 0.1518521905, -0.0299624894, -0.0903248414, 0.1622409374, -0.2248310894, -0.0813650861, -0.0893785283, -0.0820974410, 0.2565240860, -0.1281521618, -0.0004279891, -0.2265731096, -0.3478988111, -0.0345986001, 0.1367767006, 0.0790681988, -0.1542306840, -0.0887049735, -0.1470791996, -0.1154782176, 0.0274375137, -0.0461709835, -0.0217231810, -0.0171542037, -0.0122925267, 0.1637547165, 0.0350083560, 0.1881804019, -0.0259651598, -0.1121175140, 0.0066801528, -0.0892517194, -0.1085160524, -0.0960167423, 0.2771824896, 0.0066983327, -0.1151787341, -0.1063282564, -0.0366417505, -0.0040802802, 0.0685666129, -0.1200372800, -0.0613036416, 0.0488849878, -0.1072249487, -0.0255429745, 0.0096714506, 0.2857258618, 0.1373682022, -0.0716152564, -0.1167195886, -0.0023611854, 0.0396635942, 0.1084977686, 0.0263815187, -0.0466241613, -0.1172516197, 0.0041525736, 0.1585660279, 0.0038158509, -0.2110894322, -0.0763673782, 0.1795438528, 0.0161706824, -0.0373796783, 0.0854805112, 0.0998834819, 0.0370402895, 0.0347169191, 0.1285811365, -0.2460803837, 0.0168986022, 0.0087914038, -0.1540872157, 0.2110946923, 0.1503651440, -0.1048158854, 0.0613600388, -0.0520641208, 0.0919845253, -0.0224175323, 0.0386963896, 0.1032835767, -0.1120178550, -0.3570692241, -0.0595953017, -0.1838171780, -0.0496903807, -0.1248470694, 0.0444271155, 0.0265988186, -0.1035505310, -0.0166735910, 0.1717054546, -0.0191233121, 0.0290297270, -0.1036923304, -0.0316251367, 0.1875277013, -0.0374115929, -0.0038639172, -0.1702212989, 0.1089919284, -0.2116608918, 0.1031442732, 0.1288341135, -0.0772274509, 0.1561660171, 0.0732792169, -0.0865582973, -0.0392887779, 0.0280997008, -0.1193786561, 0.2621040046, -0.2326797098, -0.1148233339, -0.1319423467, -0.1861898601, -0.0714157075, 0.0416923426, -0.1815681607, 0.2854847610, -0.1627182513, 0.0333613753, 0.0966605768, 0.2051772177, -0.1009213775, 0.0236515515, 0.0794897825, 0.1985902190, 0.1190911233, 0.1654885858, 0.1390866786, -0.1062147096, 0.1234291792, 0.2619596422, -0.0761045367, -0.1473364681, 0.0032292597, 0.1873495132, -0.0195991900, -0.0264988001, 0.0670817420, -0.2179225832, 0.1670256704, 0.0507114530, 0.2791078687, -0.0170279816, -0.0454895049, -0.0264556799, -0.1334817111, 0.1262539327, 0.0461724624, -0.0248163100, 0.1093778312, -0.0116743566, -0.0498629734, 0.0222934727, -0.1037045494, 0.0554430522, 0.0851561278, -0.0453803577, 0.1118372902, -0.0061551123, -0.1492206156, -0.0754664987, -0.0039641899, 0.0943734422, -0.0579133891, 0.1332555711, -0.0989907831, -0.0586243197, -0.0290203225, 0.0882141367, -0.0552411862, -0.2039634734, -0.1401920468, 0.0759882182, -0.0339529850, 0.0628513396, 0.0740066171, 0.2645026445, 0.0094888825, 0.0119682271, 0.0214583632, 0.0070594270, 0.1671753377, -0.0217717793, 0.0632616505, -0.0130701652, 0.2201689482, -0.2403147072, 0.0743254051, -0.0015243231, -0.0054439195, -0.1077480391, 0.0164787211, -0.2339758277, 0.0081625655, -0.1289617121, 0.1320862472, -0.0417568050, -0.1841855645, -0.1009214893, -0.0333614573, -0.0600068010, 0.0134552242, -0.0749481991, -0.0056010345, -0.0568871833, 0.0565530583, -0.1187853441, 0.1356253773, 0.0092488229, 0.0317159370, 0.0937112644, 0.0401366316, 0.1067531556, -0.1084249541, -0.0676182359, 0.1168076023, 0.0189373009, 0.0988797396, 0.0688043535, 0.1427249461, -0.0658505559, 0.0619197898, -0.0080132289, 0.0430832580, 0.1160837412, -0.1253609955, 0.0167047419, -0.0097284522, 0.1091441289, -0.0511065498, -0.0484384075, -0.0757821724, -0.1897636056, -0.0152966725, -0.0583437644, 0.1985925138, 0.1032297835, 0.0835755467, 0.0763143450, 0.0223543514, 0.1659750193, -0.0401275568, 0.0224789791, -0.0362341665, -0.0283697434, -0.0953437909, 0.2359356284, 0.0603799261, 0.0953221172, -0.0763598382, 0.0002261649, 0.0694849566, -0.0198548641, 0.1065729558, -0.2054866999, 0.1020419672, -0.0724400058, 0.0975063965, 0.1458338499, 0.0779098198, -0.0846754685, 0.1357137859, 0.0727897733, -0.0992408991, 0.0543961078, 0.0246296469, 0.0690642968, -0.0311659537, 0.0400953330, -0.0361143164, 0.0716863200, -0.3362846971, 0.0167162661, -0.0195495989, -0.0272672884, -0.0525930524, -0.0411008894, 0.1324142218, 0.0183730051, 0.0811034963, 0.1794971973, 0.0167059973, -0.0635655448, -0.0660180151, 0.1320110559, -0.1179457754, -0.0833603144, 0.0119314995, 0.0010300924, 0.0810896158, -0.0475006327, -0.0315707177, 0.1218817234, -0.1056546047, -0.1060165614, 0.0597025156, 0.0516689271, -0.0546500906, -0.0606608056, 0.0553012267, 0.0288946647, 0.0754743591, 0.0228078533, -0.0985026732, 0.0542463437, 0.0136338016, -0.0026499126, -0.1278985739, 0.1256217510, -0.0347470231, 0.0543770231, -0.1081425101, 0.1744166613, -0.0268062241, 0.0210141111, -0.0240720119, -0.0531915464, 0.0382285863, -0.1754611135, -0.1217853948, -0.0244645514, -0.0655001253, -0.0004317373, 0.0338634178, 0.0360825285, 0.0335359760, -0.0000168696, 0.0340301953, 0.0568181127, -0.1089612246, 0.0971788242, -0.0908158943, 0.1348191649, 0.0740740746, -0.0945547149, -0.0753777027, 0.0304011814, -0.1089610085, -0.1471636295, 0.1423560232, -0.0428027697, -0.0244531743, -0.0902669504, 0.1475314051, 0.0226702783, -0.0505933389, 0.0726533383, 0.0489608347, -0.0141437529, 0.0045538992, 0.0750179961, 0.0285602305, 0.0144314142, -0.0149829872, 0.1666136831, -0.0212455485, -0.1177292988, -0.0330998600, 0.0085184528, 0.0613368265, 0.0489982627, 0.0226475950, -0.0473203361, 0.1594519317, 0.0396659151, -0.0479135551, 0.0125519158, 0.0474296696, 0.0820023715, -0.0536668375, -0.0340920165, -0.0111569436, 0.0739364550, -0.1312347353, 0.0490824692, 0.0578364320, 0.1297020614, -0.0366403647, 0.0157911517, -0.0789067224, -0.0012459500, 0.0489573851, 0.0396419503, 0.0259946994, -0.1093711257, -0.0402720198, 0.1259593815, 0.0155734094, 0.0569319464, 0.1400055587, 0.0674501508, -0.0159506053, -0.0898521170, 0.0247257669, 0.0380629934, -0.0017870723, -0.0469354242, 0.1113132685, 0.0619743615, -0.1047155708, 0.0396718010, 0.0008050565, 0.0809577703, 0.0695858970, 0.0647216290, 0.0269141253, -0.0993337706, -0.0293450411, 0.0908914283, 0.0564819090, 0.0912817419, -0.0465213135, 0.0100722006, -0.0339421146, -0.0453894436, -0.0617853850, -0.1378911883, -0.1521214992, -0.0018921782, 0.0587288402, -0.1111758426, 0.0609699562, -0.0431234501, 0.0003476259, -0.0362451971, 0.0795121565, 0.0251695737, -0.0552645475, -0.0053121150, -0.0869428739, 0.1189749166, 0.0042124046, 0.0646457002, -0.0870309100, -0.1282079071, 0.0343286432, 0.0159268286, -0.0832948983, -0.0757500976, -0.1015046388, -0.0467038266, 0.1231905892, -0.1894196123, 0.1771415472, 0.0154496124, 0.0126092099, 0.0329848714, -0.0650582761, 0.1139219180, -0.1823654473, -0.1255999953, -0.2002067715, 0.0441915356, -0.0267928857, -0.0545040816, -0.1427681893, -0.0199784208, 0.1066822931, -0.0611086972, 0.0244306158, 0.0810793489, 0.0327153318, 0.1449403763, 0.1685989201, -0.0191474594, 0.0093565378, -0.1113676503, -0.0538759232, 0.1328627765, -0.0860053524, 0.0926298872, -0.1328998506, 0.0881513730, 0.0237797331, -0.0286230110, 0.0625068173, -0.0185660012, 0.1373489350, 0.0658444017, -0.0769536272, 0.0308163017, -0.0308234598, -0.0675964803, -0.0528490804, 0.0780903846, 0.1226770505, -0.1354826391, 0.0976937786, -0.0369686298, -0.0547042899, 0.0193163343, -0.1014385372, -0.0593439527, -0.0855133384, 0.0010458357, -0.0216658041, 0.0207700823, -0.0278450474, -0.1294250339, 0.0642002225, 0.0183177572, -0.0066907238, -0.0467931852, -0.0921452343, -0.0507337488, -0.0367558785, 0.0927134901, 0.0812117159, -0.0663200393, -0.0728217736, -0.0793299675, 0.0408019982, 0.1464795321, -0.0973675102, 0.0324329808, 0.1019968018, -0.0721790567, 0.0636703521, -0.0339186713, -0.1459413767, 0.0644549876, -0.0088460613, -0.0820244178, 0.0399227254, -0.0448419005, 0.0513403825, 0.0722534209, -0.0182606373, -0.0476813540, -0.0051711635, 0.0185960419, 0.0360909402, 0.0282753780, -0.0757890940, -0.1145029739, 0.1518176496, -0.0597789660, -0.0212795008, -0.0449197032, -0.0461428277, -0.0469792932, -0.0564323477, 0.0334562734, -0.0335458331, -0.2515128255, 0.1264885664, -0.0774565861, -0.0036185295, -0.0793445781, -0.0196558572, 0.0169594493, -0.0143848807, -0.2350097746, 0.0312595852, -0.0406427532, 0.1269395053, -0.1268918663, 0.1286240816, -0.0125298668, 0.0172680710, 0.0308732614, 0.1313624084, -0.0953282043, -0.0518016815, -0.0763655156, 0.0171283856, -0.0198320970, -0.0343105234, 0.0640298426, -0.1551697999, -0.1722847521, -0.0932802111, -0.0876738504, 0.0193059929, 0.0271127149, 0.0228042752, 0.1492712796, 0.0446680821, 0.0017916670, -0.0915671363, 0.0506502166, 0.0822775587, 0.0381172001, 0.1248150542, 0.1361761689, -0.0696954280, -0.0662164763, -0.0593044274, 0.0644202679, -0.0286816806, 0.1225012839, 0.0030049467, 0.0411476716, -0.0466825254, 0.0763276666, -0.0915578678, -0.1092716232, -0.0735156238, -0.0281373467, -0.0768156946, -0.0632039383, 0.0021346107, -0.0861047730, -0.0894498453, -0.0322671868, 0.0389030091, 0.0087353829, 0.0731179491, -0.0236500707, -0.0229356661, -0.0660479963, -0.0039023370, -0.0903741792, -0.0521881133, 0.0765410960, -0.0695595518, -0.1977638304, 0.0702786297, 0.1154092029, -0.0592260547, 0.0966513827, -0.1036665738, -0.2097933292, -0.0139067471, 0.0725336447, 0.0507225394, 0.0670671165, 0.0955771208, 0.0515812375, -0.1084874421, -0.1465310156, 0.1989364624, 0.1688199788, 0.0488419980, 0.0556969233, -0.2251904160, 0.0420839712, -0.0230548177, 0.1484531462, 0.0397446230, -0.1156402901, -0.0278510135, -0.0029151330, 0.1310139149, 0.0105231637, 0.1124663502, 0.1626659185, -0.0056737694, 0.0256779082, -0.0418303236, 0.0181475077, 0.0543822199, -0.0032705383, 0.0392201133, 0.0131260809, -0.1149326339, 0.1362073272, -0.1117120683, -0.0626435727, -0.0048053563, 0.1395659745, -0.1358994395, -0.0226869863, 0.0510414056, -0.1049539372, 0.0841879770, -0.0186492000, 0.0643002167, 0.0013572022, -0.0348941162, 0.0519056506, -0.0591340661, -0.0658994392, 0.1112418845, 0.1334376186, -0.0243787859, 0.0696544498, -0.0579958372, 0.2068568617, -0.0205585044, 0.0537979491, 0.0404833667, -0.0200068094, -0.1804797947, 0.0792762265, 0.1072079763, 0.1062177494, -0.0590001903, -0.0550299101, 0.2545000911, 0.0442496128, -0.0984778777, -0.0663703009, -0.1253948212, -0.0493537299, 0.0373894908, -0.0823654905, -0.1184389442, 0.1168936267, -0.2063848078, -0.0673472360, 0.1022597924, -0.0056498991, -0.1205880716, -0.1498620510, 0.0807148814, 0.0276521947, -0.1317835301, -0.0521141179, 0.1392218173, 0.1338733286, 0.0085085416, 0.0106212310, -0.1224761009, -0.0100909527, 0.1503230929, -0.0575940683, -0.0657812357, 0.0428637750, -0.0487497821, -0.0730221048, 0.0528284833, -0.0939918086, 0.1136860922, -0.2368963361, 0.0407796055, -0.0080110049, -0.1984312981, 0.0320400000, 0.0779512599, 0.0829580277, 0.0213745479, -0.0159976892, 0.0318208598, -0.0724067912, 0.0898022950, -0.0138162011, 0.0018813777, 0.0206540562, -0.1455098689, -0.0878852457, -0.0328629427, -0.1761163175, 0.0051557058, -0.0616475381, 0.0600206032, -0.0775255486, 0.1847283393, -0.0553782992, -0.1230329797, -0.0377085991, 0.0616232678, -0.0007575072, 0.0955094025, -0.0672782660, -0.1190775707, 0.0505297147, -0.0599521548, 0.1018479764, -0.0030431855, -0.0593347996, 0.0061286474, -0.1051393449, 0.0672977567, 0.0795061067, -0.0169447456, 0.0234234948, -0.0418532938, -0.0711335465, 0.0994924083, 0.0995246023, -0.0546015762, 0.0315576494, -0.1296266615, 0.0517510548, -0.0335404053, 0.0893500894, -0.2422999144, 0.0955009535, -0.0981933400, 0.0117007699, -0.1039290503, 0.0511735938, -0.1167468578, 0.0037224437, -0.0043598432, 0.1447624415, -0.1335438341, 0.0258017126, -0.0656708181, 0.0289433785, -0.0639832094, -0.0654216185, 0.0760284066, -0.0367409326, -0.0177400913, -0.0008874775, -0.0364547968, 0.1115200967, 0.1087054536, 0.0808573887, -0.0094111934, -0.0475858673, -0.0269116778, -0.0417076610, 0.0815480575, 0.1059618071, -0.0977776572, 0.1035803556, -0.0978973210, 0.0180195831, 0.1031761616, 0.0880856216, 0.1112052947, 0.0369420052, 0.1193789020, 0.1505491287, -0.0113379089, 0.1637366116, -0.0223745126, -0.0789591223, -0.0087268343, -0.1135238111, 0.0741277337, 0.0830763429, 0.0877261534, -0.1124482453, -0.0976724699, -0.0226855390, 0.0607276820, 0.0514730997, -0.1384263188, 0.1161210313, -0.0345699042, -0.1395613253, 0.1118386984, -0.1808143854, -0.1183435097, -0.0094074206, -0.1428198069, -0.1487968862, -0.0356632844, -0.0604602322, 0.1537191868, -0.1133982018, -0.0138416504, 0.0883685648, -0.1360557526, 0.0524972230, 0.0917787328, -0.1333565116, 0.0513567105, 0.1478236914, -0.1133801863, -0.0387703888, 0.0714620352, -0.1465189606, 0.0578028299, 0.0387042128, -0.1407257468, -0.0748969167, 0.1391168237, -0.1847442389, 0.0388089791, 0.0298347306, -0.0234723017, 0.0342967212, -0.0018736961, 0.0476040840, -0.0652600229, -0.0529736653, -0.0958066583, -0.0375315212, -0.0574483909, 0.1008645371, -0.0363567322, 0.0039708265, 0.0103521366, -0.0297113173, 0.0966098383, 0.1031750888, 0.1049856544, -0.0979902893, -0.0139341783, 0.0691915825, 0.0096497368, -0.0447051823, 0.0390073545, 0.0515653975, -0.0544659942, 0.0162113626, -0.1158801392, 0.0697678924, -0.1353328824, -0.0478848815, -0.0714600757, -0.0581192710, 0.0435839817, 0.0817076266, -0.0795688778, -0.1994732618, 0.1042137071, 0.0113623161, 0.0479860269, 0.0445709936, 0.0662429035, 0.0761135444, 0.0116879586, 0.0140429717, -0.0349975191, -0.1222580075, 0.0203247722, 0.0072817304, 0.0350320041, 0.0105710961, 0.0075504296, -0.0264371727, 0.0829180926, -0.0583190173, 0.0165827852, -0.1130636781, 0.0507728681, 0.0296905749, 0.0141263846, 0.0358097777, 0.1579922587, -0.0488271527, 0.0922889337, 0.0602202378, 0.0546345115, 0.0610921308, -0.0137669705, 0.0459520333, -0.0607282892, -0.1176586896, 0.0358221941, -0.0820682794, -0.0367122889, 0.0107869599, 0.0599243939, 0.0131160710, -0.1051824018, -0.0917352065, 0.0345083661, -0.0429553315, -0.0160236154, -0.0639040768, -0.0501331426, -0.1175055876, 0.1038791239, -0.0269142445, 0.0811451674, -0.0730184242, -0.0885268673, -0.0863041356, 0.0256906841, -0.0633387491, -0.3258023858, 0.1370420754, -0.2124916464, -0.0152888494, 0.0643076226, 0.0085109556, -0.0127978893, 0.0864414275, 0.0247978419, 0.0100515867, 0.0037482791, 0.1634427160, 0.0352400392, -0.0608367212, -0.0631653890, -0.0910209343, -0.0667254329, -0.0178602599, 0.0371152610, 0.0408837683, -0.0995502695, 0.0766653717, 0.2596012056, 0.1113230065, -0.0643949583, -0.1363855153, -0.0028100868, 0.1979624033, 0.0944534242, -0.1022283360, -0.1415527910, -0.0934597030, 0.0162250306, -0.1571547538, -0.3551233709, 0.0528182052, 0.0380133763, -0.0507220030, -0.0005317631, 0.0483266190, 0.0000272962, -0.1453773528, 0.0319961905, 0.0297053121, 0.2112356275, 0.1298798174, -0.0006328982, 0.1572447121, -0.1099746525, -0.1669803858, -0.0007141082, 0.1042500883, 0.0893740728, -0.0773089975, 0.0422507860, 0.0349653102, 0.0102449162, -0.0258583706, -0.0428662486, 0.1641129404, 0.0103580598, -0.0105525488, 0.0511357374, -0.0708177090, 0.1249389201, 0.0085338866, 0.0332911871, 0.2516109049, 0.1257297993, 0.1148049310, 0.1297345310, 0.1137149334, 0.1034176424, 0.0005644236, 0.0862208083, -0.0196595918, 0.1430745274, 0.0328981355, -0.1066796854, -0.0276376233, 0.1240486726, -0.2067551911, 0.0222129077, -0.2568557858, -0.1811277568, -0.0234670024, 0.0043913289, 0.0374747254, 0.1355621964, -0.0500824489, 0.1833931953, -0.0977124050, -0.0414650664, -0.0556374453, -0.2096288353, -0.0083737196, 0.1162979603, 0.0189010631, 0.0653492585, 0.0566158742, 0.0178276971, -0.0794541016, 0.1377382278, -0.1617927849, -0.1039495990, -0.1296565980, -0.1206221431, 0.1338627338, 0.0783587918, -0.0847962126, -0.0944283754, -0.0905562937, 0.0100434916, -0.0060126837, -0.0985815823, 0.1100399196, 0.1415907443, -0.0124180550, 0.0440316163, -0.1218477786, -0.2907714844, -0.1091595069, 0.1605004966, 0.1600667089, 0.1236949861, 0.1786786169, 0.0235283375, -0.1038930193, -0.1506288201, 0.1479782164, 0.0556863286, 0.1069945991, -0.0986180231, 0.0727054253, -0.0068184542, 0.1307970285, 0.0408882834, 0.1589810103, 0.0562374480, 0.0949949250, -0.0616979040, 0.0347311683, -0.1139904261, -0.0817653164, 0.0403212048, 0.0535570346, -0.0163736362, 0.0402919501, -0.0037408890, -0.0450353138, 0.0863405913, 0.0047745407, -0.0347832590, -0.1195426956, 0.0274590459, 0.1111140028, -0.0858556479, 0.1325688362, -0.1260565072, -0.0477199294, -0.1322352141, 0.0942463577, -0.1007401422, -0.0603957810, 0.0345904268, 0.0573471896, -0.0456578732, 0.0123667503, -0.0332441591, -0.0403422564, -0.1291165650, -0.0435002446, -0.0503475703, -0.0288021788, 0.0079738246, -0.0375008099, -0.1385578811, -0.1220443174, -0.1486313343, 0.0822462142, -0.0711908489, -0.0129286451, -0.1089186519, 0.0219743196, -0.0950450674, -0.1459002197, -0.0265003853, -0.0387795083, -0.1277511120, 0.0407271236, -0.0006743529, 0.0028384321, 0.0106402822, 0.0119180623, 0.0431219675, 0.1083519831, 0.0480105169, -0.0506539345, 0.0003798152, -0.0191419702, 0.0343681127, -0.0716821402, 0.0423741117, -0.0661641359, 0.0505015366, 0.0979726985, -0.1589820534, 0.0937111899, 0.0975966156, 0.1553839445, -0.0155747393, -0.0683293641, 0.2006039023, -0.0395445377, 0.0704636350, 0.0120033966, -0.1645208299, 0.0296505541, 0.0070964363, 0.0969350338, -0.0744051859, 0.1678236127, 0.0522701032, -0.0565395169, 0.0791856870, -0.0998325497, -0.0642341450, -0.1294743866, -0.0580057763, 0.0449512601, -0.1435075104, -0.0598651841, 0.1717768759, 0.0035926811, 0.0303753931, 0.0866936818, -0.0917905122, -0.0330515169, -0.0374798253, 0.0175827146, -0.2227586955, 0.0139387799, -0.0872591510, -0.0612961575, -0.0603009090, 0.0378151387, 0.0975415036, -0.1101937890, -0.0821903720, 0.0827803463, -0.1593440920, -0.0065512070, 0.1244541928, -0.0340204462, -0.1518661082, 0.0187848769, -0.0893316418, -0.0504428297, -0.1222432479, 0.0699201077, 0.0070467461, -0.1081736982, 0.0381038375, 0.0435347408, 0.0383684188, 0.0178658124, 0.0610604323, 0.1134026796, -0.0753135905, -0.0829215571, -0.0382175222, -0.0322777703, -0.0598860011, -0.1089678630, -0.0493612550, -0.0205935482, -0.1018619984, -0.0809032023, -0.0202954784, 0.0318428800, 0.0935847163, -0.0386686698, 0.0996575579, -0.0212270916, 0.0106884316, -0.0749924183, 0.0430388153, 0.0071067074, 0.0719776750, -0.1364579499, -0.0162597317, 0.0173811167, 0.1312853843, 0.0901386887, -0.1111918017, 0.0074519389, 0.0872301087, -0.0481468700, 0.0564221591, 0.0333990976, 0.1503875405, -0.0759479031, -0.0431279540, -0.0979268700, -0.0444703437, -0.0225451440, -0.0847901478, 0.0492489710, 0.0760941952, 0.0786480829, -0.1237004250, 0.1326418072, 0.0729284808, 0.0158663169, 0.0525462292, 0.0757391229, 0.0867990106, -0.0196946263, -0.1048524976, -0.0549973249, -0.0581871271, 0.1482598931, -0.0444016159, -0.0213453788, 0.0736947358, 0.1455389410, -0.0022949742, -0.0958359912, 0.0375182144, -0.0637555942, -0.1379927695, -0.1000659093, -0.0163359493, -0.0886546075, 0.0838846266, -0.0583078526, -0.1662981063, 0.0059594763, 0.1074026972, -0.0009311727, -0.0210777130, 0.0122511508, 0.0329607837, 0.0632108226, -0.1280822903, -0.0503717102, -0.1176999062, -0.0389133468, -0.0792378709, 0.0059113591, 0.0822432563, -0.1445833147, 0.0415570289, -0.0413268320, -0.0151897529, -0.0851562843, 0.0599207878, 0.0320533402, -0.0808141604, -0.1635192335, -0.1532202810, -0.0271408539, -0.1943484098, 0.1407161802, 0.1156910732, -0.0412179679, 0.0212145001, 0.0951395184, 0.0157669224, 0.0498844087, -0.1455367953, 0.0537453219, 0.1138031483, 0.0527592935, -0.1145778522, 0.0786080584, -0.0139342025, 0.0718527734, 0.0794037506, -0.0480720773, 0.1044117734, 0.0494871214, -0.0626116544, 0.1085390672, 0.0676710978, -0.2292142659, -0.0536326990, -0.0390945002, 0.0881178603, -0.0062176129, 0.0530788153, -0.0015783220, -0.1495595127, -0.0348771475, 0.0256929025, -0.0436640158, 0.0226052552, -0.0413461812, -0.1156622246, 0.0775087178, -0.0605050400, 0.0964288041, -0.0896609649, -0.1150592193, 0.0620546192, -0.1263609231, 0.1010616347, 0.1633614898, 0.0957901031, 0.0308763441, -0.0674675927, -0.0274882056, 0.0716464892, -0.0139980065, -0.0740110651, 0.0091583682, -0.0743395984, -0.0124315452, 0.1077744588, 0.1004021317, -0.0348692574, 0.0333135501, -0.0010124162, -0.0200887620, 0.0995823517, -0.1407152414, 0.0478451066, -0.0906121209, 0.0536069050, 0.0105480608, -0.0070507876, -0.0121142725, -0.1039323285, -0.1100969464, 0.0685092509, -0.0078666145, -0.0519712195, 0.0654734969, -0.0072581689, -0.0892629474, 0.0947817490, 0.0800096542, 0.0677359998, 0.0223755483, 0.0250762887, 0.1391176134, -0.0120638097, -0.1047736481, 0.1976601630, 0.1272151321, 0.0023102043, 0.0404790901, 0.0550360531, -0.2016103417, -0.1328250617, 0.0152211618, 0.0083121667, -0.0012574067, -0.0389909185, 0.1360463351, 0.0636191890, -0.0171722453, -0.0746567473, 0.0161461476, -0.0965026170, -0.0645923465, -0.0024192866, -0.0574333817, 0.0202461407, 0.0321168862, -0.2020714283, -0.0765716434, 0.0580137484, 0.0372143798, -0.0658275634, -0.0864390954, 0.0743295550, 0.0539501868, 0.0700022578, -0.2082060724, -0.2739770710, -0.0337451957, -0.2148205340, -0.0118038300, -0.1726570427, 0.1369447708, 0.0284340549, -0.1660105437, 0.0181479268, -0.0026628429, -0.0385229737, -0.0397078693, -0.0381356068, -0.1400592625, -0.0207631513, 0.0677629635, 0.0511967875, -0.0744736418, -0.1103882715, 0.0189575516, 0.0684606880, 0.0436568111, 0.1215847731, -0.1291574091, -0.0025032472, -0.2639306784, -0.0476283543, 0.1892845482, -0.0682773516, -0.0009636820, 0.1077447683, -0.0061463835, -0.1484606415, 0.0279701836, -0.1701377332, 0.0936263800, -0.1301309317, -0.0867883116, -0.1091694385, -0.0160748363, 0.0694990158, -0.1173287034, 0.0802979767, -0.0133378226, 0.0316244848, 0.0180313233, -0.0126399603, 0.1206675470, -0.0078508137, -0.0866614655, 0.0694234520, 0.0772373527, 0.0756983683, 0.1530033499, 0.0634717718, 0.1096236184, -0.2017800808, -0.1068924516, -0.1105019376, 0.1747522503, -0.1532798409, -0.0488718227, -0.0502749346, -0.0423238166, 0.1256545037, -0.0134023735, -0.0322778970, 0.0539331213, 0.1087684408, -0.0529392473, 0.0768316463, 0.0451274030, -0.0975637287, 0.0295929462, -0.0094866836, 0.0621767417, 0.0695519224, 0.0225663055, -0.0904961601, -0.0186794642, -0.1057953238, 0.0659065247, 0.1061381549, 0.0040256046, 0.0389630534, 0.1310813427, 0.0729132071, -0.0049838596, 0.1807144582, 0.0173012558, 0.0407585017, 0.0099504413, 0.0104198223, -0.0593912788, -0.1352014542, -0.0038384453, -0.0077090724, -0.0990469158, 0.0004430632, -0.1504469216, -0.0423146300, -0.0145448651, 0.0410598181, -0.1454483569, -0.0412967801, -0.1609842032, -0.1056554392, 0.0983623937, -0.1041452140, -0.1199235916, -0.2569367886, -0.0285550281, 0.0615045354, 0.0807792097, -0.0289326832, -0.0164006967, -0.0331133008, -0.0856327415, -0.0413764231, -0.1019208580, -0.2257340103, 0.0453558266, -0.1426074803, -0.0913425386, 0.1773679554, 0.0687350407, -0.0021582574, -0.1140737757, -0.1003164947, -0.0607995242, 0.0003944582, 0.0801870227, 0.0039005396, 0.0954003856, 0.0145979766, 0.1379481107, 0.0014761052, 0.0758835822, -0.0833429396, -0.0811189637, 0.0160112064, -0.0236484632, 0.0799121112, -0.0380480103, -0.1800405234, 0.0043756631, 0.0487417281, -0.1750327349, 0.0661266446, 0.0580061264, 0.0135041559, 0.1264661700, -0.1779947281, 0.0447487198, -0.0821539536, -0.0312717594, 0.0273305103, 0.1027053744, -0.0588587895, -0.0903746411, -0.1220579892, 0.0240617804, -0.0377168618, 0.0350338779, -0.1135284230, 0.0543053821, 0.1082119197, 0.0104061933, -0.0338474475, 0.0543466657, -0.0618337467, 0.0642901734, -0.0985516980, 0.1448200047, 0.0536635295, -0.0334654301, 0.0273697637, 0.0562718101, -0.0704707429, -0.0692259893, -0.1006217152, -0.0807261989, 0.0412283465, 0.0629077554, -0.0357184708, -0.0776750818, -0.0549058691, -0.0372171737, -0.0616168194, -0.1229581386, 0.0273728725, -0.1141908541, 0.0830216855, 0.1535740197, -0.0139219621, -0.1455398500, -0.0799399316, -0.0920153856, 0.0878377557, -0.0468850546, -0.2762185931, -0.0547856875, 0.1045005843, 0.1547886729, -0.0335132852, -0.0628201663, 0.0224810317, -0.0864378437, -0.1331368238, 0.1092161387, -0.0466464013, 0.0864721388, -0.0276451036, -0.0714417398, -0.0769796968, 0.0229886808, -0.0426207855, -0.0460236743, -0.0316127837, 0.0364136472, -0.0632543415, -0.0287919641, 0.0023983861, 0.1242970899, 0.0649761409, 0.1443910152, 0.1407976896, -0.0082209166, -0.1593313366, 0.0006335215, -0.2048872113, 0.0499732047, 0.0009687081, 0.1895316541, 0.0033867438, 0.0796631277, -0.1302570403, -0.1233741120, 0.0834333375, -0.0107678631, 0.1314800531, -0.1032961234, 0.0469071530, -0.0203356910, -0.0200062599, -0.0711045787, 0.0955407768, -0.0381734744, 0.1688713580, -0.1842416972, 0.0864179209, 0.0570827723, 0.0411973856, 0.0452854671, 0.0004752363, -0.1187734380, -0.0768580735, -0.1215059310, 0.0245564822, 0.0214878842, 0.0684113279, -0.0015879332, -0.1375572085, 0.0540897474, -0.1048457250, 0.0461013690, 0.0577301756, 0.0279769246, -0.0577210262, 0.0968479812, -0.1077271625, 0.0532164723, -0.1059041917, 0.0547882579, 0.0821442977, 0.1193069667, 0.0100917378, 0.1320915669, -0.0477461778, -0.0904705003, -0.0944182873, 0.0819118246, -0.0232978966, -0.0279513840, -0.0392313935, -0.0026904913, -0.0680483803, -0.0849791840, 0.0368660763, 0.2200332731, -0.0952780768, 0.0093997801, -0.0220614858, -0.0118801193, 0.0300172456, -0.0083463360, -0.0533334315, -0.0583570562, -0.0226018596, -0.0116314022, -0.1712687463, 0.0688044354, -0.0838677138, 0.2152340114, -0.0083347475, -0.1333249509, 0.0445074141, -0.2679056823, -0.1275575310, -0.0419034213, 0.0222035758, -0.1653185189, -0.1358260959, -0.0485518351, -0.0182236787, -0.1332994550, -0.1182206646, 0.0389927402, 0.0862140283, 0.0800552890, -0.0896322504, 0.1498476565, 0.2051292807, 0.0540147163, -0.0299634244, -0.0126095330, 0.0724594668, 0.0030049104, 0.0156696774, 0.0072428295, -0.0546058565, -0.1061367616, 0.1224416196, 0.0147007508, -0.0530505516, 0.0343098305, -0.1612430811, -0.1101379097, 0.2458039820, 0.0132912910, 0.0173485465, 0.1578556299, 0.1299907118, 0.1272891313, -0.0630328804, 0.1104178131, -0.0549402982, -0.1209810823, -0.1435100138, 0.0473517142, 0.0428300612, 0.1453739703, 0.1986613572, 0.0481111817, -0.0616546348, -0.1125095189, -0.0843928903, -0.0581205525, 0.0502997674, 0.0739886686, 0.0713584200, -0.1058632359, -0.1713667363, 0.0373370498, -0.2845598459, -0.1393081546, 0.0861294791, -0.1259506047, 0.0680806413, 0.0559445173, -0.0648925006, 0.0894319341, -0.0712647066, -0.0825745016, -0.0481677540, -0.0861228779, -0.0827120692, -0.1090622842, 0.0217594020, 0.0331120342, 0.1414140761, -0.0365033410, -0.1430664510, -0.1032577753, 0.1092526317, -0.1533354819, 0.0404291861, 0.2120744288, 0.0177841615, 0.0371676348, -0.0058108596, 0.1788113117, 0.0245131329, -0.0986615568, -0.3622933328, -0.2128298730, 0.0009304567, -0.1007718146, -0.0678459331, -0.0766401291, 0.1462502778, 0.0124591598, -0.0053000059, 0.0565858223, 0.0815378949, 0.0115203671, 0.0848875642, 0.0175753869, -0.1357659101, -0.2293186784, -0.0584923103, -0.0518667027, -0.0023859520, -0.0368704610, -0.0272584707, 0.0538523532, -0.0504406951, -0.0006818090, -0.1118752584, -0.0450014435, -0.0098786540, -0.1463720500, -0.0564712547, -0.2501026690, 0.1139778793, -0.1272226572, 0.0343772992, -0.1111077070, 0.2540119886, -0.0520761199, 0.0073525864, -0.0443779193, -0.0561999343, -0.0086791199, 0.0302016996, 0.0929261073, 0.0646684319, 0.0456533693, -0.1204956174, -0.0115935197, -0.2620669007, 0.0715710223, 0.1902030110, 0.0089361481, -0.0436934642, 0.1732874960, 0.1902693808, -0.0659310073, -0.0397723466, 0.0541958176, 0.0130925262, 0.1400841624, 0.0227376018, -0.0136646060, -0.1712200195, 0.0722242594, -0.0584270805, -0.1185975671, -0.1232003123, -0.1056340039, -0.0614161156, 0.0466961637, -0.0597926341, -0.0847066790, -0.0356134623, -0.0412748121, -0.1611363888, -0.0771557167, 0.1152402163, 0.0165511221, 0.0266568176, 0.0671249032, -0.0040506166, 0.2991479933, 0.0285315234, 0.0642778277, -0.0706197992, -0.2050467432, -0.0242187288, -0.1627346426, -0.0355793685, -0.0162280574, -0.0427142233, 0.0399844758, -0.0442255959, 0.1530213356, 0.0487774946, -0.2078497410, -0.0454126783, 0.0079829749, 0.0957654789, -0.0963750109, -0.0267913211, 0.1267164797, 0.0096148551, -0.0624467395, -0.0159390438, -0.1144486591, -0.0474491380, 0.0663584545, 0.0600516796, -0.1578917056, -0.0796599984, 0.0521051548, -0.1694568694, 0.1866634339, -0.0694921464, -0.1299393773, 0.0074953823, 0.0330506451, -0.0620499067, 0.1345352530, 0.0685707852, -0.0936664492, -0.1231997311, -0.0396259539, -0.1270594299, 0.0291941445, 0.0399442501, -0.0155554796, -0.0648209602, -0.0817488581, -0.0641964749, 0.0750003755, -0.1583822370, 0.1592793912, 0.0492331162, -0.2144237757, -0.0048033800, 0.0155368103, 0.0683284104, 0.0527987964, -0.1149302348, -0.0226081610, 0.0806255341, -0.0351363905, -0.0324442312, 0.0709608197, 0.0051092440, -0.0484795608, 0.0772968233, -0.0613078028, -0.0930739492, 0.0616468564, 0.0015383533, -0.0875402912, 0.0132476073, 0.0664296746, -0.1325870454, -0.0969688147, 0.1267149448, 0.0617354214, 0.1365804821, -0.0224430263, 0.0353661552, 0.0328139961, -0.1722684950, -0.0139512820, -0.1182115600, -0.0102717392, 0.0309079029, -0.1964403242, -0.0730301663, -0.0253375508, -0.0919473842, -0.1800055653, -0.0140554747, 0.1893599778, -0.0749795064, -0.0439989828, 0.0329230316, 0.0318141170, -0.0238060951, -0.1052647009, -0.2539868355, 0.0274060778, 0.0548942313, 0.0710872561, -0.0768450871, 0.1121975854, -0.0791386962, 0.0760802627, 0.0230168737, 0.0476840734, 0.0946561918, 0.0178573877, -0.0045139133, -0.0837472603, -0.0912122354, -0.0233863778, -0.1445157528, 0.0710093603, -0.0147159575, 0.1615261734, -0.0370378494, 0.1270899624, -0.0170945246, -0.0416189916, -0.0033825850, 0.0260132402, 0.0805123821, 0.0176125318, 0.0425316840, 0.0500658900, -0.0410143882, -0.0026288121, 0.0856204405, 0.1212656870, 0.1419116706, -0.1729780883, 0.1091176197, -0.1163922027, 0.0062408154, 0.0875625983, -0.0219019577, -0.2069733292, -0.0446239896, -0.0358667523, 0.0610822961, 0.0572519414, -0.0964561403, -0.1356492937, 0.3220345974, 0.0462086387, 0.1842044741, 0.0959514305, -0.1013490483, -0.1067970023, -0.1146916449, 0.1325357705, -0.1416177303, -0.0166789610, 0.2860987782, -0.0109018199, -0.4013790786, -0.2491794676, 0.0554155745, 0.0593306534, 0.1197336838, -0.0271208994, 0.3038117290, -0.1198155358, 0.0441745222, -0.0329675712, 0.1269737184, 0.1118765399, -0.0321458690, -0.1503597349, -0.1296779513, -0.1214148328, -0.0789325982, -0.0212707818, 0.0089217136, -0.0715201721, -0.0009516994, -0.0303790532, 0.0016451288, -0.0989112109, -0.1288769543, 0.0308773499, 0.0056533152, -0.0057369629, -0.0718738809, -0.1331162602, 0.1711774170, -0.0946908668, 0.0097073242, 0.1951718330, -0.0873452350, -0.0030358564, -0.0424527414, 0.1085011214, -0.0478077680, 0.0546439514, -0.0611615963, -0.1132377386, -0.0292923227, -0.1334224194, -0.1005590782, 0.0755762532, -0.2122649848, -0.1163515002, -0.0793892890, 0.0379200205, -0.1669779867, 0.0431857184, 0.3235366344, 0.1195459366, -0.0573986471, -0.1563038081, 0.2569640875, -0.0278013442, 0.0391741954, 0.0635794401, -0.1654421985, 0.0217150021, 0.0395018086, -0.1184716523, 0.1441292018, -0.2016917616, 0.2693691850, -0.1497643888, 0.2222887427, 0.0361963250, -0.0282760561, -0.0704799667, -0.0481268391, -0.0537992045, -0.0712937266, 0.0849465951, 0.0153311007, 0.1584079266, -0.2680663466, 0.1316760480, -0.1134700254, -0.0783156306, 0.0207113065, 0.0859380662, -0.1058795154, 0.1294932961, 0.3196640611, -0.1132374704, 0.1390384734, -0.2065408677, 0.0110771731, 0.0505552515, -0.2383551747, 0.0705008730, 0.0034598932, 0.0209078919, 0.0437752940, -0.0538891144, -0.1953548491, 0.1074037701, 0.0643265992, -0.0522402264, -0.0572935864, -0.0033438597, 0.1933128238, 0.0603476278, -0.2238055319, -0.0426133759, 0.0701878145, -0.1448665410, 0.1132055968, -0.0142239202, 0.0140867578, 0.0208445061, 0.0816591159, 0.0288453940, 0.0237103496, 0.0712627694, 0.2248253226, -0.0631305426, 0.0287688654, -0.1356054693, -0.0487860739, -0.0103668254, -0.1425733715, 0.0244259778, 0.3187150061, 0.0096876426, 0.0989674628, 0.1724437028, 0.0196249466, 0.0560506247, 0.0434835330, 0.0256368220, -0.0982764363, 0.0166301802, -0.0065430272, -0.1471891701, 0.2456396371, -0.0335905217, 0.0277041104, 0.1338715702, 0.0828564391, 0.0341866314, 0.0499046780, -0.1818759441, 0.2038131803, -0.0130294338, 0.0910559148, -0.1639055610, 0.1299941391, -0.0441054106, -0.0214071684, 0.0047529796, 0.1770345718, 0.1513253301, -0.1120188609, 0.0923837498, 0.0147011559, 0.1854544133, 0.0137192262, -0.0104202665, 0.0430589989, -0.1315665692, 0.0043564099, -0.0546418913, -0.0829082355, -0.0119595826, -0.1113981083, -0.0943233073, 0.0077452823, 0.0209941212, -0.0012319793, -0.0364549495, -0.0735188723, 0.0779934600, 0.1214659810, 0.1315418929, -0.1432646066, -0.0530424677, -0.0551149137, -0.0548251569, 0.0963095725, -0.0250142962, -0.1114254519, 0.0698966607, -0.0227327403, 0.0788104609, 0.0861957669, -0.0619942360, 0.0496138856, -0.0236901846, -0.0740679353, 0.0120723629, 0.0078195073, -0.0956699476, -0.0348329768, 0.0247347746, -0.1620842516, -0.0650633350, -0.0499360971, -0.0702725574, -0.0111594098, 0.1558130234, 0.0856431350, 0.0116664777, -0.0157100372, 0.0359538309, 0.1214679405, 0.0089092897, 0.0361991934, -0.1581462473, -0.0974563435, -0.0002030582, 0.0520370007, 0.0431001522, 0.1518759876, -0.0800698027, 0.1079471409, 0.0333571732, -0.1039443836, -0.0185502805, 0.0623512901, 0.1771668941, 0.2418524027, -0.0004854002, -0.0755261183, 0.1446643621, 0.0479455888, -0.0112941060, -0.1036008671, -0.0102838511, -0.0833117813, -0.1106526703, 0.0138950655, 0.0537909977, 0.1392692327, 0.2004635036, 0.0210393276, 0.0750293359, -0.2364437878, -0.0787290931, -0.1303735077, -0.0682286322, 0.0053111040, 0.0213061012, 0.0614228137, -0.0459097922, -0.0908856913, 0.2042097300, 0.0467836037, 0.1810643822, 0.2174988687, -0.1047309190, -0.0988059193, 0.1970264465, 0.0246816520, 0.0231321659, 0.0334761851, 0.1168412492, -0.0151914032, -0.0786854103, 0.0278546568, -0.1008571014, -0.0679434314, -0.0863005295, 0.1066783592, -0.0343527980, -0.0623589158, -0.0758716092, 0.0966760367, -0.1180404648, -0.0409471840, -0.0025112149, -0.0917651355, -0.0857610852, -0.1048375964, 0.0584091134, -0.0842959434, -0.0149072660, -0.0535092205, -0.1398155093, -0.3386613727, -0.2002730817, -0.0026360466, -0.1256200671, -0.0039353650, -0.1227332652, 0.0882322639, -0.0973882452, -0.0937558040, -0.0943382680, 0.1290293038, -0.0836174339, 0.0084421029, 0.1145806760, 0.1642952412, 0.1259800643, -0.1245931834, -0.0008211031, -0.0720099732, 0.0697652996, 0.1742978692, -0.0349623896, -0.0696908385, 0.1082548872, -0.0393801071, -0.0770861655, 0.0553722009, 0.0230977237, 0.0478170142, 0.0598858893, 0.0650466308, 0.0563804656, -0.0159978941, 0.0612525269, -0.1188012958, 0.0918353200, -0.0747765377, 0.2017557621, -0.0226891134, 0.0288238563, -0.0474417955, 0.1082739979, -0.0116457557, 0.0269109085, 0.0974716097, 0.1551740170, -0.0695645586, 0.0377653353, -0.1276873499, -0.1342623085, 0.0526303872, -0.0198161360, 0.1953193098, -0.1552062333, 0.0029389807, -0.1953081489, -0.0511278845, 0.2076458931, -0.0380685255, -0.0691923574, -0.1554162949, 0.0455470905, 0.1036364213, 0.1564343274, -0.1442144811, -0.1523874998, -0.0483145230, -0.0041990569, -0.0081407912, -0.0720563382, -0.0577842817, -0.2120188177, 0.1373431981, 0.0495917276, -0.0603662804, -0.0235784650, -0.0274054185, -0.1183846444, -0.2007243335, -0.0779634118, -0.1003481299, -0.0148128793, 0.1020046026, 0.0353129767, 0.0578470789, 0.0189736206, -0.1377934813, 0.0786862522, -0.2394034415, 0.0513736941, -0.0355223939, -0.0614803396, 0.0446531698, 0.0008180560, 0.0155852931, -0.0670429468, -0.0954173282, -0.0541305318, 0.0605156757, -0.0711889490, -0.0275222771, -0.1127695069, 0.1046059802, -0.0423209853, 0.0570381582, 0.0342239104, 0.0148093458, 0.0125783719, -0.0279035196, -0.1266612262, 0.0553506389, -0.0930008441, -0.0214573909, -0.0999086276, 0.0262922272, 0.0114878751, -0.0716727898, -0.1370771527, 0.0573941916, -0.2740471661, 0.0455142222, -0.0798147097, 0.0281523336, -0.1056546196, -0.1048786342, 0.0811927915, 0.0810224786, 0.0337520279, 0.1096982881, -0.0792379156, 0.1341755688, 0.0077868374, 0.0209021773, 0.0139757246, -0.0987271443, 0.0680768564, -0.2027856112, 0.0119436486, -0.1149768531, -0.0813859478, -0.0333678089, -0.1186217293, -0.0142288525, 0.0652272925, 0.0473705493, -0.1455118060, -0.1304304600, -0.0319833159, -0.0295281745, -0.0364936516, 0.1389853209, -0.0557252988, 0.0486872084, -0.0642602518, -0.1288143396, -0.0714714751, 0.0619567446, 0.1001911089, -0.0970527828, -0.0978157967, 0.0289648827, 0.0428683124, -0.2314969301, -0.0870048627, -0.0669713244, 0.0692322329, -0.1808812171, -0.0764839575, -0.0859310180, -0.0404266715, -0.1388819963, 0.0490976349, 0.0218769163, 0.0974661261, 0.0583911799, -0.0966805369, 0.0892068446, 0.0953111649, -0.0178324804, -0.0485849269, -0.1020824462, -0.0499073416, 0.0759291053, -0.0428271182, 0.0239526238, 0.0263226554, -0.1719499975, -0.1307696104, -0.0014633934, -0.1707624346, -0.0895160809, 0.1906541288, 0.0898211524, 0.1205846518, 0.0632725880, -0.0399583727, -0.1019859314, 0.0489425473, -0.0576789938, 0.0862864628, -0.0214463547, 0.0533887073, -0.2301086485, 0.0339480564, 0.0337023996, 0.0606720783, -0.0454271622, 0.0253023691, 0.0859812126, -0.0617274754, 0.0781234354, 0.0599571504, 0.0412671566, 0.0009887362, -0.0250586942, -0.0693797916, -0.2311654240, 