//Numpy array shape [84]
//Min -0.106101229787
//Max 0.153790071607
//Number of zeros 0

#ifndef B11_H_
#define B11_H_

#ifndef __SYNTHESIS__
model_default_t b11[84];
#else
model_default_t b11[84] = {0.1455792636, -0.0651653931, 0.0188313238, -0.0949043855, 0.1251953989, 0.1225115508, -0.0450742543, 0.0477137603, 0.0930869579, 0.0483940318, 0.1479681879, 0.0253272075, 0.0530710779, -0.0240661334, -0.0269305762, -0.0194016583, 0.1360841990, 0.1160622463, 0.0508565120, -0.0106945569, 0.0385833606, -0.0433156863, 0.0178468414, 0.0381495394, 0.0001376354, -0.0195111260, 0.0801234841, 0.0085944431, -0.0039131884, -0.0165572781, -0.0464852341, 0.0020980095, -0.0960031673, -0.0757190734, 0.0972099528, -0.0412791446, 0.0860510319, 0.0327676907, 0.0368717276, -0.0571132749, 0.0013294406, -0.0441291891, -0.0050135264, -0.0275528952, 0.0722719803, -0.0579808690, 0.0556454696, -0.0465980209, -0.0357916579, 0.1537900716, 0.0940579697, 0.0036121106, 0.0597280376, 0.0090377135, -0.0088903029, 0.0231207050, -0.0347673148, 0.0959301814, 0.0083004609, -0.0081566526, 0.0760589838, -0.0038060988, -0.0147401877, 0.0559291765, -0.0062160869, -0.0436884053, 0.0032730429, -0.1061012298, 0.0225408785, 0.0310578607, 0.1024903134, 0.0665681362, 0.0052036471, -0.0515258722, 0.0232956726, -0.0522058718, -0.0136896279, -0.0937433094, -0.0302693304, 0.0524984226, 0.0100155771, 0.0116549619, -0.0014244311, -0.0233159177};
#endif

#endif
