//Numpy array shape [400, 120]
//Min -0.593343853951
//Max 0.474014699459
//Number of zeros 0

#ifndef W9_H_
#define W9_H_

#ifndef __SYNTHESIS__
model_default_t w9[48000];
#else
model_default_t w9[48000] = {0.0182307512, 0.1071943641, 0.0234637260, 0.0094380043, -0.0693285838, 0.0689281300, 0.0700309649, 0.0238650292, -0.0351632871, -0.0647814199, 0.1705131382, -0.0921592712, 0.1307779402, 0.0891992003, 0.0050367913, 0.0159017928, -0.0617240630, 0.0575759076, 0.0034141371, 0.0795117393, 0.0707900822, -0.0001115441, -0.0911849663, 0.0378372371, 0.0812907740, -0.0323210545, 0.1567976624, -0.0886397660, 0.1256320328, 0.0288028698, 0.0515514351, 0.0373106301, 0.1065453887, 0.0609011836, -0.0229614638, -0.1137554124, 0.0590385869, 0.1487429887, 0.0046787281, 0.1145238429, 0.1134646386, -0.1091868430, 0.0237454418, -0.0333169848, 0.1243844405, 0.0606143326, -0.0696796104, 0.1100917384, 0.0572734214, -0.0359357707, 0.0232991613, 0.0802776366, -0.0160028394, 0.0515201353, 0.0456776917, -0.1067824662, -0.2330988348, -0.0087537812, -0.0201891437, -0.0316713639, -0.0558889210, 0.1339040697, -0.1597363204, 0.0014045138, 0.0099329296, -0.1046295613, -0.1313241124, -0.0604778081, -0.0965661928, -0.0719369724, -0.0052435100, -0.0064131240, -0.0568101890, -0.1288743466, -0.0788651556, -0.0943613648, -0.2258784026, -0.0060539944, 0.0432878658, -0.0251036957, 0.0508806035, 0.0145555111, -0.0575602949, -0.1038204506, -0.0227607880, -0.0749171674, 0.0104713468, -0.0486783870, -0.1315624714, -0.0910184011, -0.0653099492, 0.0780963153, -0.0201699194, 0.0243686978, -0.0346063823, 0.0896021724, 0.0297206566, 0.1302443743, 0.0071911640, 0.0268755816, -0.1781790704, -0.0591636226, 0.0334942490, -0.2276352942, 0.0510052145, -0.1178086773, 0.1784694195, -0.1060366556, 0.0101381531, -0.0905926302, -0.1409719884, 0.0498121716, -0.0907100961, -0.0153207127, -0.0709450617, -0.2086279094, -0.2007378042, -0.1359649599, -0.1074132770, -0.1575744152, 0.0965088382, -0.0376541130, -0.0147998268, -0.1420313567, -0.0965391546, -0.1208170727, -0.0706448108, -0.0114713302, -0.1258416325, -0.2230257392, -0.0217022430, -0.0171052068, -0.1387359649, 0.1505496502, -0.0771605447, -0.2112078816, 0.1091677248, -0.1128287613, 0.0147419674, -0.1034345925, -0.0531397387, -0.0400149263, 0.1561917365, 0.1197092086, -0.1576619297, -0.1364162713, -0.0376795940, -0.1072159931, -0.1853472739, -0.1004349962, 0.0712943822, -0.1051821262, -0.1119068116, -0.1326911598, -0.0348412246, -0.1256177723, -0.0735825375, 0.0128719443, 0.0561931804, -0.0208203588, 0.1259323657, -0.0592396744, -0.0449404381, -0.2007646710, 0.0636565685, -0.0896859765, -0.0160898492, 0.0315055922, -0.1717975289, -0.0744516328, 0.0622882657, -0.1434924901, -0.0557442978, 0.1034624130, -0.0290360283, 0.0066399570, 0.0007262237, -0.0213717017, 0.1143540293, -0.0687735230, -0.0906342492, -0.0264135059, -0.0159770865, -0.0695365593, -0.1299011409, -0.0555633344, 0.0753929988, 0.0248223897, 0.0523348711, 0.0583381578, -0.0807234868, 0.0699450746, -0.0798612386, -0.0866615698, 0.0079534985, 0.0659676939, -0.0563178994, -0.1886777878, -0.1096866056, -0.2249617577, -0.1143041775, 0.0010126883, -0.0077733486, 0.2283072025, -0.0875697657, -0.1767562628, -0.0296102539, -0.0185970776, -0.0171404351, -0.0915060639, -0.0406487510, 0.0987069383, 0.0175501481, 0.1684897095, 0.1812571883, -0.0952358842, -0.1179069132, -0.0257536769, 0.1909623742, 0.1487793773, 0.1328748316, -0.1137190387, -0.1035634056, 0.1371732801, 0.1927324235, 0.0694887042, -0.0052155135, 0.1571089923, 0.1122639030, -0.0773167759, -0.0197603051, -0.0060237618, -0.0629081503, -0.0370493345, -0.0750853419, 0.0804265812, 0.0887458771, -0.0571203940, -0.0930890292, -0.0391576141, 0.1608681828, 0.0498969741, -0.0588783585, 0.0193973538, 0.0714939237, -0.0709976703, -0.1564362198, -0.1410573423, -0.0421825983, -0.1097551957, 0.0555226728, -0.1975392997, -0.0471849777, -0.0194976069, -0.0144260265, 0.0877126753, -0.0187626388, 0.1342727989, 0.1325408667, -0.1253578961, -0.0389409326, -0.0133863138, -0.0563489161, -0.1134582087, -0.2346700281, -0.0990832895, 0.0969709456, -0.0692573711, -0.0177944582, 0.1501433402, -0.0291778874, 0.0554452576, 0.0009209815, -0.0452400595, 0.2561753988, -0.0313115865, -0.0047939816, -0.1331079155, -0.0463888310, -0.0744984299, -0.0804836228, 0.0043217358, -0.0372137837, -0.1456954479, 0.0750747919, -0.1609519273, -0.0801082924, -0.0400408208, 0.0990026519, 0.0660373494, -0.2273874134, -0.0369903371, -0.0979995877, -0.0288878717, -0.0363108851, 0.0389157906, -0.0973205641, -0.0128887119, 0.0912620500, -0.1115599126, -0.0540461317, -0.1794758439, 0.0814678371, 0.0847900733, -0.0781350881, -0.0074079018, -0.0327929109, 0.0161054805, 0.1058319137, 0.0037082911, -0.0023301621, -0.0186802279, -0.1574417204, 0.0087561402, 0.0754823610, -0.0675821602, 0.0889735147, -0.0514117554, -0.1260210425, -0.0018819968, 0.0328566916, -0.0288368911, 0.2337748706, -0.1162417382, -0.0714559555, -0.0271352790, -0.3391752541, -0.0553397574, -0.0168588776, -0.2380423397, 0.1510095894, -0.2819293737, -0.0583001152, -0.1140063107, -0.1427610815, -0.0134523315, -0.1614178121, -0.0585894585, 0.1982047558, 0.0061991452, 0.0307575855, 0.1549875289, -0.0100152949, -0.0532827266, 0.0389484987, -0.1379651576, 0.1413034350, -0.1821202338, 0.1063667014, 0.1462019086, -0.1670775712, 0.0046692798, 0.1015743911, -0.0866547301, 0.0420791619, 0.0707387030, 0.1682469398, 0.1296179593, 0.0315894298, 0.0550337732, 0.0629250482, 0.0046054819, -0.2019294947, -0.0049584652, 0.0731663331, 0.1413510889, 0.0908313319, -0.1211822778, 0.1471209973, -0.0276009589, 0.0024964062, 0.0596733950, 0.0465109274, -0.0729088858, 0.0390849710, -0.0087334113, -0.0029865003, -0.0656601191, -0.3192493916, 0.1077491790, 0.0023422895, 0.0775226727, 0.0972879305, -0.0403618328, -0.0155313490, 0.1338103265, -0.0002949810, -0.0431174487, -0.1294220537, 0.0207533613, 0.0019565783, -0.0440874770, 0.2252534628, -0.2187470198, -0.0114964759, -0.1421217918, -0.0375932418, -0.0859008580, 0.0998555794, -0.0042239982, -0.0533064902, -0.1180249080, 0.1372592896, 0.0725932270, -0.0592736192, 0.1290702224, -0.0909205079, 0.1450171471, 0.0869932026, 0.0178287625, -0.0488874801, 0.0498516671, -0.0592657439, 0.0782727674, -0.0152437808, 0.0686790198, -0.0481517054, -0.1856186092, -0.0289329384, 0.0413583629, -0.0592941791, -0.0365325585, 0.1202973425, 0.0901761055, 0.1544792950, 0.0374109000, -0.0024046726, 0.0793448612, 0.0023880126, 0.0577999316, 0.0365341082, -0.1123266444, 0.0497335680, 0.0260508563, 0.0320239961, -0.0461689755, -0.0017820904, -0.1095018461, -0.0650739223, 0.0906515419, 0.1202464625, 0.1024442390, -0.0359025411, 0.0446848497, 0.0243346598, -0.0559947193, 0.0372328199, 0.0474378318, -0.0648545250, 0.1411534697, 0.0561803021, 0.1274761111, 0.1226573661, -0.1716770530, -0.0403191596, 0.0746991113, 0.1218147948, 0.0954597592, -0.0682165101, 0.1177892238, -0.0070700259, -0.0138860047, -0.0066797012, -0.2267768532, 0.0619575493, 0.0203410536, -0.0388175733, 0.0612652414, 0.0757965520, -0.1717488319, -0.0473287106, 0.0039786547, -0.0714476332, 0.1262829900, -0.2731667757, 0.0964260250, -0.1472156942, 0.0615722239, 0.0676918998, -0.1475183368, 0.0951516181, -0.1565665007, 0.1313846111, -0.0804419518, -0.1015701741, 0.1010461897, 0.0161090698, 0.1471258253, 0.2229549587, 0.0049774041, -0.1305616796, 0.0686580390, -0.0115882549, 0.0431635603, -0.0124073634, -0.0376875177, 0.0195179377, -0.0993504673, -0.2399601489, 0.0332068093, 0.0627301335, 0.0395610072, 0.0367591381, 0.0126899015, 0.1607913077, 0.1900294423, -0.0675762370, 0.0044180746, -0.0967087224, -0.0042640292, 0.0088235755, -0.0191828236, 0.1356719732, -0.0515661426, -0.0295873042, 0.0505148284, 0.0849614814, -0.0234846994, -0.1034248248, -0.0111788772, 0.0340516306, 0.0434377901, 0.1572304964, 0.0986678004, -0.0030062946, 0.0913511440, 0.0305147469, -0.0641531870, 0.0890270323, 0.0367148742, 0.0596919321, -0.0192568824, 0.1411522627, 0.1284602731, -0.0927765593, 0.0497352146, -0.0548838526, 0.0368750840, -0.1000393480, 0.1505194902, 0.1053728312, 0.0199651849, -0.0485498942, -0.0816769674, 0.1775126010, 0.0800044239, -0.0369118936, -0.0943617821, 0.0762258396, 0.0349141061, 0.1152238175, -0.0479086339, 0.1641620398, -0.0397124588, -0.1948475987, 0.1666845828, -0.1027054340, 0.0879921243, -0.0298605226, 0.0468371212, -0.1360690892, -0.1257503480, 0.1667002290, -0.0550249889, -0.0392356664, -0.1036827862, 0.0287542120, -0.1333149374, 0.1036365107, 0.1245442554, -0.1991955638, 0.1015295386, -0.1476635933, -0.0897952840, -0.0007793362, -0.0202396959, -0.0472469032, -0.0827886909, 0.0491844006, 0.0664159656, -0.0110802418, -0.0839006528, 0.0861971229, 0.0381295867, 0.1284888536, 0.0511593744, -0.1027605385, 0.0301928222, -0.0155540621, -0.0385918543, -0.0242638811, 0.0240106881, 0.0492804572, 0.1446137726, -0.0715158582, -0.0287413355, 0.0131488787, 0.0017417019, -0.0425209403, 0.1257326603, 0.1034619734, -0.0251315981, 0.0428971089, 0.0568955652, 0.0972592458, 0.1265839338, 0.0198727492, 0.0328119136, 0.0693169907, -0.1375916898, 0.0544873662, -0.0610514954, -0.0820705742, -0.1235493869, 0.0679619238, 0.0622193925, 0.0336351581, 0.0393090919, 0.0148842596, -0.0262977425, -0.0922531933, 0.1233432069, -0.0564564504, -0.1189771444, -0.0288521107, 0.0537472442, -0.0914488137, 0.0255915765, -0.0117489034, 0.0449281447, 0.0706834570, -0.1716033369, 0.0275494773, -0.1630405933, -0.0348419957, 0.0262825005, -0.1128624156, -0.0559402257, 0.0546518154, -0.1053695455, -0.1488161683, -0.2289140373, 0.0706605762, 0.0840214267, -0.0748254284, -0.0018848169, -0.0907399729, -0.1309436262, 0.0243395846, 0.1898773164, -0.0422111601, 0.0885708109, -0.0488528870, 0.0142866727, -0.0507487655, -0.1808960438, 0.0624990873, -0.2727085054, -0.0561414137, -0.0940566510, -0.0218471140, -0.0076771718, 0.0287522413, -0.1784474254, 0.0532844812, 0.0689201206, -0.0835848376, 0.0888781324, -0.1068922728, -0.0870179981, -0.2205976695, -0.1927880645, -0.0236977693, 0.0380616374, -0.0384522490, -0.0247697197, -0.0271866806, -0.0179302301, -0.0907579437, 0.0150463758, 0.0349804349, 0.0854347572, -0.0224098451, -0.1029948592, -0.0185530987, 0.0670596734, 0.1074898019, 0.1082135662, -0.0507897250, -0.0879469439, -0.0297259334, 0.1082940027, 0.0968780667, 0.1333418787, 0.1247453243, 0.0983729437, -0.0166719835, 0.0971151218, 0.0004165201, -0.0963652283, -0.0156075079, -0.1214276329, 0.0774033889, -0.0007345932, -0.0056888838, -0.0571000017, -0.1207924932, -0.0089485934, -0.0647599474, 0.1142618358, -0.1804213673, -0.0456123389, -0.1200459749, 0.0504455604, -0.0136507321, -0.0268525332, 0.0740514845, -0.1700645238, -0.0310625732, 0.0576336086, 0.0247172341, -0.0735420510, 0.0299745593, 0.2080712467, -0.0169927645, 0.0808027908, 0.1075576693, 0.0383581780, -0.0453337245, 0.1282370090, 0.0199392326, 0.1864763796, 0.0455488265, -0.0912519246, 0.0590437390, -0.1078297123, 0.0553909242, 0.0631470233, -0.0347111113, 0.0908565149, 0.0359791890, 0.0819040909, 0.0826627538, 0.0735355914, -0.1101232842, 0.1849023402, 0.0367366187, 0.1309679747, 0.0088589406, -0.0077336081, 0.2808486819, -0.0922008455, 0.0008729653, 0.0714572147, -0.0529784150, -0.0203981809, 0.1487682164, 0.0055927020, 0.1030921042, -0.0559104085, -0.0537413098, -0.1286896616, 0.0897771642, -0.0025224956, 0.0087269889, -0.0440652482, 0.2318256199, 0.1133361682, -0.0428299457, 0.0501859672, 0.0803006589, -0.0993143320, 0.0897970870, 0.0509169139, 0.0915749148, -0.0699038580, -0.1290131807, -0.1883287132, 0.1370856911, -0.1479652077, 0.0611980893, 0.0236643627, 0.0942288637, 0.0068046357, -0.0396684073, -0.0224039722, 0.0129691148, 0.0023996944, -0.1539349556, 0.0646115988, 0.0318402499, -0.2271620184, -0.1973304600, -0.1046263203, -0.1256818026, -0.1238095611, 0.0694262162, -0.0231702998, 0.1918254793, 0.0047665234, -0.0612214282, -0.1036161184, 0.1538677663, 0.1080782712, 0.0881927311, 0.0889806151, -0.0227323379, 0.1377224475, 0.0472508371, -0.0510680452, -0.0103030568, 0.0713138878, 0.0006051938, -0.0455539227, 0.0970140621, -0.0862361416, 0.0226410534, 0.1411183476, 0.0377833247, 0.0344667919, -0.0244447086, 0.0644118190, 0.1302467436, 0.0405306555, 0.0546503738, -0.0145793948, 0.1105359495, 0.1535142362, -0.0604333878, 0.1039262488, -0.0672140643, 0.0064285900, -0.0737540722, -0.1701121330, 0.1963832229, 0.0654872060, -0.0259979703, 0.0802251548, 0.0069450317, -0.1902926564, -0.0512796603, 0.0348093435, -0.1504738480, -0.0439391732, -0.0392319225, 0.1088520065, 0.0727413371, -0.1157281846, -0.0599873364, -0.0800216421, 0.0431102924, 0.0682788417, 0.0699201301, -0.1439408064, 0.1179198623, -0.0429243594, -0.0024201795, 0.1289145350, -0.0373829529, 0.0758501217, -0.1541541666, -0.0415835716, -0.0787090734, -0.1157732904, 0.0067649437, -0.1619973779, 0.0336098596, 0.1215284690, 0.0043407162, -0.0355590805, 0.0029486178, -0.1137568504, -0.0602697432, 0.0067181750, -0.0708156899, 0.1216119751, -0.3418419659, 0.0676029772, -0.1013435349, -0.3420128822, 0.0727888644, -0.0205385238, 0.0484593250, -0.0037651083, 0.0735307857, -0.1160390005, -0.1549740136, 0.0463151224, 0.1149062514, 0.0028752869, 0.0408049300, 0.0036540704, -0.0497116409, 0.0303236339, 0.0821053907, -0.0513470061, 0.1077167764, 0.0579269677, 0.1158930436, 0.0620688722, 0.0197945349, 0.0361234322, -0.0424772575, 0.0747111440, -0.0594994575, 0.0898474306, 0.0915649906, 0.0957667008, -0.0824497044, 0.1270148009, -0.0509599932, -0.0662753433, -0.0047904165, -0.0166213289, 0.1115083173, 0.0200568940, 0.0312576517, 0.0508916676, 0.1412808746, 0.0283020213, -0.0705745071, 0.0254029501, 0.1521832496, -0.0440308265, -0.0700068772, -0.0105413124, -0.1353628486, -0.1019637734, 0.0666885003, -0.1089867353, 0.1301826686, 0.0837034211, 0.0331737846, -0.0427859984, 0.1307900101, 0.0390279591, -0.0152723091, -0.0086124921, -0.0616249554, 0.0247414578, -0.0731297433, 0.1021655872, -0.1333776265, -0.1813244373, -0.0536071919, -0.2082888186, -0.0548540093, 0.0846764147, -0.0405673161, 0.1394319832, 0.1784459054, -0.0704664961, 0.0194661673, -0.0419095419, 0.1550827473, -0.0536633879, -0.0833132416, -0.0048566326, -0.0665506795, -0.0601237640, -0.1564667821, -0.1056212932, -0.2759195566, 0.0734593719, 0.1051208898, 0.0897686407, 0.1463684291, 0.0298030004, -0.1193062142, 0.1430146545, 0.0473655686, -0.0600667894, -0.0359454677, 0.0389894284, 0.0261549279, 0.0204086434, 0.0589962713, 0.0625811517, 0.0953482389, 0.0131129120, 0.1410196424, -0.0344325453, -0.1600220650, 0.0673897043, -0.1107153296, 0.0755472183, 0.0093702311, -0.0381125361, -0.0109797139, 0.0708809271, -0.0338718966, 0.0960565209, 0.0771445855, 0.0717094392, 0.0123676956, -0.0185663104, 0.0833507553, 0.1075906232, 0.0753460526, 0.1432457715, -0.0486629829, -0.0784192383, 0.0017315623, -0.1483511031, 0.1663233638, -0.1334377080, -0.1403694004, -0.0478620529, -0.0968854204, 0.0188413933, -0.0721844435, -0.0559261218, 0.0850138515, 0.2054763585, 0.0962536260, -0.0693630874, 0.1623963416, -0.0059330189, 0.0107068364, -0.2201151848, -0.0207028594, 0.0325297378, -0.0802400634, 0.1499927491, 0.0196736418, -0.0143871782, -0.0658188015, 0.0599976555, 0.0759781525, 0.2969984710, 0.0458347909, 0.0512058325, 0.3102791607, -0.0355760306, 0.0800081939, -0.0603541955, 0.3694438934, 0.1027008295, 0.0345177241, 0.1572653204, 0.0031297400, 0.0960291103, -0.0900288299, 0.1528285444, 0.0353128277, 0.2301867604, 0.1790950894, 0.1044741049, 0.0540063903, -0.1204636246, 0.1185872257, 0.0002454173, 0.0170386396, 0.0668797046, 0.1943882704, 0.1425284892, 0.0400369950, 0.1215372607, 0.1250518858, 0.0219152607, 0.1379331350, -0.0817697421, -0.0969824716, 0.0393758416, 0.0305757709, -0.0125138182, 0.1098058671, -0.0437097251, 0.0223088283, -0.1119019017, 0.0209207106, 0.1880364865, -0.0985886529, -0.0283555519, -0.1220963150, -0.1673539877, -0.0079584857, -0.1295461655, -0.1950834990, -0.0927318558, -0.0772844329, 0.0298757087, -0.0928992853, -0.0732528269, -0.0951254740, 0.0051974123, 0.1558073163, 0.1146835908, 0.0584274791, -0.0170764159, -0.1851990670, -0.0805700272, -0.0134622240, 0.0899651945, -0.1165755242, 0.0647381321, 0.1035126820, 0.0495547429, -0.0595598929, 0.0063995109, 0.0168198794, 0.0658653304, 0.1016881019, -0.0049912427, 0.0830655843, 0.0758870468, -0.0085715884, 0.0081742993, -0.0477084294, -0.0608673133, 0.1320437789, 0.1254152805, 0.0882967860, -0.0896408856, -0.0722165257, 0.1477785259, 0.0437767804, -0.0252152216, 0.0892859548, -0.0843300372, 0.0909607261, 0.2894500494, 0.0114463689, -0.1234807223, 0.1192329377, -0.0557642840, 0.0214581676, -0.0040714685, 0.1462288648, 0.0208180752, 0.0616292693, -0.1570512652, 0.0845189467, 0.0990361646, 0.1696288437, 0.0333214141, 0.0366713107, 0.0440120101, 0.0123108737, -0.1419641972, 0.1209107488, -0.0470151491, 0.0214803405, 0.1497857422, 0.1287199408, -0.0829953775, 0.0481028520, -0.0315040946, -0.0679748133, 0.1559308320, -0.0955163762, 0.0997729376, -0.0572650321, 0.0282461978, 0.0674798191, -0.1557005793, -0.0537181944, -0.0983430892, -0.1291329265, -0.0960228294, -0.0211821720, -0.0480772741, -0.0354380794, -0.0707585439, -0.1685003489, -0.0362310484, -0.1204397231, -0.1567272991, -0.0912726074, -0.1224108487, -0.1106416285, -0.0617783330, 0.0103428857, -0.0579119585, -0.0090860380, -0.1092470363, 0.0657324418, -0.0660832152, -0.1841980666, 0.0805784613, -0.1926035136, -0.0819981992, 0.0282390583, -0.1079891548, -0.0610477887, -0.1584080160, -0.0329094380, -0.0258647632, -0.0006420178, 0.1442377269, 0.1193575114, 0.0679174140, -0.0272668730, 0.1748575270, 0.0321079530, 0.0391943343, -0.1383380145, -0.0548199974, -0.0650609806, -0.0269877948, -0.0243670959, -0.0677394643, -0.2544092238, -0.0014403920, -0.0908160210, -0.0141935498, -0.0113008600, 0.0204754826, 0.0526288934, -0.2128719091, -0.0575480126, -0.1632297039, -0.0033867371, 0.0757337585, 0.0118409637, -0.0649064705, -0.0763445124, 0.0994868875, -0.1862131804, -0.1221384555, 0.0126684792, -0.0043316321, -0.0350014530, -0.0083391108, 0.0409183837, -0.0720830932, -0.0150705893, -0.0407594517, 0.0755511075, 0.0188789833, -0.1264093667, 0.0684845597, -0.0724716485, 0.0152404401, -0.1232762486, -0.0126042487, -0.0808976144, 0.2725296021, 0.0118910894, -0.0680821761, 0.1410114169, 0.0298849437, 0.1377336085, 0.0203004815, -0.0188049693, -0.0567824021, -0.0264882389, 0.1177728549, 0.1106799617, 0.1132158488, 0.0306140445, -0.0445945635, 0.0119625796, 0.2096772790, -0.0513938628, -0.0438581295, 0.1456412375, -0.0244857110, 0.0241423026, 0.0837603733, -0.0329992585, 0.0252287742, -0.1396691799, -0.0138901006, -0.0173104685, -0.0683980361, -0.1024152264, -0.0088078938, 0.0522715487, 0.0539299063, 0.0518068559, 0.1219768971, -0.0257222168, -0.0101978481, -0.0941966772, -0.0552489795, 0.0475669391, 0.2068213969, -0.0859805048, 0.1005309150, -0.0528658852, 0.0364507139, -0.0965844616, -0.1587390602, -0.0467240773, -0.1803925633, -0.0872056335, 0.0252225567, -0.2028900683, -0.1297934800, -0.1208638996, 0.0083087049, -0.0511732586, -0.1435328573, -0.0067687347, -0.0286638346, 0.0896222815, 0.1350153834, -0.1417715698, -0.0350737125, -0.0482930094, -0.0748743787, -0.0941715613, -0.0787487850, 0.0076840091, -0.0684889480, 0.1033869833, 0.0155798597, 0.0895346776, -0.0195848942, 0.1478515565, 0.0099788317, -0.1853722930, 0.1715732515, -0.0016413862, -0.1395077109, -0.1682626009, 0.0333023220, -0.2232247889, -0.1220456064, 0.1595068574, -0.0598337129, -0.1050846875, 0.0639125109, -0.0981691778, -0.1687719673, 0.0288885962, 0.1809412092, 0.0170217343, -0.0761680976, 0.0409553908, 0.0312897973, -0.0780616105, -0.0807780698, -0.1213994622, -0.0850863159, 0.1196610406, -0.0225274488, -0.2785067856, -0.0521275885, -0.1063351482, 0.0303408019, 0.1081730202, -0.1428795606, -0.0313772373, -0.0611219481, -0.0171017796, 0.0884868354, -0.1303590238, -0.1051108688, 0.0674930662, -0.1909696013, 0.1475792825, 0.0299330540, -0.1493321359, 0.0616819039, -0.2515935898, 0.0747894421, 0.1141428724, -0.1611982733, 0.0562830195, -0.1260890365, 0.1690962464, 0.0138126835, -0.0256612021, -0.1476321518, -0.0339183211, 0.1016519442, -0.1363136470, -0.1720124036, 0.0059242756, -0.1588591337, -0.1666470021, 0.0270856172, 0.0876097083, 0.0097955130, -0.0010880705, 0.0430106483, -0.0533276647, -0.1413187236, 0.0127678700, -0.0045376304, 0.0066563836, -0.0887333080, 0.0371779501, 0.0938343927, 0.1223595291, -0.0735939369, -0.0058714841, 0.0570668690, 0.0008982197, 0.0124616474, -0.0924796909, 0.0633092672, 0.1689525396, 0.0639514178, 0.0712534413, -0.0920446441, -0.0033005201, -0.0480665341, -0.0304571018, 0.1807553619, -0.0852108523, -0.0137758991, -0.1001269147, 0.0951690972, 0.0738678649, -0.0150726223, 0.0746821240, -0.0287923757, -0.0388317965, 0.0316160768, 0.1151831448, -0.0396576189, 0.0299896467, 0.1501538903, -0.1358285546, 0.1065553576, -0.0377760269, 0.1644207537, -0.1382364333, -0.1554796547, 0.1166680679, -0.0200021230, -0.0819747224, -0.0212565251, 0.1316287369, -0.0136285955, -0.0336978249, -0.0807252899, -0.0667009428, 0.0422331728, -0.2255802751, 0.0985532030, -0.0595411398, 0.0972965211, -0.1406648010, -0.0821096227, -0.2005506158, -0.2291424274, 0.0883685723, -0.0349283926, 0.0889664218, -0.0745193064, 0.1351435035, 0.0256485492, -0.0546970591, -0.0276290607, 0.0228801258, -0.0187152196, -0.0200770982, 0.0789551660, 0.0267818552, -0.0708530545, -0.1542024016, 0.0655167624, -0.0294181034, -0.1283857524, 0.0482257269, -0.0241768379, 0.0351314284, -0.0281886961, -0.0117026391, 0.0822077170, -0.0319051929, 0.1065906137, 0.0130375512, -0.0206979457, -0.0593666062, 0.1683044285, -0.1485448480, -0.0229223054, -0.0410370864, -0.1918567866, 0.0914190561, 0.1599231660, 0.1177953109, -0.0889096633, 0.0571000017, -0.0221438892, 0.0313167498, 0.0544533320, 0.0518433526, -0.1005037725, 0.0945198983, -0.0040163780, 0.0529222377, -0.0630169958, 0.0337348804, 0.1321487725, -0.0734461769, 0.1951051056, 0.0156792179, -0.0880841687, 0.1462193727, 0.0331095532, 0.0413080789, 0.0070597874, 0.0445269272, 0.1282950789, 0.0544987246, 0.0100369118, 0.0687119737, 0.1144630238, -0.0373542383, 0.0006533084, 0.0070411963, 0.0686101243, 0.1201761290, 0.0224019159, 0.0367155932, -0.0682365820, -0.0565403812, -0.0581325069, -0.1301142424, -0.0310406666, 0.0424379520, 0.1418213099, -0.1430575550, -0.0671430677, -0.0309896041, -0.0627390817, 0.0226721223, -0.0593816675, -0.0390543789, 0.0296691190, -0.0284413602, 0.0638932809, -0.1059449837, 0.0487172566, -0.1408168674, -0.1675770581, -0.0644132495, -0.0434141196, -0.1447499096, 0.0302548781, -0.0167341828, -0.0794268027, -0.0338410363, 0.0772169679, -0.0706328452, 0.0867657438, 0.1164550409, 0.0630945191, -0.0397862867, 0.0111247478, -0.0170553122, -0.0389244966, -0.1203901172, 0.0502410568, 0.0545322336, 0.0029541599, 0.0462144576, -0.0053526778, -0.0939315706, 0.1372015178, 0.0020773569, 0.0133914789, 0.1406441629, 0.0483958535, 0.0073008761, -0.0534095876, -0.0116869984, 0.0624712408, -0.0639506280, -0.0801993534, 0.1186391860, 0.0282505043, -0.0154304616, 0.1175632030, -0.0733720139, -0.0079570282, -0.0915965363, -0.0976728648, -0.0799392760, -0.0936297327, 0.0662696287, 0.0889721662, 0.0503697619, -0.0539126992, -0.0034208416, 0.0012366713, 0.1395604312, -0.0564962700, -0.0059298263, -0.1143072918, -0.0216847602, 0.0452241935, 0.0103393551, -0.0304340087, -0.0896666795, 0.0054924698, 0.0095741535, -0.0695663095, 0.1057142392, -0.0893592760, -0.1176701486, -0.0785482228, 0.1278973371, -0.0134174479, 0.0253442992, -0.1293531656, -0.0539359152, -0.0149945999, 0.0561936721, 0.0363730416, -0.0004342064, 0.0110755097, -0.1307766289, -0.1436624825, 0.0081310980, -0.0755673423, -0.0197253022, -0.1248870194, -0.1425805986, -0.0953033566, -0.0504303500, 0.0501382165, 0.0655785203, -0.1169350445, 0.0522891879, 0.0652140155, -0.0169854015, 0.0208549313, -0.0226694643, 0.0614316389, -0.0748218596, 0.0504941866, -0.0304847062, -0.0086223548, 0.0659286305, -0.0854102895, -0.0275544915, -0.0393694080, -0.1191120744, -0.0038682201, -0.0187618323, -0.0355486013, -0.0905415341, 0.0102213239, -0.0636786669, -0.1076819003, -0.0723348707, 0.0515146367, -0.0524380505, -0.0408472307, 0.0836527199, -0.0787797347, -0.1042231694, 0.0745014772, 0.0055270842, -0.0774031058, -0.0879795477, -0.1032785103, 0.0171982367, 0.0980613604, -0.1022003070, -0.0727383122, -0.0141592212, -0.1060190946, -0.0893131346, 0.0462751128, -0.0323761180, 0.0742689818, -0.0757076964, -0.1141711622, -0.1024252847, -0.0969246328, -0.0225134511, -0.1220138595, -0.0765524209, 0.0076667820, 0.0686668158, -0.0577609241, 0.0369233377, 0.0965618938, -0.0437458120, 0.0161041729, 0.0539087355, 0.0048286929, -0.0094787842, 0.0143177174, 0.0529192239, 0.0788624287, -0.0777813047, -0.1031264439, -0.0408352762, -0.0986502841, -0.1178738400, -0.0258774720, -0.1058933437, 0.0976994783, -0.0971876830, 0.0835950300, 0.0685560703, 0.0477968156, 0.0239063650, 0.0108180083, -0.0085939541, 0.0403035879, -0.1180047765, -0.1226212084, -0.0726429746, 0.0316799246, -0.1247899756, 0.0829884633, 0.0755963027, -0.0384643562, -0.0073615448, 0.0323871188, 0.0846543014, 0.0271311533, -0.0809531957, -0.0515169427, 0.0819121152, 0.0396838225, -0.0582155883, 0.0074135698, -0.1142379194, -0.0647773072, -0.0380758978, -0.1035851836, 0.0161597431, -0.0724434555, -0.0742490441, -0.0248200558, -0.1229592636, -0.0295903459, -0.0865284055, -0.0285714306, -0.0447508842, -0.1142630056, -0.1108363420, -0.0665941015, -0.0519169979, 0.0736882910, -0.0447430015, 0.0340976641, -0.0638655201, -0.0604260601, -0.0059622629, -0.0236705765, 0.0311076697, -0.1202741489, -0.0668338165, 0.0058308137, -0.1111362651, -0.1030419767, 0.0231113117, -0.0821762010, -0.0382370725, -0.0551147498, 0.0005156177, -0.0681065321, -0.0937315449, -0.0626852214, -0.0155921923, 0.0260729026, -0.0766707733, -0.0009226447, 0.0057992586, -0.0835894048, -0.0950367004, -0.0605387166, 0.0225056931, 0.0622965954, 0.0101420321, -0.0503090024, 0.0210707951, -0.0953732431, 0.0092475805, 0.0545274392, -0.0226068944, -0.0043152012, -0.0124411993, 0.0343385674, -0.0444483720, -0.0602997802, 0.0286278818, 0.0708114579, 0.0526731908, -0.0196934808, -0.0438901633, -0.1169461086, -0.1069714427, -0.0007796402, 0.0135507239, 0.0185535140, 0.0716214404, 0.0470570214, 0.0719330907, -0.0955616981, 0.0382954329, -0.0769272596, -0.0042504510, 0.0608793683, -0.0487298556, -0.0802507102, -0.0945647061, -0.0032779051, 0.0910449028, -0.0906990767, -0.1092820764, -0.1016269401, -0.0531718619, -0.0312565826, -0.0041911947, 0.0650843233, -0.0764769390, -0.0235675815, -0.0860423520, 0.0941145942, 0.0708101690, -0.0637820661, 0.0299254060, -0.0408734418, -0.1014321223, 0.0368709750, 0.0824755281, -0.1038945541, -0.1165711433, -0.0996755213, -0.0982022434, -0.0113359885, -0.0221390463, 0.0402319580, 0.0006074515, 0.0282891169, -0.0363379605, 0.0497203320, 0.0638364851, 0.0254702587, -0.0086020706, 0.0173346400, 0.0810112208, -0.0412773043, 0.0026728006, 0.1055527702, 0.0076096626, -0.0599919595, -0.0179377180, 0.0865759403, -0.0639886037, -0.0273921899, -0.0987806097, 0.0752516240, -0.0731437355, 0.0279642753, 0.0474886410, -0.0440273248, -0.0876071230, -0.0129537927, -0.0713867769, 0.0142019885, 0.0592529699, -0.0566416271, -0.0558746718, 0.0573393144, -0.0610251501, 0.0786704049, 0.0749046952, 0.0445716120, -0.1178309172, 0.0302114449, -0.0040852688, 0.0160787161, 0.0362890512, -0.0977016687, -0.1252499819, -0.1110283285, -0.0392794982, -0.0139037464, -0.0230478477, 0.0081607206, -0.0746884570, -0.0712029040, 0.0214112140, -0.1093580350, 0.0131422644, -0.0819659233, -0.0137801999, -0.0323915184, 0.0380007513, 0.0885804519, 0.0556343310, -0.1176980212, 0.0013183347, 0.0752224177, -0.0151782623, 0.0209316984, 0.0053234929, -0.1146474406, -0.1051331013, -0.1172971874, 0.0162630212, 0.0707503781, 0.0291521642, 0.0750546977, 0.0081702406, -0.0949466825, 0.0403204076, -0.0110664573, 0.0195047390, 0.0872113109, 0.0431391932, 0.0480240360, -0.0185803305, 0.0589472502, -0.0764555782, -0.0642695576, -0.0599572398, 0.0833058432, 0.0829572156, 0.0540581085, 0.0840898380, -0.0768689439, -0.0506420173, -0.0047069304, -0.0241265986, 0.0585330985, -0.1108254269, -0.1096589714, 0.1061499491, 0.0184081756, 0.0328803547, 0.0256212912, -0.0497539528, -0.0358829200, -0.0295557957, -0.0781616718, 0.0186775848, 0.0801018849, -0.0612015128, 0.0939368233, -0.0522001497, -0.0828113854, -0.0313654989, -0.0161372572, -0.0036164920, -0.0263384040, 0.0056646168, -0.0014571014, -0.1108775437, -0.1043876857, 0.0611698590, 0.0214000344, -0.0550480932, -0.0800940469, -0.0536801331, 0.0461828411, -0.0283293612, -0.0096446108, 0.0209185164, 0.0519909263, -0.0217171125, 0.0664009526, -0.1039377898, 0.0356009528, -0.0173238833, -0.0622440726, -0.0533449873, 0.0731095299, 0.0665620267, 0.0004014872, 0.0449275747, -0.0586424954, 0.0088298190, -0.0976339132, 0.0155064901, -0.0444457494, 0.0489398055, 0.0425665975, 0.0185809080, -0.0617542788, -0.0766496509, -0.0316950977, -0.0997972488, 0.0191468503, -0.0276522525, -0.1194753498, -0.0933906063, 0.0394403338, 0.0092237229, -0.1001177430, 0.0379109941, 0.0651926845, -0.0706386566, -0.0121669779, -0.0690761432, 0.0823437050, -0.0946378484, 0.0238266643, -0.1095382497, 0.0821925998, -0.1048549339, 0.0171726942, -0.0218394846, -0.1023194194, -0.1328199059, 0.0025579857, -0.0001420574, -0.2381130010, 0.1579732746, -0.0434809215, 0.0605867878, -0.0535462946, -0.0237193685, 0.0073487144, -0.0671030581, -0.0512492582, -0.0166062750, 0.1090102494, -0.0353643671, 0.1451399624, -0.0843886659, -0.0867645666, -0.1373654753, -0.1875840873, 0.0491611473, 0.0904745534, -0.0360158607, 0.0451318473, 0.0871529728, -0.0661835894, -0.0726002157, 0.0028796387, 0.0517127849, 0.1757767200, 0.0915900096, 0.0944483057, -0.0476822034, 0.0444655679, 0.1015809104, -0.0013749601, 0.1403692514, 0.0255377777, -0.0756350979, -0.0875275731, -0.0992076769, 0.0525322556, -0.0703751445, -0.0127804987, -0.0369469374, -0.1142798439, -0.0118463757, 0.0370088592, -0.0424961261, -0.0110946624, -0.0645423606, -0.2063416243, 0.0983652771, -0.0632673129, -0.0261786915, -0.0856405720, -0.0164290499, 0.0860935673, -0.0632113218, -0.0453562252, -0.0972932503, -0.0163251832, -0.0539266244, 0.0700562596, 0.0862076059, -0.1366517693, 0.0599940494, -0.0053226082, 0.0739854202, -0.0160861481, 0.0068311221, 0.0335995406, -0.0206261501, 0.0614479855, 0.0033290691, -0.0646597669, 0.0966124386, -0.0347304791, 0.1383471638, -0.0418535434, -0.0651269034, -0.1543686092, 0.1570494622, -0.0422148928, 0.2134150118, -0.0294093266, 0.1633062363, -0.0764714852, -0.0033910207, 0.1304482520, 0.0199902374, 0.0046892599, 0.0298099332, 0.0910662636, 0.2092809379, -0.0219399873, -0.0245773569, 0.0305718742, 0.1760077626, 0.1493337154, -0.1856191158, 0.0072762650, 0.0697398260, 0.1916451454, 0.1433609575, -0.0101791453, -0.0745643750, 0.0542378500, 0.1259808987, 0.0522023365, 0.0191792883, -0.0302059725, 0.2184665650, 0.1070668995, -0.0052563576, 0.0637613162, -0.0103738187, -0.0688624382, 0.1028674021, 0.1098639145, 0.1301769614, -0.0294244252, 0.0204893369, -0.1608390659, -0.1131157055, 0.0613131896, 0.1143736467, 0.0056120204, -0.1156239882, -0.0602855720, 0.1265993714, -0.1397017986, -0.0583951399, -0.0077367872, 0.1277619153, 0.1551242024, 0.0224810168, -0.0024562879, 0.1006450877, 0.0924559757, 0.0978676155, 0.0344249122, -0.1456179321, 0.0874284729, -0.2761311829, 0.0427151322, -0.0279403422, -0.0571470484, -0.0526727736, -0.0892348513, 0.0776641965, -0.0848507881, -0.0213894453, 0.1580491811, 0.0451820157, 0.0761064589, 0.0646389574, 0.0348953605, -0.1308218688, 0.0542305261, -0.1100355983, -0.1547190249, 0.0628162622, 0.0945714042, -0.0437660217, 0.1560888886, -0.0226075407, 0.0547397919, 0.1312539428, 0.0548699088, 0.0028045140, -0.0213017073, 0.0940184370, -0.0416718870, 0.0822277442, -0.0194441769, 0.0204585493, 0.0751786008, 0.0806843117, 0.1114374101, -0.1291296929, -0.0604312494, 0.0587199964, -0.1552307457, -0.3017399609, -0.0313166454, -0.1401219368, -0.2520037591, 0.1517639160, 0.0786577016, -0.1056256741, -0.0278513152, -0.2333138883, 0.1698813438, -0.1330969334, -0.2071595192, -0.1343590766, -0.1676935554, -0.2071319669, -0.1730399430, -0.3037108779, 0.0460809842, -0.1860388815, -0.4361720979, 0.0229823757, -0.3478471637, 0.0415286236, 0.0325197466, 0.0396182276, -0.0204788577, -0.2158977389, 0.0210118610, -0.0494451821, 0.0335656069, -0.0972230062, 0.1764549315, -0.0424325578, -0.0548774190, 0.0204457995, -0.3587214649, 0.1483234167, -0.1708213091, 0.0907549337, 0.0762121230, 0.0247610565, -0.0263963621, -0.0498212650, -0.1362807155, 0.0055275825, -0.0869378746, 0.0285379682, 0.0838323161, 0.0400272869, -0.0529878139, -0.0563197136, -0.0526060164, -0.0005902424, -0.0647711977, -0.0086507061, 0.0324325562, 0.0394992381, 0.1135533601, 0.0244196746, 0.0327261277, -0.1132773533, 0.1847703010, -0.1290235221, -0.0869646370, 0.0396819972, -0.0690141991, -0.1221674383, -0.0422994085, -0.1549216062, 0.1540879011, -0.0320583545, -0.1120983362, 0.0543607324, -0.0255265422, -0.1984598637, -0.0533991195, -0.0560635291, -0.1781418920, -0.1003628895, -0.2106057853, -0.1692844927, -0.2004305720, -0.2845052183, 0.0109628635, -0.0384837016, -0.1549542248, -0.0939723700, -0.1666653752, 0.1957454234, -0.1637644470, -0.1284900010, -0.0447777845, 0.1228707358, -0.1252086163, -0.1296011955, 0.1272317618, -0.0617429055, -0.0017632082, -0.0001039171, -0.0344431587, -0.1301221400, -0.0814474672, 0.0558962859, -0.2243426144, 0.0564128794, 0.0613379441, -0.0497950949, 0.0580566563, 0.1732219756, -0.1038385779, 0.0203278493, -0.0298373569, -0.0620858744, -0.0371155329, 0.0828483328, 0.0291500278, -0.0000724841, 0.0132660689, 0.0421224795, -0.0810448825, 0.0544451997, 0.1397050023, 0.0936205685, 0.0827815905, 0.0598941594, -0.0105625642, -0.0388693139, 0.0388551913, -0.0428334288, 0.0447054543, 0.0342056565, 0.2212579399, 0.1810658127, 0.2347920835, 0.1048932895, -0.1105292290, 0.0527144596, 0.1019439623, 0.0545915365, -0.0270590018, -0.0468371660, 0.3888748586, -0.0278818142, -0.0101056267, 0.2234857082, 0.0610719249, 0.0064674290, 0.2165860683, -0.0006860133, 0.1754900813, 0.2037509978, 0.0267858673, 0.0841352269, 0.0281804483, 0.0052042603, 0.0396593511, -0.0187249854, 0.0080871442, 0.0184687451, -0.1736518592, 0.0139210392, 0.0920793489, -0.0303303208, 0.0363641977, -0.0204156600, 0.2133884728, -0.0011393192, -0.0617706664, 0.0286600459, 0.0945776552, -0.0076387711, 0.0337715410, 0.0034969423, 0.1135743409, 0.0885696039, 0.0162265226, 0.1265718937, 0.0420273021, -0.0089778230, 0.0725621209, -0.1201627329, 0.0364222638, -0.0754708350, 0.1507654339, 0.0682984814, 0.0280780308, 0.0993738547, -0.0109971445, 0.0277839098, -0.0302087925, 0.1679714471, 0.0400836654, -0.0036189682, 0.0938836783, -0.0440753698, 0.0856820941, 0.1924692243, 0.0894768313, -0.0065305536, 0.0145225292, -0.0722363815, -0.0487223603, 0.0707720965, 0.1190233603, 0.1279859841, 0.1696939319, 0.1222466752, -0.1479556113, 0.0018380799, -0.0231280532, -0.0242431387, 0.1724921912, -0.1145814955, 0.1315467954, 0.0573464967, -0.0151803140, -0.0450129732, -0.1267989129, -0.1272269487, -0.0712430254, -0.0280973408, -0.0351071693, 0.0363337658, -0.0060617118, -0.1945966184, -0.1386857927, -0.0375880897, -0.1082176417, -0.2219164073, -0.0076102675, -0.1557141095, -0.0632329360, -0.2229018360, -0.3213825226, 0.0121456496, -0.1460862905, -0.1836129427, -0.0840601251, -0.1222194210, 0.0970540643, -0.0253062937, 0.0359735936, 0.0012473624, -0.0963994563, -0.1035035253, -0.0181421582, -0.0421734974, -0.2120811343, -0.0099467123, -0.1606556475, 0.0163977239, -0.1194535866, -0.0651969463, -0.1386215985, 0.0353230797, 0.0297669303, -0.0161523931, 0.1367590278, -0.0043261512, -0.0942487866, -0.1168223619, 0.0022069791, 0.0910406038, 0.1259718686, -0.0682187453, 0.0901354700, -0.0608321987, -0.0778858215, -0.0336435847, 0.0220358744, 0.1202800721, 0.2190429121, 0.0465244576, 0.1860888153, 0.0279372949, -0.0654841587, 0.0157059506, -0.0887563899, 0.0565350316, 0.1718939692, -0.0424110740, 0.0470472723, 0.0009061328, -0.0082896287, 0.0592532642, -0.0407006964, 0.0708271340, -0.2305228710, 0.2276929915, 0.0347692966, -0.1786816567, -0.0632660687, 0.1138300896, 0.1051893681, -0.0245363098, -0.1105741188, 0.0069221235, -0.1732689291, -0.1253642738, -0.0740274116, -0.2706375420, 0.0192073043, -0.1082141548, -0.0172657017, -0.0577929616, -0.2150642127, -0.0982746407, 0.0928057954, -0.0579414777, -0.0003861921, -0.0061141714, -0.0547983386, -0.0354298986, -0.1511433274, 0.0097138155, 0.0003175462, -0.1155119389, 0.0378641449, -0.0662337989, -0.0116441902, 0.0018087095, 0.0796967670, -0.0177061800, 0.0655021146, -0.2743357122, -0.0453340374, -0.1368334740, -0.0011847488, 0.0952578932, -0.1509827971, -0.0138579253, 0.0547466017, 0.0590463243, 0.0020411215, 0.0578301772, 0.0400183685, -0.0844607204, 0.0673257038, 0.0128600979, 0.1493209600, 0.0431308225, 0.0948706195, -0.0987893417, 0.0472194292, 0.1327475905, -0.0464886725, -0.0896753967, 0.0453235283, 0.0651108623, 0.0977523029, 0.1056287363, 0.1409222633, -0.0974312276, -0.0471433178, 0.0917429328, -0.1338971704, 0.0569795817, -0.0330513828, 0.1265742481, -0.0461790785, -0.0396110415, -0.0712106004, 0.1546595395, -0.1550339609, -0.1078904420, 0.1486699283, 0.1231543124, 0.0838643163, 0.0584987290, 0.1705091447, -0.1835951358, -0.1413776428, 0.2574277818, -0.0497923456, 0.0892035291, -0.0565131418, -0.0856675580, 0.0113650179, 0.0694139376, 0.0830767229, -0.1073141098, 0.2292440534, -0.0471130572, 0.0941217318, 0.1225442961, 0.0941351056, -0.2732708156, 0.0275736898, 0.1696883291, 0.1235318109, 0.0362390913, -0.2073984593, 0.1715006977, 0.0569653288, -0.0725312084, 0.0860964358, -0.1290174127, 0.1777837425, -0.0585756227, 0.0288730040, 0.0357625373, -0.0076654875, 0.0974199995, 0.1778763235, -0.0413925424, 0.1871784031, 0.0347372442, -0.1402400583, 0.2449584007, -0.1148654744, 0.1134207621, -0.0151064349, 0.0642888322, 0.0495160334, 0.0156790297, -0.0448354185, -0.0500924140, 0.0305035729, -0.0385151096, 0.0749191418, 0.0166291613, 0.1397505403, -0.1510688663, -0.0708260313, -0.0189724620, 0.0314666703, -0.0266892891, -0.0128797935, 0.0567369908, -0.0600929968, -0.0395830907, 0.2375208437, 0.1030190215, -0.0839866698, -0.0482079014, -0.0161537454, -0.0851943344, -0.0290201772, 0.0582437404, 0.0414499193, -0.0956830159, 0.0415585190, -0.0469678938, 0.0007833012, -0.0614549108, -0.0266846865, 0.0843733549, 0.0936051384, 0.0379629433, 0.1129929200, 0.2267312557, -0.1103742048, -0.1121449322, 0.0024361024, 0.1426506191, -0.0173085034, -0.0775414929, 0.1523932219, 0.1430070698, 0.1466914713, 0.1001197174, 0.0753099918, 0.1288156062, 0.1021322310, 0.0911566615, 0.0663382486, -0.0858681351, 0.0137352450, 0.0348210484, 0.0031964134, -0.0295777936, 0.1299011856, 0.0031185998, 0.1085063219, 0.1370171905, 0.1862139106, 0.2111461759, 0.0413668230, -0.0240762457, -0.1121762469, -0.0711961016, 0.0539059266, -0.0533067845, 0.1127158403, -0.0268688686, 0.1773033887, -0.0158952773, 0.1199949309, 0.0792104155, 0.0573784895, 0.0464549698, 0.0914265141, 0.1327891201, -0.0033648168, -0.1481691301, -0.0807293430, -0.1154911667, -0.0363289043, 0.1241971403, 0.0878627524, -0.1027094945, 0.0978970975, 0.0095872767, 0.0088929404, 0.0817389786, -0.0286714900, -0.0546687059, 0.0480340421, -0.0400524475, -0.0802329481, -0.0807941630, 0.0425183512, 0.1305897832, -0.0370027795, 0.1615503430, -0.1849460900, -0.1383918971, 0.1431034207, -0.2662017047, -0.0409453250, 0.0622920394, -0.0540307835, -0.1769211888, -0.0319182947, -0.1602813303, -0.1125633344, -0.0431310050, 0.0071455236, -0.0003995797, -0.0346496478, -0.0408169366, -0.1527758539, -0.1031186879, 0.0309508480, -0.1368466318, 0.0764283240, 0.0487796813, 0.1335841864, -0.0474715270, -0.0687891543, 0.1013369486, -0.0799979791, 0.0786125585, 0.1425632983, -0.1412204802, 0.0255610980, 0.1077629104, -0.0637549385, 0.0170509089, -0.1280439347, 0.0645183399, 0.0866736919, -0.1536625624, 0.1175704002, 0.0488617308, 0.0261297841, 0.1870162040, 0.0081155719, -0.0111127514, 0.0129005788, -0.0562345684, 0.0416076146, 0.0336376280, 0.2000978887, -0.0527205020, -0.0304993615, -0.1322585642, 0.1403499842, -0.1501122564, 0.0309757721, 0.0497250110, -0.0446948260, 0.0649765655, 0.1341617703, -0.0519150905, -0.2172390223, 0.0886656716, 0.0073075588, -0.0356434919, 0.2106095999, -0.1984406114, 0.1202395111, -0.2447251230, -0.0867075846, 0.0900357887, -0.0848728269, 0.1100754663, -0.1819527298, 0.0412733480, 0.0093979156, -0.0993435010, 0.0074638026, 0.0370146483, 0.0604507625, -0.1356035620, 0.1492139697, -0.1497671008, 0.1875821650, -0.2291914374, -0.0496265814, 0.2167857438, -0.2202380896, 0.0803465098, 0.0501112938, -0.0466390997, 0.0324630700, -0.0179794338, 0.1284510046, -0.0650334358, 0.0185962636, 0.0370378122, 0.0599839017, -0.1996507198, 0.1875459850, -0.1481262594, -0.0772099867, 0.1101031750, -0.0745987222, 0.0119618718, 0.2068094164, 0.0046498859, -0.1959372759, 0.0506228283, 0.0916244462, -0.0124060838, -0.0254676752, 0.3290742636, 0.0062911483, 0.0300230607, -0.0609521158, -0.0446463004, 0.0062487745, -0.1210765466, 0.0614776760, 0.1693623364, -0.0515591502, 0.1161445677, -0.0985548571, -0.0259540025, -0.1956166923, -0.1040511429, 0.1332078278, 0.0375880525, 0.0366273411, 0.0273262486, -0.0208013989, -0.1327808797, 0.0908080786, -0.1209264323, 0.0103815775, 0.0141737480, -0.0011733773, -0.0199410524, -0.0053433669, 0.0521329008, -0.1640570611, -0.0312861204, 0.0450386293, -0.0752182454, -0.1563468426, 0.1596236229, -0.1202215552, 0.1064349264, 0.0487359948, 0.0251014642, 0.1670631170, -0.1002838388, -0.0264263563, 0.1123977751, -0.0109465150, -0.1727191657, -0.0850025341, -0.1333086044, 0.0397345535, -0.0957872346, -0.0056817965, 0.2953392267, -0.1744702905, -0.0124839731, -0.1279095262, -0.0566531532, 0.2344722450, -0.0380581431, 0.1594710052, -0.0998985022, 0.0307992510, -0.1051543951, 0.2206178755, -0.1734600216, -0.1274518222, 0.0646867529, -0.0683002174, 0.0818060860, -0.1610870957, 0.3557978272, 0.0513123535, 0.1102163792, 0.2263569981, -0.1706018746, -0.2349242419, -0.0487986729, -0.1563909203, -0.0086783767, -0.0081247268, 0.0215336028, -0.0091534555, 0.1151435524, 0.0740453452, -0.1453679353, 0.0705507696, -0.1301230937, 0.0309819970, -0.0630140454, -0.1359669417, 0.1675302535, -0.1428086609, -0.1564590335, -0.0950629115, -0.1020741910, -0.0525200330, 0.1380229145, -0.0505994074, 0.0264982451, 0.0053568552, -0.0695125014, -0.0362427048, -0.0826805606, 0.0884541273, 0.0101709114, 0.0413628295, 0.0894635469, 0.1045751944, -0.0169552471, -0.0088502457, 0.0512695722, -0.0097701689, -0.1523935497, 0.0254373308, 0.0799492374, -0.0631600693, -0.0649597794, -0.0505134463, -0.0012579154, 0.0433369726, -0.0344731249, 0.0532409810, 0.1025717258, 0.1197271645, 0.1051413566, -0.0082089957, 0.0536245666, 0.0367516652, -0.0741964802, -0.1128728464, -0.0359732881, -0.0828299969, -0.0054950123, -0.0895772129, 0.0428165942, -0.1174965724, 0.0758707076, 0.0727750137, 0.1182664037, 0.0241013095, -0.0133299949, -0.0957885832, 0.0036266949, -0.2501288950, -0.1294159293, 0.1094351858, 0.1322832704, 0.1176553518, -0.2054925412, -0.0573998615, 0.1263863295, 0.0536697432, 0.1390161812, 0.1337105632, 0.0278025176, -0.1412039399, 0.2700873315, 0.1462496072, 0.0209908057, 0.0554987602, 0.0656442717, -0.1489463300, -0.0132982619, 0.1064477786, -0.1570917219, 0.3099035621, -0.0444270410, -0.2169570476, -0.0179568622, -0.1383574009, 0.0656507164, 0.1127058938, 0.0017038113, -0.0774472877, 0.0900587216, 0.0404888727, -0.0193277355, 0.1275389344, 0.1458937973, 0.0344531387, -0.0483452864, 0.2786536813, -0.0801844373, 0.0593480170, 0.1236025468, 0.0121439975, -0.0794726014, 0.0851515979, 0.0534902029, -0.1014483050, 0.0546638258, 0.0982156768, 0.1157785207, -0.1262222379, -0.0082371933, 0.0082890298, -0.0322014540, 0.1661856025, 0.0867782384, 0.0448114052, -0.0952436998, -0.0635165125, -0.0100997165, 0.0128023745, 0.0503143966, 0.1125616878, -0.0756123289, -0.0372872651, 0.0974589139, -0.0528657585, -0.1001696438, -0.0174577087, -0.0994226560, 0.0075344387, 0.0639911667, 0.1019633114, 0.0144355213, 0.0050679743, 0.0790725797, -0.0758998990, -0.0027621840, 0.1855898052, 0.0060086511, -0.1105016246, 0.1436410844, -0.1191515028, -0.1914279461, 0.2136962563, -0.1759934425, 0.2379873991, -0.2373048216, 0.0011170715, 0.1293044984, -0.2017109692, -0.1205866411, 0.0637400374, -0.0287076458, 0.0232068766, -0.0491627865, 0.0228574276, 0.0971277952, 0.1930157393, -0.0192789976, 0.0651670620, 0.0571144186, 0.2494861186, -0.0830622762, 0.0079924567, 0.0804955587, -0.0658751577, -0.0587816462, 0.1478337646, 0.0411934927, 0.0682537407, -0.0422800258, -0.0306756347, 0.0588132702, 0.0755309165, 0.1150946468, 0.1065781936, -0.0258153584, 0.0339905135, -0.0286781918, 0.0007530797, 0.0901779756, 0.1014609858, 0.0003141774, -0.0269147139, -0.0016074986, -0.0411507934, 0.0109462095, 0.2101240456, 0.0517926402, 0.1636840105, -0.0051408103, -0.0243104231, 0.0056358478, -0.0195771530, -0.0412084609, 0.1403777450, 0.0789152607, -0.1142992973, 0.1359292716, -0.0192435719, -0.0367325135, 0.1843132377, 0.0760977194, 0.1283482313, 0.1121961102, 0.2351741195, 0.0335043222, 0.0459168330, 0.0986833200, 0.0768025741, 0.0070417817, 0.0514574423, -0.0148425680, -0.0045272671, 0.1106894314, 0.0353459716, 0.0650297403, 0.0879311711, 0.1269588023, 0.0626877472, -0.0256525483, -0.1047578081, 0.0772231594, -0.0092641115, 0.1154114679, -0.1682314575, 0.0750288069, 0.0700263456, -0.0306764171, -0.0947404653, 0.0812897310, 0.0605240948, -0.0375785790, 0.0319338068, -0.0816593766, 0.0609571971, 0.1207712963, 0.0253989398, 0.1014935151, -0.0221956670, 0.0451239422, -0.0294006299, -0.0051565515, 0.1613823175, -0.0135135055, 0.0255961809, -0.0609951839, 0.0004585428, -0.0513414554, 0.1180634648, 0.1223307028, 0.0107151419, 0.0024675624, 0.1373961121, 0.1266149431, 0.1967185438, -0.0096582985, 0.1204066500, -0.0138310110, 0.0601978526, -0.0274636429, -0.1436983198, -0.0163752232, 0.0948710218, -0.1056204289, -0.0423749648, 0.0789130107, 0.0536251590, 0.0053469236, 0.0552144386, -0.0260403007, 0.1100123152, -0.0359243900, -0.0082004042, 0.0628961027, 0.0959495082, 0.0682009310, 0.0858687535, -0.0123395398, -0.0200166367, -0.0918638259, -0.0379301906, 0.0518202856, -0.0683644116, 0.0816656649, -0.0736787170, 0.1105441824, -0.1024162173, 0.0495160371, 0.0362008512, -0.0389827937, -0.0376982167, -0.1216829643, -0.1144703552, 0.0132408673, 0.1637951583, 0.0043623340, 0.0274638273, 0.0659184977, -0.0646007508, 0.0166109912, -0.0358861908, -0.0480471924, -0.0044811959, -0.0257863533, -0.1164285541, 0.0552379601, -0.0112750018, 0.0733542219, 0.0440965481, 0.0144983865, -0.0835005641, -0.0925582349, -0.0690055117, 0.0870081633, -0.0884174779, -0.1181599796, -0.0889465883, 0.0608688407, -0.0176744759, -0.0930636302, -0.0510488041, 0.0512935854, 0.0723504648, -0.1186937243, 0.0455134138, 0.0187517256, 0.0703506544, -0.0300673693, -0.1152484044, -0.0403740294, -0.0829708353, 0.0576221459, 0.0354095623, 0.0370672382, 0.0107017411, 0.0630687624, -0.0515840612, 0.0205705091, 0.0228560343, -0.0907118469, -0.0510702692, -0.1021113768, 0.0551983342, -0.0558214784, -0.0841061398, -0.1043763310, 0.0355407484, 0.0364162773, 0.0778624490, 0.0672123954, 0.0510520302, -0.0604140647, 0.0850033835, -0.0499175191, 0.0701530501, -0.0481125675, -0.1141035557, -0.1228118986, -0.1038519368, 0.0432556421, -0.0981154367, -0.0875071585, -0.1056207493, -0.0340732485, 0.0034281781, 0.0958431885, 0.0399220921, -0.0159239881, 0.0170910396, -0.0644955337, -0.0683174953, -0.1055039614, -0.0882992819, -0.1095533073, 0.0850971788, 0.0078551322, 0.0753798187, -0.0657270104, 0.0000797510, -0.1167746708, 0.0296722017, -0.0474879071, -0.0043221144, 0.0525851771, -0.0580484346, -0.0435525440, -0.0575062856, 0.0412368998, -0.1021790132, -0.0993236005, -0.0507928841, 0.1009445414, -0.0437673554, 0.0387213603, -0.0833010972, -0.1073545292, -0.0191077441, -0.0856567174, -0.0254377779, -0.1006335095, -0.0280375965, -0.0286245123, 0.0537581891, 0.0456987917, -0.0930715129, -0.0705991983, -0.0897900313, 0.0035348521, -0.0576737523, 0.0299131665, 0.0970038176, 0.0168309882, -0.0272274017, 0.0586647503, 0.0633385181, -0.1168500781, -0.0066344142, -0.0367138758, 0.0261209831, -0.0167928208, 0.0270706005, -0.0061911047, 0.0749627873, -0.1151469946, -0.0742605627, -0.0318948589, -0.0396667235, 0.0458452925, -0.0696506947, -0.0713781118, -0.0958013237, 0.0585241504, -0.1024482250, -0.1182668656, -0.1236926019, -0.0992976874, -0.1060848013, -0.0337179564, -0.1050604209, 0.0015780124, 0.0585827865, 0.0455248654, 0.0215682928, 0.0236719009, 0.0045788321, 0.0384963304, 0.0643017516, 0.0515462197, -0.0656252727, 0.0875551775, -0.0834980235, -0.0800941810, 0.0492735319, -0.1028067470, 0.0036720415, -0.0543070249, 0.0835898295, -0.0723552182, -0.0697755963, 0.0085215541, -0.0365387425, 0.0770660192, 0.0436498486, -0.0844898224, -0.0510487817, -0.0499610491, 0.0708507597, 0.0480112210, 0.0114368498, -0.0115235914, -0.0667016804, -0.0804235712, 0.0264293794, -0.1207211241, 0.0025067092, 0.0609660298, 0.0748527423, -0.0246675238, -0.0540766306, -0.0674494356, -0.0346263498, 0.0146226743, -0.0225192904, -0.0967976823, -0.0776310563, -0.1129275784, -0.0907816738, -0.0174598061, -0.1028758809, 0.0679629967, 0.0738293603, 0.0651755929, 0.0135447802, -0.0220239088, 0.0140502276, -0.0689949393, -0.0491700470, -0.0739675909, 0.0375195555, 0.0624591410, -0.0660628825, 0.0301070791, -0.0947101116, -0.0114031294, -0.0577175505, -0.1110864058, 0.0764265358, -0.0617362484, -0.1208372489, 0.0658662915, -0.1178501844, 0.0128081702, 0.0799540952, -0.0039104302, -0.0346237682, -0.1204729080, -0.0618638135, -0.0370449796, -0.0648787320, -0.0509970188, 0.0512682274, -0.1095288098, -0.1050232202, -0.0352768302, -0.0856960639, -0.0150003769, 0.0377439819, -0.0187731087, 0.0740949363, -0.1080483645, -0.0208948255, -0.0503941700, 0.0076991133, 0.0606015399, -0.1100422591, -0.0376238972, 0.0064194547, -0.0276535545, -0.0674859732, -0.0580447689, 0.0715431347, 0.0871229321, -0.0537370481, 0.0946650431, 0.0229960904, 0.0179256964, -0.1122340038, -0.0324585065, 0.0051197484, -0.0971127078, -0.0665039122, -0.0226473883, 0.0732792988, -0.0930846855, -0.0398393236, -0.1099880710, -0.0725943893, 0.0212837942, -0.0933320373, -0.0100009395, -0.0722586885, -0.0881165117, 0.0045189960, 0.0275250673, -0.0663070828, 0.0770713985, -0.0215962958, 0.0885870680, 0.0855743736, -0.0547912531, 0.0460065044, 0.0850055441, -0.0207069814, -0.0001791317, 0.0599303395, -0.0613906495, 0.0289674550, -0.0990042388, 0.0846187994, 0.0201148614, 0.0294578280, -0.1112184152, -0.0366543420, 0.0103622740, 0.0046879775, -0.0130063938, -0.0444172584, 0.0633166730, -0.0118532758, 0.0545581058, 0.0295373835, -0.0486375205, 0.0898325965, 0.0409917273, -0.0512598082, -0.1087746620, -0.0047528585, -0.0514741428, 0.0482095331, -0.0673726499, -0.0846007839, -0.0801693872, -0.0527354479, -0.0556008816, 0.0069298502, 0.0073903054, -0.1224604920, 0.0860280991, 0.0338184647, -0.0700907558, -0.0736361817, -0.0259057954, 0.0121726468, -0.0762246996, -0.0041815415, -0.0533784553, 0.0306292716, -0.0542116798, 0.0822688639, -0.0474237874, 0.0575547926, -0.0684858561, -0.1212397143, -0.0678447187, 0.0788635239, -0.1056097895, -0.0570705570, 0.0090837311, -0.0431693457, -0.0677813143, -0.0579579547, -0.0380779058, 0.0519991480, 0.0608738735, -0.0561562628, -0.0299585313, 0.0658152476, -0.1216293871, 0.0563274287, 0.0261093751, -0.0050693806, 0.0096932622, 0.0818587914, -0.0064894855, 0.0347581133, 0.0275462940, -0.0565609597, 0.0978150442, 0.0217634514, -0.1117837951, 0.0567050576, -0.0988260880, 0.0077400794, -0.0828550011, -0.0229966864, -0.0097104767, -0.0156503543, -0.1212631613, 0.0083103674, -0.0712578818, 0.0498563908, -0.0487249605, 0.0205702651, -0.0176387653, 0.0491468683, -0.0717287585, -0.0934586599, -0.0152110038, -0.0598688275, 0.0577603430, -0.0608504377, 0.0422345512, -0.0990797132, 0.0230281092, -0.0667756200, 0.0558984391, 0.0311923847, 0.0899722353, 0.0443561263, -0.0106976982, 0.0881763175, -0.1009760052, -0.0145572005, -0.0861233771, 0.0174918100, 0.0481003821, 0.0864838883, -0.0593850613, 0.0456009060, 0.0113694556, 0.0796615258, -0.0673997626, -0.0020660495, 0.0735539943, 0.0468891189, -0.1023240238, -0.0282522980, -0.0561371818, 0.0590020642, 0.0626848415, -0.0323257186, -0.0150630157, -0.0979636237, -0.0571291223, 0.0362352431, -0.0724593997, -0.0747473687, 0.0346095338, 0.0346755721, -0.0254086182, 0.1599111557, -0.2005567253, 0.0113154650, 0.0166600700, 0.0997053683, -0.1378174275, -0.0699193776, 0.0652303398, 0.0215579737, 0.0418956354, -0.0818992779, 0.0068014041, -0.1793815792, -0.0233655758, -0.0273943171, -0.0164969750, 0.1113928854, -0.0571362488, 0.0004681096, -0.1060894579, -0.0765289143, -0.0691209361, -0.1520617306, 0.0648366660, -0.1107093543, 0.0532387868, -0.0871733427, 0.0581522919, -0.0898521468, 0.0315071270, -0.1107270345, -0.0702112615, 0.0449338630, 0.0611935966, -0.0817808732, -0.0496932305, 0.2331146151, -0.0801344439, 0.0642571971, 0.0724300072, 0.0064614415, -0.1511693895, -0.0502940305, 0.1318309456, 0.0159930754, -0.0446235873, -0.0598224625, 0.0414071791, -0.0828882754, 0.0765952691, 0.0710906163, 0.0526861809, 0.2382353395, 0.1639654189, -0.0649593920, 0.1091375872, 0.0595792904, -0.1699514091, 0.0581278801, -0.0508514829, 0.0538455956, 0.0117392493, -0.0912176147, 0.0193238463, -0.2227371335, 0.0210291948, 0.1257150173, 0.0049126935, -0.1781181544, 0.1772724241, -0.0798376203, 0.0006395622, 0.0406381786, 0.0273915473, 0.0829809830, -0.3576888144, 0.0649724901, -0.1566349715, -0.3341869712, 0.0356045589, 0.1251192689, -0.3433822989, 0.0910524353, -0.0196410529, -0.0425043665, -0.0005113644, -0.0328126997, -0.1978303939, 0.0157980304, -0.0833532214, 0.1816802919, -0.1140923053, -0.1024547592, 0.1514150649, 0.0960594863, 0.0001985879, 0.0715025514, -0.1035587788, -0.0159877427, -0.0877005383, -0.0400050767, -0.1502722204, 0.0364238694, -0.0444671698, -0.0869933590, 0.0646811500, 0.1084941551, 0.0570499338, -0.1179700792, 0.0236734543, -0.0582432710, -0.0332460627, 0.0344318561, 0.1025283709, -0.1362313628, -0.0279110204, -0.1338783801, 0.1065720767, 0.0290193874, 0.0293824263, -0.0293055046, -0.0050185085, -0.0383256376, 0.0506096296, 0.0340783074, -0.0023854109, -0.0337039828, -0.0067749433, -0.1788549274, -0.0775003359, 0.0164020471, -0.0188910719, 0.0982615873, 0.0568655320, 0.0627153516, 0.1264755577, -0.0137175666, 0.0643506497, -0.0479888842, -0.0122687416, 0.0384998284, -0.0127709592, -0.0182249397, -0.0618262440, -0.0334398337, 0.1400987357, 0.1367942095, -0.0066423621, -0.0771334618, 0.1377224475, -0.0602795221, -0.3341050446, -0.1270797849, 0.2538963854, -0.0482697822, -0.0024698784, -0.1467639208, -0.0333799049, -0.0192212090, 0.1276727021, 0.2536619306, -0.1527604312, 0.1974302977, 0.1212896705, -0.0902605504, 0.2035920322, 0.1254275590, -0.4556731880, -0.1329176575, 0.0493598096, -0.0572565347, 0.0525808521, 0.0418113396, 0.2097213715, 0.1270448714, 0.0031902890, 0.1806682050, 0.0886472985, 0.0362275392, -0.0576256178, 0.1073189899, -0.0831821486, 0.0587390885, -0.0949103758, 0.0093289809, 0.1259896606, 0.0989725143, -0.0128639843, -0.1536540985, 0.1906060129, -0.0235673785, 0.0546218008, -0.0179470014, 0.0489719957, 0.0854297206, -0.0697997510, -0.0330415294, -0.0893001929, -0.0214896295, 0.0385938808, 0.0603815317, -0.1884153634, -0.1517822593, 0.1394532174, -0.1415535808, 0.0461472385, 0.0388360545, 0.0067585371, 0.1043569669, -0.1156012341, 0.1089810804, 0.1326995641, 0.1060631722, 0.0163176470, 0.0976047739, 0.0690160468, 0.0984416604, 0.0660088435, -0.0240633283, 0.0768001601, -0.0805919766, -0.0096152062, 0.1566991806, 0.0406860858, 0.0030391794, -0.0438523404, 0.1106216833, 0.0651982352, 0.0874517038, -0.0086981226, 0.0893703774, 0.0063433619, 0.0127847828, 0.1319722086, -0.0534774251, 0.3489702642, -0.0545396246, -0.1018125415, 0.1061487868, 0.1011258587, 0.0017707340, 0.0386238284, 0.0688988268, 0.1160824150, -0.0599817671, 0.0257597342, 0.1303901523, 0.0420914181, -0.2653580308, 0.2230465710, -0.2037627101, 0.1719569266, 0.0956448913, 0.1560140550, 0.2788623273, -0.0310434271, 0.1735694408, 0.1308654100, -0.0801704675, 0.0431102850, -0.0695244893, 0.0107611120, -0.0178752448, -0.0435632430, 0.0044582929, 0.1274352223, 0.0602937080, 0.0700480863, 0.0952263400, 0.0617622286, 0.1153588742, 0.0341242999, -0.0316470228, 0.0115541108, -0.0890011862, 0.0810641795, -0.1367105246, -0.0291471295, 0.0202596895, 0.0606175512, -0.0183254220, -0.1316274107, 0.0154118696, 0.0305314269, 0.0547680780, -0.0681216046, -0.0322843306, 0.0591780879, -0.0133316536, -0.1542807817, 0.0802436844, -0.0521401651, -0.0209957436, -0.0646374077, 0.0435320698, -0.0133399628, 0.0777334720, -0.1198981255, 0.0748991743, -0.1131395847, 0.1264691353, 0.0391532406, -0.1119782925, -0.1003221944, 0.0596859194, -0.0702357367, 0.0280140247, -0.0085004829, -0.0074155224, -0.0511198118, -0.0076749460, 0.1546842158, 0.0357628576, 0.0313851312, 0.0265398510, -0.0882575214, 0.1939485073, 0.1115905121, 0.0373056643, -0.0812892467, 0.0332783237, 0.2324045151, -0.1500689089, 0.1120961159, 0.1371055394, -0.2571138740, -0.1405035406, 0.1588504314, -0.0708919913, 0.2270040363, -0.2899399102, 0.1204996184, 0.0626179576, -0.0575699508, 0.0986744240, -0.0164056905, -0.0763515681, 0.1479867697, -0.1549297422, -0.0896585062, -0.0240608808, -0.0105131371, 0.0848175883, 0.1499185413, 0.0979653969, -0.0483481102, -0.0994751677, -0.1111795530, -0.0114294263, -0.3528183401, 0.1464861780, -0.0498637930, -0.2172214240, 0.0670281053, -0.0446425974, 0.1143143252, 0.0691500157, -0.0538139008, -0.1114308089, 0.0505721159, 0.1580737829, -0.0342685506, 0.0077995849, -0.1846944541, 0.1237265095, -0.2908671498, -0.1628024131, 0.1324288398, -0.0947793499, -0.0356536582, 0.1780262887, -0.0674563050, -0.1450453401, 0.0911013484, -0.0643553585, -0.0172416102, 0.2505940497, -0.2064695209, 0.0482898876, -0.2650224566, 0.1244901344, 0.0075067580, -0.1440682262, -0.0220159926, -0.0353763141, -0.0891827568, -0.0679929182, 0.1325076520, 0.1384995133, 0.0327789187, 0.0834449232, 0.0853714123, 0.0514142662, -0.1191562340, 0.1229889840, -0.2351292968, 0.1006074175, -0.0101906629, 0.0190002490, 0.0054468387, 0.0082074506, -0.2162350863, -0.2086870670, -0.0266715866, -0.1585873961, -0.1113700494, -0.0407683440, -0.2712793648, -0.2350913286, -0.1716788113, -0.1918310076, -0.2063978016, 0.0378178880, -0.0763875395, -0.1699158549, -0.0304051209, 0.0186710823, 0.0072684982, -0.2034412175, -0.0299579557, -0.2854534388, 0.0603165105, -0.0737792701, -0.4478510022, -0.1516937017, 0.0681279972, 0.0019160378, -0.0750533864, -0.0303139389, -0.1365305185, 0.1309514493, -0.1812748462, 0.1571472138, 0.0228808839, -0.0731635243, -0.2094685584, 0.0733695030, 0.0001292442, -0.2373111993, -0.3509266973, -0.0719567463, 0.0764794424, -0.1451673657, -0.1011276096, -0.1264219880, -0.0411960855, -0.0489503108, -0.1584933996, -0.1097072139, -0.0434786156, -0.0624955632, -0.1426709592, 0.1056972146, -0.1911968738, -0.1130864546, 0.1371002346, 0.1044843271, -0.0931838527, -0.1470538974, 0.1181992441, -0.1794882268, 0.1163993776, 0.0353609622, 0.1906182170, 0.0201548487, -0.1484573185, -0.0047609569, 0.0772190541, 0.2928873003, -0.0271124691, 0.1370537132, 0.4069370329, -0.0100756483, -0.1488994360, 0.0232571233, 0.1153518111, 0.1735049188, -0.0128314476, -0.1035447568, -0.1620871425, -0.0523493029, 0.1130723879, -0.1692157239, -0.1835157275, -0.1757300198, -0.0399322361, -0.1469292641, -0.2474238425, -0.1719781756, -0.2330007553, -0.0025893808, -0.1561939865, -0.1467441022, -0.1250362843, -0.1356928647, -0.0323235504, -0.0688649938, -0.0226535164, 0.0218344331, 0.0943248868, -0.0308142975, -0.0205281600, -0.0593807399, -0.1500406861, -0.1318217516, 0.0404993743, -0.3662975132, 0.1380020976, 0.0276896898, 0.1425233036, 0.0684628412, -0.1219747066, 0.0547888316, 0.0459065847, 0.0441282094, 0.0786215365, 0.1507680118, -0.0277530085, -0.0669852197, -0.1071485206, -0.0031939677, 0.1698099524, -0.0331093967, 0.1176884770, -0.0634353235, 0.2025562674, 0.1064908952, 0.0062869936, 0.0724967495, 0.0102778664, -0.0667032301, 0.0083267270, 0.0187821668, -0.1879339367, -0.1385685951, 0.1398011148, 0.0837137923, -0.1168110222, 0.0973682553, -0.0117884912, -0.0103078010, 0.0709588528, 0.1106789485, 0.0836774334, -0.2031224668, 0.0291186720, 0.1232193187, -0.0332453139, -0.0766230300, 0.1193347275, 0.0645336956, 0.1868449897, -0.0762310177, -0.0518330559, 0.1959209293, -0.2064632475, 0.2201542407, 0.0421192199, -0.2076385170, -0.0565944277, -0.0662406534, 0.1614299268, 0.0226949528, -0.1269412488, -0.1467416286, -0.0273035280, 0.0009447256, -0.0332655087, 0.1687854826, -0.1600083560, 0.0435214005, -0.0954341069, -0.0790524334, -0.0099075353, -0.0274665803, 0.1573063284, 0.0452079736, 0.0858918950, 0.1060148701, 0.0728562698, -0.0875093192, 0.0030592314, 0.1552300155, -0.0191016607, 0.0196636282, 0.1182401553, 0.0551952608, 0.1078567132, -0.0807828605, 0.1202477738, 0.0944042504, -0.0609202385, 0.1286259443, -0.0161112249, 0.1026145071, 0.0630129948, 0.0276049580, -0.1082337797, -0.1930749863, 0.0862200409, -0.1215713322, -0.0299699139, 0.0750894770, 0.0432106778, 0.0967362970, -0.1378426552, 0.0446058325, -0.1194428653, 0.0192704555, 0.0718245208, 0.0371169224, -0.0533694848, -0.0975766182, 0.0808956027, 0.0663760379, -0.0274911895, -0.0819701180, -0.0390634835, 0.0772449076, 0.0449598916, 0.1057670191, -0.0946447998, -0.1109967679, -0.2179041505, -0.1909401268, -0.0636937395, 0.0764817372, -0.1068603769, -0.0808658972, 0.1403626204, -0.1420262158, -0.1869850606, -0.0697744489, 0.0286955927, -0.2083525360, -0.0942399874, -0.1918752044, -0.1126170978, -0.0248621143, 0.0341759808, -0.2089104801, 0.0075338720, 0.0924053192, 0.1667702496, -0.0357827656, 0.1026253551, -0.0257010125, -0.0426444523, -0.0355833843, -0.1625383496, 0.0820728913, 0.0789726526, 0.0769507214, 0.0233392380, -0.0235769246, 0.0271616690, 0.0620307773, 0.0323006362, 0.0195732825, 0.0349766016, 0.1111231148, 0.0816626176, 0.1360005289, -0.0812934488, -0.0232024752, 0.1037932113, -0.0259812810, -0.0223887116, -0.0750324950, 0.1297262758, -0.0216229577, 0.0072630839, 0.1342880577, 0.0733999386, 0.0671959072, -0.0044276346, -0.0090283537, -0.0505381748, -0.0401767381, -0.0624092631, 0.0625287145, 0.0851737633, 0.0501264185, -0.0025761218, 0.1612301022, -0.0706689581, 0.1121859252, -0.0869946629, 0.0962932557, 0.0809476152, 0.0942281038, -0.1084415019, 0.0339153372, 0.1425886601, -0.0048801969, -0.1010440737, 0.0446314476, -0.0564550944, 0.0165314917, 0.1166940704, -0.0493525416, -0.0476666689, 0.0775110498, -0.2165900767, -0.0993712619, -0.1535797566, -0.0391993150, 0.0099924495, 0.0507790670, -0.0724650323, -0.1702863723, -0.1255136281, -0.0138260555, -0.1793069243, -0.1534355730, -0.0693302304, -0.1474468708, 0.0589799248, 0.0272918884, 0.0698846579, -0.0876987576, -0.1029111743, -0.1141279414, -0.0553718545, 0.0066884742, 0.0541578569, 0.1354148090, 0.1302880496, -0.0325167142, -0.0245497525, 0.1043987647, 0.0531866513, -0.0574076921, 0.0270100553, -0.0913010314, -0.0525616221, 0.1636662930, -0.0270256866, -0.0033775182, -0.0436468720, 0.0108877243, 0.0132530313, -0.0301571526, -0.0726190284, -0.0184521861, 0.0474159122, -0.0487104990, 0.0995704085, 0.0031230587, -0.0928985402, 0.0353585593, 0.0658292770, -0.0980551839, 0.1055507138, 0.0803162977, -0.0428015403, -0.0147550646, -0.0288890693, -0.0074443012, -0.0272409376, -0.0955648348, -0.1073983535, 0.0582124181, 0.0087091066, 0.0876975209, -0.0477359146, -0.1068086401, -0.1261722744, 0.0064530540, -0.1110449210, -0.0463645533, 0.1036982834, 0.1834491491, 0.0859915763, 0.0177121870, -0.1658335924, 0.0081044817, 0.1167976037, -0.1215510890, 0.1181096807, -0.1479731053, 0.0679857433, 0.1173730344, -0.0176180359, -0.0565282181, -0.1030787304, -0.0253481977, -0.1566153467, -0.1146591231, -0.0144112520, -0.1261077970, -0.1633163542, 0.0754290223, -0.0443256497, -0.0126688657, 0.0855510533, -0.1783458591, 0.0461146533, -0.1198883429, -0.0601174831, -0.1602960825, -0.0289703161, -0.1542219967, -0.1175600141, -0.1379682273, 0.0235641021, -0.1315560341, -0.2902838886, -0.1560379118, -0.1363730133, 0.0432442650, -0.1545638740, -0.1008874029, -0.1223022267, -0.1274871677, -0.0733370781, -0.1568854004, -0.0749239177, -0.1327081323, 0.0336575769, -0.2133648843, -0.0741476044, -0.0971685573, -0.3557032645, 0.0850270689, -0.1359045506, -0.1209911555, -0.0072064935, -0.1440109760, 0.0366694257, -0.0822981223, -0.0675013438, -0.1619625837, 0.0037315618, -0.0988456532, -0.0726731271, -0.1461450756, -0.1478151083, -0.1101281419, -0.1289495528, 0.0199640654, -0.2095937580, -0.0746970996, 0.0225091707, -0.1191804484, 0.0827971771, -0.0636587888, 0.0372354984, -0.1437629163, 0.0360696465, -0.0397270247, 0.0074397926, 0.0628814697, -0.0668201596, -0.0885667577, -0.1041573137, 0.1342717111, -0.1793613881, 0.1022254601, 0.1215259582, -0.1772438735, 0.0691612810, -0.0873543918, 0.2063184977, -0.1250095963, 0.0409316383, -0.0641552582, 0.0502965637, 0.0678805709, -0.1338859200, 0.1970618367, 0.0924855098, 0.1990825832, -0.3198791146, 0.1313096583, 0.0023665642, 0.0014488399, 0.1361620426, -0.0974501893, -0.0066288793, -0.0440444164, -0.1528551877, 0.1311448663, 0.0411050916, 0.0021786843, -0.0120850950, 0.0203334615, -0.2552422285, -0.0533403903, -0.0981536806, -0.0529881194, -0.1107020974, 0.0551071726, 0.0593986847, -0.0699485987, -0.0374595188, -0.1022494659, -0.0501955338, 0.1497653276, -0.0549632758, -0.0094386265, -0.0275597237, -0.0777146444, -0.0994619280, 0.0213217828, 0.0060168756, 0.0847020671, 0.0853096694, 0.0393483713, 0.1346473545, -0.0455967188, -0.0643799081, 0.0961344987, 0.1471056491, 0.0275294222, -0.0526133887, 0.0940967649, 0.0254662205, 0.0605722480, 0.1006767973, 0.0520389453, -0.0872157738, -0.0255864207, 0.0494005121, -0.0142757688, -0.1570255756, 0.0172965899, -0.0335692577, -0.0646365285, 0.0448570810, 0.1352736354, -0.0292979535, 0.0805128664, 0.0116437478, 0.1467226893, 0.0923664346, 0.0974676162, -0.0782908723, 0.0157926623, 0.0026926480, 0.1327520162, -0.2086851448, -0.0904274881, 0.1405736506, -0.1823957115, 0.1236556247, 0.0487280600, 0.0391270965, -0.0271980539, 0.0424068905, 0.0867829621, 0.0797797740, 0.0631545633, 0.0668796748, 0.2193677425, -0.2222104818, 0.1564588547, -0.0674423724, -0.1351276785, -0.0414954387, -0.1135964245, 0.0620370992, -0.0831665993, 0.1022542194, 0.0961583629, -0.1309418082, 0.1052371189, 0.0350386575, 0.0354645588, -0.1524904072, -0.0453074127, 0.1370953023, 0.1196752265, -0.0010207843, 0.1174761802, 0.0164170619, -0.0250281952, 0.2977633476, 0.0877488926, 0.0112448484, -0.0249322075, -0.0444629565, 0.0022449954, 0.0873566046, -0.0425033048, -0.0260123238, -0.0872152820, -0.0108837895, 0.1538279951, -0.0911534280, 0.0377418734, 0.0422611870, 0.0961750001, 0.0166777633, -0.0453833565, 0.0653217733, 0.0096807657, -0.0098398719, 0.1161758825, -0.1069084108, 0.1161619201, 0.0797445178, -0.0949577689, -0.0843880773, 0.0846777931, -0.0153454356, -0.1235914454, -0.0858093277, -0.1031800732, 0.0401994549, 0.0933326632, -0.1331647784, 0.0289211813, 0.1381884664, 0.0472298190, 0.0846614540, -0.0565767474, -0.0374096334, -0.0065536294, -0.1642995179, 0.1052701399, 0.0798521936, 0.0783420205, 0.0554082841, -0.0516708530, -0.0367050730, 0.0405046828, 0.1677240580, 0.1072473079, -0.0342375748, 0.0824068487, 0.1875159889, -0.0760540813, -0.1661582887, -0.0591514446, -0.0486579984, 0.2095597237, -0.1424104720, -0.1415766180, 0.0231866892, -0.0350656807, -0.1453951746, -0.1279031783, 0.0645088628, 0.0685918555, -0.0446500704, -0.1010470763, 0.2632133067, -0.0312812366, -0.1082548052, 0.0437028632, -0.1656992584, 0.0432003438, -0.1153041124, -0.0346178710, 0.0205299798, -0.0559305549, -0.0373221859, 0.0050068181, -0.0361432992, 0.0231885575, 0.0932508633, -0.0326895081, 0.0738842711, 0.0990152210, 0.0363152474, 0.0321802869, 0.0039540967, 0.0802601427, -0.1644029915, -0.0405840799, 0.1124823987, -0.0615426153, -0.0164133254, 0.1063773930, 0.1407745630, 0.0058047902, 0.0642437264, -0.0007272720, 0.0877384022, 0.1166871563, 0.0022956396, 0.0934418067, -0.0233111568, 0.0146693485, -0.0845788643, -0.0751824379, -0.0615332946, -0.0172335580, -0.0016657828, 0.0417982377, -0.0693371221, -0.0232298803, 0.2008758932, -0.0189433452, 0.0095158406, 0.0371743366, -0.0094107036, 0.0014526004, -0.0484074168, -0.0325666144, 0.0176782850, 0.0457096435, -0.0884121880, -0.0184310470, -0.0051135099, -0.0008974114, -0.0583492368, -0.0215741135, -0.0331499241, -0.0649927706, -0.1299835145, -0.1260273755, -0.1360671371, -0.0084424997, -0.2155124098, -0.0301593244, -0.0439027585, -0.1294112951, -0.0598415472, -0.0324315168, -0.1775321960, 0.1449710876, -0.0377308689, 0.0487008654, 0.2058629990, 0.0783129707, -0.0035050104, 0.0835144743, 0.0126225492, 0.0394802727, -0.0095372768, -0.1451002806, 0.0144814868, -0.0136843156, -0.0430785120, 0.0886506811, -0.0353212729, 0.1745224893, 0.0386178158, 0.0004472253, 0.1033837497, 0.1950468868, 0.0236906577, 0.1276278496, -0.0620418265, 0.1853852123, -0.0376567468, -0.1136719063, 0.1566091627, 0.0100705046, 0.0332853571, 0.1059440374, -0.0318591036, -0.0156124644, -0.0478798039, -0.0243222229, 0.0321531445, -0.0601789914, -0.0655868053, -0.1531682760, 0.0125361998, -0.0252296478, -0.1066766977, -0.1441842616, -0.0388618484, 0.0441345423, -0.2660301626, -0.0191072244, 0.1008541584, -0.0552674420, -0.0717255399, -0.0498527773, 0.0236238185, 0.0002342723, 0.0552915819, -0.2405272573, 0.1174643785, -0.2555913925, 0.1097318903, 0.0226907041, 0.1172835901, 0.1030428112, -0.2178726643, -0.0414308757, -0.0846716687, 0.1138483658, 0.0626144782, 0.1765693426, 0.0707020983, -0.1389820129, -0.0501204468, -0.0603690706, 0.0543161444, 0.0337437131, 0.1224251986, -0.1667983085, 0.0633888990, -0.0133984620, -0.0312356465, 0.1571574509, -0.1670676619, 0.0223745685, 0.1007342264, -0.0316483825, 0.0622033477, -0.1192018464, -0.2193731964, -0.1134680510, 0.1255113482, -0.0160337519, 0.0041788081, 0.0279048812, -0.0548068918, 0.1957997382, -0.0592799224, 0.1449774951, -0.1240035444, 0.0578252152, -0.0129399542, -0.1762449145, 0.0033721402, 0.0567990690, -0.1661851853, -0.0052951723, 0.0203877408, -0.1567854732, 0.0844648480, -0.0420938991, 0.0373165198, 0.1513996571, -0.1080631539, 0.0709896162, -0.0640624091, 0.0482947230, -0.0424333476, 0.1185879707, -0.0762965158, 0.0149036292, -0.0637771413, -0.1100242659, 0.1165091619, 0.0156613067, -0.0152419647, -0.1856473088, 0.1177970767, 0.1404351592, -0.0760344639, -0.0177983642, -0.0490900278, 0.0833753720, -0.0293111298, 0.1560036093, -0.1808777750, -0.1310245395, 0.1017239913, -0.0172584355, -0.0185482670, 0.0068372302, 0.1018174067, 0.0032257133, 0.0341016203, 0.2378493249, -0.0230371114, 0.2005162537, -0.0741386786, -0.0353707969, 0.0724195540, 0.0994704589, -0.0639895871, -0.0049007265, 0.1691302210, -0.0380574949, -0.1312100142, 0.0757687017, 0.2483833134, 0.2314836234, -0.0070840772, 0.1041311771, -0.0686813816, 0.0846131295, 0.1335377693, -0.0490675196, 0.0794471130, -0.0803162605, 0.0274719447, 0.0121328253, -0.2553306818, -0.2328520566, 0.1953490973, -0.0535773970, -0.0123585062, 0.0708968118, 0.0223542433, 0.2174684405, -0.0292618573, 0.0316451266, -0.0679174513, -0.2180095464, -0.0155290300, -0.1084242091, -0.2144957632, -0.0202209074, -0.0734576285, -0.2300405651, 0.1027304083, -0.2058787644, -0.1411207318, -0.1177864596, 0.1580485106, 0.1413434893, -0.0621993914, -0.0727139041, -0.0916839167, -0.1270486563, -0.1454886794, -0.0185420103, -0.0002695164, -0.1720779687, -0.1661929190, -0.0907975659, -0.0536193326, -0.1579413265, -0.0142617961, -0.1565040946, 0.1656993032, 0.0589034781, -0.0607421212, -0.0038091156, 0.0878256783, -0.0546581931, 0.0364433192, -0.0609036162, -0.0531121194, 0.0997268111, 0.0222142395, -0.0748991966, -0.1711552143, -0.0539372899, 0.1502369940, -0.1276063323, 0.1100768000, 0.0101336036, 0.0011318723, 0.2164530903, -0.0199177116, -0.0749956220, 0.0015031181, -0.2015983164, -0.1347660869, 0.0209309366, 0.2335294932, -0.0454380028, -0.0789869055, 0.0559736826, -0.1167516485, 0.0724289641, 0.1533696800, -0.2074059844, 0.0594974160, 0.1981548220, 0.1055636629, -0.1288540959, 0.0528149903, -0.0067800824, -0.1230905280, -0.0336666629, -0.0829708874, -0.0504907034, 0.2031317055, -0.1053938866, 0.0548474789, 0.1783000380, 0.1196566075, 0.1222072020, -0.0674810112, 0.0129084140, 0.0592801459, 0.0832529217, 0.0697859153, -0.0477558672, -0.0268020835, -0.0869616345, 0.0247883257, -0.2005266696, 0.1527901739, -0.2302945703, 0.0571480133, 0.0568893701, 0.0259948317, -0.0096493298, -0.0679594949, -0.0525935963, -0.0228506234, -0.0427309424, 0.0384736396, 0.2462104261, -0.1148639694, 0.0739510134, 0.0201270301, 0.0610876940, 0.0797521919, -0.0986821353, 0.0913748965, -0.0443335176, 0.0546835214, 0.0930083022, 0.1255013496, -0.1017336845, -0.1240819767, 0.0230291802, -0.0121620465, -0.0725910217, 0.1088996455, 0.0889970884, -0.0323963761, 0.1077354401, -0.0662484393, 0.0812585279, -0.0179848652, -0.0518064946, 0.0097438134, -0.1874552667, -0.0101983631, 0.0655819550, 0.0340209417, -0.0073011811, 0.1485162824, -0.1503168941, -0.0494875349, -0.0043180659, -0.1295209825, 0.0256094262, 0.0013700104, -0.0869356766, -0.1954398304, 0.0492632389, -0.0152869718, -0.1229987666, 0.0258816183, 0.0266352650, -0.0650927648, -0.0278080869, 0.0168471131, 0.0480764434, -0.0052819774, 0.0995667130, 0.0040326174, -0.0290460400, 0.1130118817, -0.0636603907, 0.2072154731, 0.0721184537, 0.0408329554, 0.0531073846, 0.0025773144, 0.0857379660, -0.0321328193, 0.0380145609, -0.0181801207, -0.0444424599, 0.1882051826, 0.1101398319, -0.0288630370, -0.0231504180, 0.0638668165, -0.1049514562, 0.0751743764, -0.0671741143, 0.0615349635, 0.0626867637, 0.0733415037, 0.0788219720, -0.1380898207, 0.1396554261, -0.0076968344, 0.1067192480, 0.0548521094, -0.0354539417, -0.0794909522, 0.0415513068, 0.0631071031, 0.0169651415, -0.0085687935, -0.0464754067, 0.0562010072, 0.0160006173, 0.0779218003, 0.0800556690, -0.1604163796, -0.0462647155, -0.0391589664, 0.0356370099, -0.1524956077, 0.1446800530, 0.0196193326, -0.0712723956, -0.0902445391, -0.0876313671, 0.1081961766, -0.0072476338, -0.0761351958, 0.0451130271, -0.0228291098, 0.0132989511, 0.0253317934, -0.0330932550, -0.0636705309, 0.0171382595, -0.0805145949, 0.0752443969, -0.0765980035, 0.0510089695, -0.0307445712, -0.0468275584, -0.0512503088, 0.0846787542, -0.0882364511, 0.0568791144, 0.0741306394, 0.1451279968, -0.0528999865, -0.1745608300, -0.0662957579, 0.1079911441, 0.1220731437, 0.1028556973, 0.1061925888, 0.0731673762, -0.0267652776, 0.0615272820, -0.0085128956, 0.0644038469, 0.0074522290, -0.1244560108, 0.0917004943, -0.0587312616, -0.0158432536, 0.0145966681, 0.0177605934, 0.0925761461, 0.0795701370, 0.0661468506, 0.0885781422, 0.0942131430, 0.1008464172, 0.0645753741, -0.0622933209, -0.0451523177, -0.1014803499, 0.1409756392, 0.0324014649, -0.0876017213, -0.0247589201, 0.0356346779, 0.0969699919, -0.0413091443, -0.1463813186, 0.0005695064, 0.0886278749, -0.1074430048, -0.0066737100, 0.0517513156, -0.0840720162, 0.0045595332, -0.1920628846, -0.2194749713, 0.0426830091, 0.0361339152, -0.0904991627, -0.0430300012, -0.0466578379, -0.0319274701, -0.1239717305, -0.0374731049, 0.0139527572, -0.1451773345, -0.1195461825, -0.1613968760, -0.2819928825, 0.0441925041, 0.0966907442, 0.0696398541, -0.3441617191, -0.0171408001, -0.1478980929, -0.2186823189, -0.1078541130, -0.0347328745, -0.0911387578, -0.0121249128, -0.0395438783, -0.1667529643, -0.2076846361, -0.2252462655, -0.0550235510, 0.0520885959, 0.2314177454, 0.1640993655, 0.0306420680, -0.1875164509, 0.2219324559, 0.0718497559, -0.0644525588, 0.0173713993, 0.0122223031, 0.0614149421, 0.0332545973, -0.0484891348, -0.0747694150, -0.0831360817, -0.0776303336, 0.0534566678, 0.1308094412, -0.0576438792, -0.0819789320, 0.0724916160, 0.0446208380, 0.0593571104, 0.1142633334, 0.0603821240, -0.0004917476, -0.0780365318, 0.0319249965, -0.0740308836, 0.0873560458, 0.0923212394, 0.0025609627, -0.1086071059, 0.0551726930, 0.1459408104, -0.0579244532, -0.0051899021, 0.0932708830, -0.1183582693, 0.0034288855, -0.0298077185, 0.0558098629, 0.0457381755, -0.0625830516, -0.0118865240, -0.1800765246, -0.0702502355, -0.0223973896, 0.0641921833, -0.0153725976, -0.1145381257, -0.0346121453, -0.1558219343, -0.0510222651, -0.0591288768, -0.0594368428, 0.0144218989, 0.0560578778, -0.0655953586, -0.1077731028, 0.0211955681, -0.0383074544, 0.0887886956, -0.0018229943, 0.0043815458, -0.0799633935, 0.0064834212, -0.1439512521, 0.0335751660, 0.0735345632, 0.0723259449, -0.0329912230, -0.0569335148, -0.1137142554, 0.0333832465, -0.0587054044, -0.1068086997, -0.0373274945, -0.0710383430, -0.0128620844, -0.1150086373, 0.0900116116, -0.1108733788, 0.0913319439, 0.1343850344, 0.1178317294, 0.0244961027, 0.1051995158, -0.0121359592, -0.0602256358, 0.0665881857, -0.0732915103, 0.0374575332, 0.1716701537, 0.0163054075, 0.1463685185, -0.0046406225, -0.0480995588, 0.1314812601, 0.0021654642, 0.1827621609, -0.0181430019, -0.0276486054, -0.1552490294, 0.1301324368, -0.0118858591, -0.0299286339, -0.0270204805, -0.0459827036, -0.0175459795, 0.0688905269, -0.0200324338, -0.1310172379, -0.0155018121, 0.0000725396, -0.0072984933, -0.0714103803, -0.0921304300, -0.0230781958, 0.0825387910, 0.0771882236, 0.0602495186, -0.0662699714, 0.0549767986, -0.0867082924, -0.0355949104, -0.0335270390, -0.0270818528, -0.0738519728, 0.0842427984, -0.1333765537, -0.0207577311, -0.0396573730, 0.0131832110, 0.1297060400, 0.0791906938, 0.0657241568, 0.1545813680, 0.0508857183, 0.0947731808, 0.0937924758, -0.0415317677, 0.2023394704, 0.0410594791, 0.0747827664, 0.1314776391, 0.0152138490, 0.0267140195, 0.0229452122, 0.0523170605, 0.0858048722, 0.1395829767, 0.0031819490, -0.1263867766, 0.0544292182, -0.1361849606, 0.0988771319, 0.0895369276, 0.1226403192, 0.0809222236, -0.0229651053, 0.0712268129, -0.0448582992, 0.0741295666, 0.2715395093, -0.0244094990, 0.0475958139, 0.1448667198, -0.0016301209, -0.1084530577, 0.0482930206, -0.1366691887, -0.0297829621, 0.1365855485, -0.1913121492, 0.0948312879, 0.0671779066, 0.0211605560, 0.0270360354, -0.0522615761, 0.1350936145, -0.0079675047, -0.0470424406, -0.0891766548, 0.0167447440, -0.0759998262, 0.0454309136, 0.0238620434, 0.0727745593, 0.1699396819, -0.0133161740, -0.1560372859, -0.1039800197, -0.0001773502, 0.1588112265, 0.0691217184, -0.1528085768, -0.0748056471, -0.0442810915, 0.0469636619, 0.0357166678, 0.0844963789, 0.1168481857, 0.1428186297, -0.1375936419, 0.0500074998, -0.0053882455, -0.0273401327, 0.0052266824, 0.1967816800, -0.0331984535, -0.0158949867, -0.0462502427, -0.0850059465, 0.0562528372, 0.0895614251, 0.1242595986, 0.0260966290, 0.1274543852, 0.0219124258, -0.0998425633, -0.0010956968, 0.0179185811, 0.1850093156, 0.0826565251, -0.1011758968, 0.0391828343, 0.0262060799, 0.1650028080, -0.0453290530, -0.0343202464, 0.0971043035, -0.0604922138, -0.1655265838, -0.0487530231, -0.2250652611, -0.1324090064, 0.2833507061, -0.1839350462, 0.2115743011, -0.0709411800, -0.1498358697, -0.0742343217, 0.0978577659, -0.0274701267, -0.0675151423, -0.0679523274, -0.0108018480, -0.1048086956, -0.1625767499, -0.0270917043, 0.1477073133, -0.0112787532, -0.0231598541, -0.1183059588, -0.0340941437, 0.1001613736, -0.1407018006, 0.0366849937, 0.0740830377, -0.1062425822, -0.1385841519, 0.1007789746, -0.0586907342, 0.0495186374, -0.0462713018, -0.0318864286, -0.0153385662, -0.0588282645, -0.1100623459, 0.0668656230, -0.1245673969, -0.0842501968, 0.0295418855, -0.0882907435, -0.0010854604, -0.0924685448, -0.0958329812, -0.1041397378, 0.0349073298, -0.0820090547, -0.0475502163, -0.0929842740, -0.0915898383, -0.0872519016, -0.0012813930, 0.1197939068, 0.0251756553, 0.0832264796, 0.0543595217, -0.1012463942, -0.0228716582, 0.0247645043, -0.1075110435, -0.0605619587, -0.0848940909, -0.0445146263, -0.0728588179, 0.1255625635, 0.1052323580, 0.0133064007, 0.0227403790, 0.0313959122, 0.0944024771, 0.0765542910, 0.0176559649, 0.0945276320, -0.1096707284, 0.1270345151, -0.0618083887, 0.0283587649, 0.0151624447, -0.0715992600, -0.0027072011, 0.1110283583, 0.0378767289, -0.0918077230, 0.0069596404, -0.0929498002, 0.2472503781, -0.0574686378, -0.0063637407, 0.0153938727, 0.0984246358, -0.0639929771, -0.0734109655, 0.0241558254, 0.0002830029, 0.1409941465, 0.1828609407, 0.0836832970, -0.0843284130, 0.0460724309, -0.1899112612, -0.1086046845, -0.0936735496, -0.0752671286, 0.0759188086, -0.1624625027, 0.0442728885, -0.0783382729, -0.2483638376, -0.0441125222, -0.1230314746, -0.0496481173, -0.0049823700, -0.1219089329, -0.0491867773, -0.1637097895, -0.0731488094, 0.0141908098, 0.0346970148, -0.0212048367, -0.0378528684, 0.0204909164, -0.0702559873, -0.0172506180, -0.0578140654, -0.0269658882, 0.0324172340, 0.0055234483, -0.1514472365, -0.1037990451, 0.0629676580, -0.1633613557, -0.0780744031, -0.0630928278, -0.0752076954, 0.0423386209, -0.1341325045, 0.0252478272, -0.0845352784, 0.0900940374, -0.1275820136, -0.0211214498, -0.1337061375, 0.0217968561, -0.0392147787, -0.0946295336, -0.1923633367, -0.2511918545, 0.0945741087, -0.0603764690, -0.0132070640, -0.0713944435, 0.0272700805, 0.0946554393, -0.2251536250, 0.0985925645, 0.0304142032, -0.0484526753, -0.0590739921, 0.0147935264, -0.1604277343, -0.1494696885, 0.0175556690, -0.0251038242, 0.0519250147, -0.1033243537, -0.0447588041, -0.0866813213, 0.1592858136, -0.0954697281, -0.0050715511, -0.1500214636, -0.2023313791, 0.0308485124, -0.0935751572, 0.0036272563, -0.0130503373, -0.0393272825, -0.3961495459, -0.0903589502, 0.0118677374, 0.0755160004, -0.0039534597, -0.1324517876, 0.0818543881, -0.1800930798, 0.0695655569, -0.0345651209, -0.1743344516, -0.0873165950, -0.1221378967, -0.0419704281, 0.0063316212, 0.0934765562, -0.1245521456, 0.0681225806, -0.0501068085, -0.0354419984, -0.0061534252, 0.0271309242, 0.0203018188, -0.0812063515, -0.0708357319, -0.0670791119, -0.0255478341, -0.1067444980, -0.1251871139, -0.0591785684, -0.1152465194, -0.0006435828, -0.1623426527, -0.0755043104, -0.0878033042, 0.0444521494, 0.0199226886, -0.1370195895, 0.1752188504, -0.0955677107, -0.0187938008, 0.0107034938, -0.1187742427, -0.0101208966, -0.0706091598, -0.0635073185, -0.0292882584, -0.1657267362, -0.0084572667, -0.1240309626, 0.0595410801, 0.1023051292, -0.1071032658, -0.0532575957, 0.0827644765, 0.1864942312, -0.1426028460, 0.1293798834, 0.0471360385, -0.0488343053, -0.0618708767, 0.1219878346, -0.0799336508, -0.0103626419, 0.1244123578, -0.0590962470, 0.2233639210, -0.0435435958, 0.0227268115, -0.0839453340, 0.0201643426, 0.1256810278, -0.0489826798, 0.0870588496, 0.1152635738, 0.1106308699, 0.0743894055, 0.0381670706, -0.0098952381, 0.0544017069, -0.1858900040, -0.1430859566, 0.0878682733, 0.0101226689, -0.0213249493, -0.0054771118, 0.1570327133, 0.0695286170, 0.0413008556, 0.0732573047, 0.0585120507, 0.0663286299, 0.0711387694, -0.1334804296, -0.1155443415, -0.0817483664, -0.0937944949, -0.1271152347, 0.0077409572, -0.0515269563, 0.0882133543, 0.0257401187, 0.1070878208, 0.1761660725, -0.0375038981, -0.0133126322, -0.0372314192, 0.0623551793, -0.0335707441, 0.0228994191, 0.0047500716, -0.0545416772, 0.0666569918, -0.0871462747, -0.0362849645, 0.0349668711, 0.0166063588, -0.0504365042, -0.1283712089, 0.0971469581, 0.1162264273, 0.0101797171, 0.0434782170, 0.0286772493, -0.0325279199, 0.0036586490, -0.0014888825, 0.0831082240, 0.0905665532, 0.0693438128, 0.0913641006, -0.0428375304, -0.0032113963, -0.0223955363, 0.1328839511, 0.1547177434, -0.0230993163, -0.0319650322, -0.0893867239, 0.0806395337, 0.1242059320, 0.1157066077, -0.0148281669, 0.1324158460, -0.0206861813, -0.0505196452, 0.1413301378, -0.0739625618, 0.0292372480, -0.0188121498, 0.0789766461, 0.0056806961, -0.0072434647, 0.0654794201, 0.0752708763, -0.1324513406, 0.0078479620, -0.0676098093, -0.1515571177, 0.0691630915, -0.0001700581, -0.1274736375, 0.0355126671, -0.1762851328, 0.0463004373, 0.1284767091, 0.0655344725, 0.1093825623, 0.0627917573, 0.0127860839, 0.1605976820, -0.0717235431, 0.0684731752, -0.0538279824, -0.0191471595, 0.1249604821, 0.1858732253, 0.0937239453, 0.0565716922, -0.1485431194, 0.0964642763, 0.1518558413, -0.1178237125, 0.0756752640, 0.0668451265, 0.0280127954, -0.1182542145, 0.0728281811, -0.0257559996, 0.0614779219, 0.1833073497, 0.1999455243, -0.0211120006, 0.0825963840, 0.0103707621, 0.0193720628, 0.0068566580, 0.0743837357, 0.0579931512, 0.0043095145, 0.0715822801, -0.0300833974, -0.1182428151, -0.0426489897, -0.0483522937, 0.0545273311, -0.1723664850, -0.0307283476, 0.1578698754, 0.0858938172, -0.0003236303, 0.0037963416, 0.0356512256, -0.0581407920, 0.1407077760, 0.0008542801, -0.0791070759, -0.0459716618, 0.1033492014, -0.0131596141, -0.1330774873, 0.0712525174, -0.0903862417, 0.1000937819, -0.0802580938, -0.0337712839, 0.0902592614, 0.0039792829, 0.2073217183, 0.0351093262, -0.0849145353, 0.2002322078, -0.1415087134, -0.0109799178, -0.1705462039, -0.0849309266, -0.1073134318, 0.2572528720, 0.1446897686, -0.1905808002, 0.1923238486, 0.0938441455, 0.0336030461, 0.0222247783, -0.0800198615, 0.1200335547, -0.0503254309, -0.0675135776, -0.1115749031, -0.1091081947, -0.0323664919, 0.0541658439, 0.0225537904, 0.0961450115, 0.1029206365, -0.0036505966, 0.0078845704, 0.0323460959, -0.0184207074, -0.0806406513, -0.1061529443, -0.0127402591, -0.0915171728, -0.1483212858, -0.0200252682, 0.0858837143, -0.0386328734, 0.1171756536, 0.0546049848, -0.0764368698, 0.0094734775, 0.0060812598, -0.1597052366, -0.0696287602, 0.1429740191, -0.1111851782, -0.1261673868, -0.1183042377, -0.0166089777, 0.0809676200, -0.0886485353, -0.0882317647, -0.0901286975, -0.0742459148, -0.1712327898, 0.0223877206, -0.0874977559, -0.0656755269, -0.1121352538, -0.0818642825, 0.0773659647, -0.0407799296, -0.1095001400, 0.0204715747, 0.0216184407, 0.1767488271, -0.0611452982, 0.0313789956, -0.0076137199, -0.1154724285, -0.1087168157, -0.0183726791, 0.1702755541, -0.0798136741, -0.1080913767, -0.0617455021, 0.0257020909, 0.1821490973, 0.1073960960, -0.0454459377, 0.2128798664, 0.1382417232, 0.0306811035, -0.0192865748, -0.1969383657, 0.0227227826, 0.0757150576, 0.1154027507, 0.0404875129, 0.0695516244, 0.0316597186, -0.0328272656, 0.0657518655, 0.0555946268, -0.0682424381, 0.0595139861, 0.1246712506, -0.0327880755, -0.0257012304, 0.0673497915, -0.0536752045, -0.0500710644, 0.0092914291, -0.0639082491, 0.0857623890, -0.0001603745, -0.0505474955, -0.0938785598, 0.0310243294, 0.1272157729, 0.0347127952, 0.0088560283, 0.0431603640, 0.0703759044, -0.1398222446, 0.0614353754, 0.0691755414, -0.0452474914, -0.0091024609, -0.1073188558, -0.0480032116, 0.0682771951, 0.0742971674, 0.0586972050, 0.1459876895, 0.0487726070, -0.1208163127, 0.0073989471, -0.1611046791, 0.1552877128, -0.1177222654, -0.0122036599, 0.1391063929, -0.0826631710, -0.0149350651, 0.0421218276, 0.0843951777, 0.0401426181, -0.0745699555, -0.1704932749, 0.1139883846, -0.0631534010, -0.1045250669, 0.0102788853, 0.0345006287, -0.0162389260, -0.0959797949, -0.0123818135, -0.0133444788, 0.2006754279, 0.0720420033, -0.0268315747, 0.0580907688, 0.0979862586, 0.0619489066, 0.1387450099, 0.2671543062, 0.1983811110, 0.1415448785, -0.0449493155, -0.0708936602, -0.0614623614, -0.0262493845, -0.1660111099, 0.0618340299, -0.0220540501, 0.0583327338, 0.0130711971, 0.0663651377, -0.0400356837, -0.0460251607, 0.1101362035, 0.0223233942, 0.1138037965, -0.1060477868, 0.2080989927, -0.0419792607, -0.1419671476, 0.0841368288, 0.0401294753, 0.0011037075, 0.0264814645, 0.0380870178, -0.2092110366, 0.0517767631, 0.0612142384, -0.0500163026, 0.1085584238, -0.0631245151, 0.0843192935, -0.0771552101, -0.0758181587, 0.0029309287, -0.0565356389, 0.0521815233, 0.0569198467, -0.0184379276, -0.1068607047, -0.0952558890, -0.1347833723, 0.0450397581, 0.1207068637, -0.0803272948, 0.0936184004, 0.0119829001, 0.1003601849, 0.0092865806, 0.0522028729, 0.0661253631, 0.0587924272, 0.0045165489, -0.0422939621, 0.0066514020, -0.0857578218, -0.0392104127, -0.2019532323, 0.1441445500, 0.1452818811, -0.1908342242, 0.0751925334, -0.0207226314, -0.0217096657, 0.0035233041, 0.0147821838, 0.1643030196, 0.1509505957, 0.0592806898, 0.1067193151, -0.0012177648, -0.0727041587, -0.0149148759, -0.0311483443, -0.0375687070, -0.0293937586, -0.2153240740, 0.0866679177, 0.1253441423, 0.0587418601, 0.1693892032, -0.2666266263, 0.0702232867, 0.1622757316, 0.0377551503, -0.1011608094, -0.1345182359, 0.0213877913, -0.0457918085, 0.0315043069, 0.0477275029, -0.0191145577, -0.1073829457, 0.0282905493, 0.0320639722, -0.1205981672, -0.0179391205, 0.0595357902, 0.0071992693, -0.0789008737, 0.1417055428, 0.0383262262, 0.0193916112, 0.1050098762, 0.0146026090, 0.1008151993, 0.0338825658, -0.1000377014, 0.0307181589, -0.1225769445, 0.1208704710, -0.1188544184, 0.1214985028, -0.1092545837, 0.1535837352, 0.0771728605, -0.0284283683, -0.0245632604, 0.0873234719, 0.0731192902, 0.0576217510, -0.0901267007, 0.0022783743, -0.1268584281, 0.1624830514, -0.0927289426, 0.1030201986, 0.0050262101, 0.1295390576, 0.0643951744, -0.1276876628, 0.1065027192, -0.0980854332, 0.0873711556, -0.0649759769, -0.0797315314, -0.1387825608, 0.0872320235, 0.0377159826, -0.1179772764, 0.1018838435, -0.1433590055, -0.0055572125, -0.1154439673, -0.1534660161, -0.0050832280, -0.0811906308, 0.1533316970, 0.0804353580, 0.1865050495, 0.0111275027, -0.0330104977, 0.1210798845, 0.0425564609, 0.0057119583, -0.0636001974, 0.1193764582, -0.0937681124, 0.0289644096, -0.0349605493, 0.1233594567, 0.0745332539, -0.1083542258, 0.1953834146, 0.1079467982, -0.0142260762, -0.0575437211, -0.0497728065, 0.1354542524, 0.0231062248, 0.0673796907, 0.0938209891, -0.0081545943, -0.0414039493, 0.0783270374, -0.0103668366, 0.0468773209, -0.0353493877, 0.0508977883, 0.0222977921, -0.0210914444, 0.2436515540, 0.1033360660, 0.0007434106, -0.0100813927, 0.0369369127, -0.0721990243, 0.0870935917, -0.1047318429, -0.0457773991, 0.1831878722, 0.0491515659, 0.0513337441, -0.0137695801, -0.0635566562, 0.2361123562, 0.0209209882, -0.0830701962, -0.1211915091, -0.0779552236, -0.1000729948, -0.1413159072, 0.1114698946, 0.0789182857, -0.1385480762, -0.0420197360, -0.0972304717, -0.0736134946, 0.0198493451, 0.0442616157, 0.0342855044, 0.0355326757, -0.1283823252, 0.0172390044, -0.0305933692, -0.0346522592, -0.1516325623, 0.0466422811, -0.1265497953, 0.0712329298, -0.1684128195, 0.0203539189, 0.0475469045, -0.0123189026, 0.0823053047, 0.0515763089, 0.2142171860, 0.1016500294, -0.0325721726, -0.0569562837, 0.0813011378, -0.1450848132, -0.1673184633, 0.1160330027, -0.1926996708, 0.0394968539, -0.0748366192, 0.0027702723, -0.0913359448, -0.1355049461, 0.1702687889, -0.0739180446, 0.1613632888, -0.1208254024, 0.1134017631, 0.0432638414, -0.1061721593, -0.1558735818, -0.0225704722, -0.0249749701, -0.1998105198, -0.2331902534, 0.1052178591, 0.1208553016, 0.0956905708, -0.0294517446, 0.0956475213, 0.0862941816, -0.0035621086, 0.1003928632, 0.0957589298, 0.0204055607, -0.1086238027, -0.1995597780, -0.1654838175, 0.1192637831, 0.1852398217, 0.0764243305, -0.0179791674, 0.0338399857, -0.0536086783, 0.1247695014, -0.0375436209, -0.0734796524, -0.0422959737, -0.1499724090, 0.0519682504, 0.0423991308, -0.2890219390, 0.0394640379, 0.0557716154, 0.0318551175, 0.2962255180, -0.1008632779, -0.1298411041, -0.0091612348, 0.0760342330, 0.1648969799, -0.0982102230, -0.1324959844, -0.0714944452, -0.1515014470, 0.0871614516, 0.0041263620, -0.1451273412, 0.1068841144, 0.1008988991, -0.0178116579, -0.0877926126, -0.1135526374, -0.0156820342, -0.0901754946, 0.0215439107, 0.0276061893, -0.0074904696, -0.0478652939, -0.2694783509, 0.1163364127, 0.0874093696, 0.0134138260, 0.0561664775, 0.1650514454, 0.1270294487, -0.0653917342, 0.1192229316, 0.0588140711, -0.0079128128, 0.0106256660, 0.2076434642, 0.1602832526, 0.1942466944, 0.0172630120, -0.2680543065, -0.1535882950, -0.0879199654, -0.0967891514, -0.1770701110, 0.0157604087, -0.0406377874, 0.0932527408, 0.1036625430, -0.0596784800, -0.0722946227, 0.0411353707, -0.0014900530, 0.0236260816, 0.0314060524, -0.1363402009, 0.0866613612, -0.1097677648, -0.0281266384, 0.1625850946, -0.1621194184, -0.0960199088, -0.1854582131, 0.0489202626, 0.0909407586, -0.1667197943, -0.1454402804, -0.4460397363, -0.0536607467, -0.0341283195, 0.0757371560, -0.0965710506, -0.1395226419, 0.0239183642, -0.3965150416, 0.0796000883, 0.0551398844, -0.0074655870, -0.0576104037, 0.0939659476, -0.0191676151, -0.3210748434, -0.0596238710, -0.4867365658, 0.2308740020, -0.0917015150, -0.0429705232, -0.1665312052, -0.3206431568, 0.1302026957, -0.3674907386, 0.0206457507, 0.1238428727, -0.2374037206, -0.1709703803, -0.0857902765, -0.1254284084, -0.1863619089, -0.0476211458, -0.2798848450, 0.1799836606, -0.3009480834, 0.1376400888, -0.1139532402, -0.0484344848, 0.1178538576, -0.1865229160, -0.0484097227, 0.0393190086, -0.2033012807, -0.0259220358, -0.0890601724, -0.0600070320, -0.0246179793, -0.0536696948, -0.1611962616, -0.0071422560, -0.0511247851, -0.1011898816, -0.0794280320, 0.0742528513, 0.0073844926, 0.1417305768, 0.0791251808, 0.0523025021, -0.2565101981, -0.0367544964, -0.2354368418, -0.0809477270, -0.0087482128, -0.0639439002, -0.1097394153, -0.3175007701, -0.2495654225, -0.0223944448, -0.1667580456, -0.1695957035, -0.0303379428, 0.1131672412, -0.0562974475, -0.0753186047, -0.1645266712, 0.0011811537, -0.0013679877, 0.0713581890, 0.0295621045, -0.1789839864, -0.1062934026, 0.1046609953, -0.0479721129, 0.0284994394, 0.1279751509, -0.0156200146, 0.0663720220, -0.2359235734, 0.1912624240, 0.2026908249, 0.0511373170, -0.0050878329, -0.1033474430, 0.0100674415, -0.1207582131, -0.1985068172, 0.0704167262, -0.0069650258, 0.0906691700, 0.0928434655, -0.0816259310, 0.0957565978, 0.1291554868, -0.0264155418, -0.0000804007, 0.1027177572, 0.0825287551, -0.0233284850, 0.0219816230, -0.1255815774, -0.0471724011, -0.0833585486, -0.0066000777, -0.0827537179, -0.0920801759, 0.0276703089, -0.0596958436, 0.0142163010, -0.0870292708, 0.0457657501, -0.1292908341, 0.0155009376, 0.0699977577, -0.0100726187, -0.1011657193, -0.0857296735, -0.0118991472, -0.0449246317, -0.0507450625, -0.0216322131, -0.1031215340, -0.0816872939, -0.0574433617, 0.0364283063, -0.2489680499, 0.1006236672, -0.1961226612, 0.0668150857, -0.0400023982, -0.0269125681, -0.2347909957, 0.0292822309, -0.1101108119, -0.2595255971, -0.0894008428, -0.1066340879, -0.0136963977, -0.1786927283, -0.1290277094, -0.0665895119, -0.0555330813, 0.1658757329, -0.2006955147, -0.2274883986, 0.1390541196, -0.0575900413, -0.0699972957, 0.0226895977, 0.1434266269, -0.1475505680, 0.1326458454, -0.0219940115, -0.2055033296, 0.1144237593, 0.0687478334, 0.1444648206, 0.0029076610, 0.0481672697, 0.1617376655, 0.0257754605, 0.1433579028, -0.0180615131, 0.1717822701, 0.0049631326, -0.1187798679, -0.0950784534, -0.1193903908, -0.0067387298, -0.0531658046, 0.1229497641, -0.0252032615, -0.0659114346, 0.1624060869, -0.1980653852, -0.0556296110, 0.1280087382, 0.0091166422, -0.0667095780, -0.1645347178, -0.0594744384, -0.0239060801, -0.0715659708, -0.0192660838, -0.1733647585, 0.0525920950, 0.0137410155, 0.0751264766, -0.0995808169, -0.1295863390, -0.1128796116, -0.1878229827, -0.0987880006, -0.0117052374, -0.0150166340, 0.1079187095, 0.0618312657, -0.1801384985, -0.3551009297, -0.0410949104, 0.2237380743, -0.0620577075, -0.2503267825, 0.0320990793, -0.1144638062, 0.0222009365, 0.1569472402, -0.0407689959, -0.0692569986, 0.0532754920, 0.0145814102, 0.1290820837, 0.1725642979, 0.0745514557, 0.0084455414, 0.0362313874, 0.0485847183, 0.0314243622, 0.0236851387, -0.1772646308, 0.0237821620, -0.0923243463, 0.1423310637, 0.0710773841, -0.2563714981, -0.0558389649, 0.1773263067, -0.1090003252, 0.0065086759, -0.0510407127, -0.2442329079, -0.1391739100, 0.1376202255, -0.0887796953, 0.0357279032, 0.0376654938, 0.1708758324, 0.0728587508, -0.0477277637, 0.1867515892, -0.0707673654, -0.0758772120, 0.0355784148, 0.0317929797, -0.0980434120, -0.2186293900, -0.1456410289, -0.2773982584, 0.0791367963, -0.0014969690, 0.1197952554, 0.1148992777, -0.0354250334, 0.1735581458, -0.2423929423, -0.1147222966, -0.0287996456, 0.1063581407, -0.1765663624, -0.0649852902, -0.1415031850, -0.0230154935, -0.1900350302, -0.1592962742, 0.1160306931, -0.0621252693, 0.0618816726, 0.0462068655, -0.0674682632, -0.1032015458, -0.0260997918, 0.0089326743, -0.0630206317, -0.0894070044, -0.1130437702, 0.0247086380, 0.0600713864, -0.0324392915, -0.1177422181, -0.0022671754, 0.3768987954, -0.0599728823, 0.1763582081, -0.2372597903, -0.2030974627, 0.1535952091, 0.0035137930, 0.1244337410, 0.0237133335, -0.1648652405, 0.0842837021, -0.2133667618, -0.0699238405, 0.0396757498, -0.1139854565, -0.4045977592, -0.0263412930, -0.2474437505, -0.0299477112, 0.0129063549, 0.0649540648, 0.0123733468, 0.1112853959, -0.0151316226, -0.1748163998, 0.0691611767, 0.0829942897, -0.0382884592, -0.1351729184, 0.0280878544, -0.0344635583, -0.2437751889, 0.0550657213, -0.2089661360, 0.1574762613, 0.0491101071, 0.1037517264, 0.1249060705, -0.0064465576, -0.0044525112, 0.2140139490, -0.0194997545, -0.0248456150, 0.0115036499, -0.1621224880, -0.0121847941, -0.1677080840, -0.1619025767, 0.1262359470, -0.1855386347, 0.0138265193, -0.0095606558, -0.0652709454, 0.1375537366, -0.0158331916, 0.1307470351, 0.1569335908, 0.0050445241, -0.0661203116, -0.0499862731, -0.0060972418, -0.1403784603, -0.1085907817, -0.0527433045, -0.0390311405, -0.0667971969, 0.0559771471, -0.0785294995, -0.0361975953, 0.0419766568, -0.3255683184, 0.0032679534, -0.0861300081, -0.0221834704, -0.0096921232, -0.0768757910, 0.1315501332, -0.1092832983, -0.0654821694, -0.1862174869, 0.1489965022, -0.2287944853, 0.0876080394, -0.1942926347, 0.0003418896, -0.0151853804, -0.0439675115, -0.0823873952, 0.0268167611, -0.1470519155, 0.0269522090, -0.1879884601, -0.0012268054, -0.1119372174, -0.0876023471, -0.0926504582, -0.0396163687, -0.1507113874, -0.0537771247, -0.1105343923, -0.0461962409, 0.0550193563, 0.1060324386, 0.1837594360, -0.0755676776, 0.0741637945, 0.0428174287, -0.0885125995, -0.0964578912, -0.0094894171, 0.0408271700, -0.1939941049, 0.0709509179, 0.0260853637, 0.0519365892, 0.0265179072, -0.0937710777, 0.0130701195, -0.0113912458, 0.0258987676, -0.0082127983, -0.1655753553, 0.0230687503, -0.0309635531, -0.1820901483, 0.0508854538, 0.0212630834, -0.2069736272, 0.1757410616, -0.1610435843, 0.0947093070, 0.0832397491, -0.1355795413, 0.1959656626, 0.1179231107, 0.0026321062, -0.0072594029, 0.0223768242, 0.0037646112, 0.1363096684, 0.0950167626, -0.0214594379, -0.2082550526, 0.0979603305, 0.0841084197, -0.0791439712, 0.1254468709, -0.1377125531, -0.0934858993, 0.0210861228, 0.1544171125, 0.1472702622, 0.0579147823, 0.1307577789, 0.0960688218, -0.1574577838, 0.0310534164, -0.0739924312, -0.0249059256, 0.0314205177, 0.2140609920, 0.0777115226, 0.3150142431, -0.0008943618, -0.1183639020, 0.0628008172, -0.0475196652, -0.0254784022, -0.0688342825, -0.0905700102, 0.0375773236, -0.1117827818, -0.1117203981, -0.1345402896, -0.0891513377, 0.0173232444, -0.0056513082, -0.0513401628, -0.0774349943, 0.0477311835, 0.0575921498, 0.0524040684, -0.0931548327, -0.0503421575, 0.0109527279, 0.0587080866, -0.1022738665, -0.0099203838, -0.0089404844, 0.0279916562, 0.0654152855, 0.0690192655, -0.0291488059, -0.0841292813, -0.0462002978, 0.0335555188, -0.1138852015, 0.0350942351, -0.1076981947, -0.1335263848, -0.1194042340, -0.1185466126, 0.0040612156, 0.0920962021, -0.0731191337, -0.0765896216, -0.0880818367, 0.0623565614, 0.0170873739, -0.0883002058, 0.0260780249, -0.0901005268, -0.0999151319, 0.0176809411, -0.0631912053, 0.0983555838, 0.0592733361, 0.0315476656, -0.0975401476, -0.0289832614, -0.1104777977, 0.0632191077, 0.0142333871, -0.0145401834, -0.1168450713, 0.0101867802, 0.0550443754, 0.0786127672, -0.1153873503, -0.1360374689, -0.0152484747, -0.0654927194, 0.0748924389, 0.0381444320, -0.1036795303, -0.0352552980, 0.0633016676,